2809 32
good 0.7245047 0.2972532 -0.060572986 0.73676044 0.04291255 0.064523354 -0.35093594 0.65173346 0.76335025 -0.16607651 0.3064521 -0.7784219 0.17234352 -0.3195272 -0.52903837 0.59314346 -0.562152 -0.37331665 0.0967529 -0.40138277 0.29518119 0.34102952 -0.4158929 -0.09508812 -0.04283415 0.06865509 -0.31014377 -0.13469836 0.33778903 -0.43816075 -0.25987327 0.33079097
great 0.17616732 0.5449679 -0.28987563 0.14504787 -0.043927416 -0.05411576 0.13613571 -0.16499752 0.8156721 -0.23983979 -0.08874821 0.040790502 0.2331157 0.15212798 0.06032616 -0.049920198 0.2089689 -0.27881655 -0.44491535 -0.12572886 0.34908876 0.08659449 0.26824188 -0.33040056 0.4906201 -0.14462554 0.25074998 -0.39978564 0.2486296 -0.33969417 -0.5078427 -0.058991905
nice 0.3320799 0.5933876 0.47022918 0.659476 0.38912797 -0.18296069 0.051856298 0.56539965 0.97034407 0.2225945 0.24386221 -0.25358889 -0.09861146 0.15124412 0.043108266 -0.47109774 -0.037554987 -0.106998086 0.76870173 -0.07139107 0.63799745 0.60746974 -0.21090904 -0.68221426 0.8747535 -0.47028878 -0.2336312 -0.41129228 0.24097724 -0.31702977 -0.118864715 -0.7363041
little 0.25114223 -0.048383553 0.23519409 0.13835293 -0.53576815 -0.16115761 0.069007486 -0.19429202 0.5337438 -0.07446378 -0.12764286 -0.112041436 -0.1488002 -0.066566125 -0.09803367 -0.5325326 0.59516966 0.8029594 0.37740907 -0.98605853 0.15182051 0.7924796 -1.053393 -0.5190439 0.78500724 -0.0810394 0.64861846 -0.33618724 0.9063039 -0.33893812 -0.25311172 0.47870407
best 0.6794764 -0.11679185 0.5668301 -0.0073970216 -0.29649204 0.11305004 -0.04825595 0.126811 -0.090848096 0.029840617 0.070650846 -0.08495537 0.70919544 0.5573859 -0.79429007 -0.84139144 -0.08147007 0.04908084 0.3787597 0.27340233 0.54222757 0.5107417 -0.08120689 -0.4262255 0.28886452 -0.029815417 -0.11024977 0.036289457 0.86344826 -0.20409593 0.012780191 0.37106925
friendly 0.73519343 1.1216995 -0.061667796 0.2796697 0.05234704 -0.5145893 0.63177985 -0.19149975 0.2376859 0.41038337 1.0145956 -0.3570312 0.40589932 0.32929644 -0.3853237 0.06142783 -0.12395396 -0.24538371 0.6027363 -0.07243264 -0.38536444 0.57437354 -0.49387366 -0.18549015 0.35366717 -0.6086051 0.45792368 -0.65887773 0.06913613 0.26366702 -0.77009696 0.4170065
new 0.60590446 -0.14691867 0.5369304 -0.06086976 0.44385377 0.4678228 -0.56581104 -0.291889 0.27018023 1.0699918 0.25925997 -0.11243948 0.7904362 0.5742711 -0.20309317 0.1560849 -0.19370215 -0.53892463 0.51070267 -0.18031503 0.40130103 0.64450294 0.18330672 -0.3370232 0.22184561 -0.2177296 -0.39538184 -0.13593131 0.32616636 -0.5986264 -0.054332178 0.25777495
bad 0.8659974 0.13196132 -0.047300063 0.2709626 -0.5746631 0.34255904 -0.800871 0.86913437 0.64810693 -0.3750587 -0.4516521 0.25470454 -0.33425838 0.45153216 -0.49008518 0.33051518 -0.12729272 0.5755897 -0.22027567 -0.8442604 0.33560282 0.028668791 -0.5349299 -0.07685597 0.19859892 0.76777154 -0.4124132 -0.471216 0.7472643 -0.63691765 -0.60794675 0.2863945
better 0.5423826 -0.14526081 -0.051123478 -0.059943892 0.029985195 0.0077706045 -0.014685856 0.035679348 -0.15221581 0.48841184 -0.6398137 -0.32809427 0.61720973 0.33213785 -0.076149955 0.39784098 -0.53488576 0.27880016 0.41404742 -0.1887221 0.22570214 -0.050863765 -0.20654528 -0.74056107 0.051053945 0.08920349 0.4842021 -0.16955362 0.6176247 0.29721186 -0.24065283 0.25534195
sure 0.22113107 0.33993748 -0.40146214 0.37933344 0.32291946 -0.06485999 -0.51235193 1.2178206 -0.030995075 0.026807416 0.5105986 0.26748398 0.39805728 0.75645113 -0.3771461 -0.24570277 -0.20796646 -0.15379328 0.23322743 -0.26552913 -0.0043713544 -0.1298727 -0.47235394 -0.85058117 -0.346983 0.46450633 0.05160688 -0.055791825 0.30926475 -0.21843556 -0.5770353 0.09977447
small 0.28467873 -0.062489256 0.32911026 0.6998983 0.060648885 0.24106343 -0.03945812 0.45987898 0.609598 0.06751269 0.32324135 -0.55294263 0.407897 0.348562 -0.31910405 0.6432553 -0.40139663 0.019824838 0.30577466 -0.27555132 0.8341675 0.751412 -0.94370884 -0.60442436 0.70687085 0.15093912 0.31539604 -0.39447173 -0.11530034 -0.75937504 -0.5795679 0.14506555
amazing 0.04552184 0.9086006 0.08013059 0.5239809 -0.08282622 -0.088627726 -0.80734515 0.56948054 -0.13674356 0.1838665 0.28172514 0.16709116 0.26427615 -0.20696387 -0.502896 -0.19275346 -0.33283865 -0.06562915 0.14362483 -0.51665163 0.044857852 0.5856356 0.18279296 -0.8338471 -0.25795096 0.0686634 -0.05634208 -0.21330513 0.4070572 -0.07888683 -0.84662145 0.2876796
delicious 0.25110415 0.33644277 0.501667 0.36680344 0.020803323 -0.8341388 0.027206393 0.38943857 0.77431697 -0.33760798 0.02872624 -0.29770216 0.16618226 0.53319013 -0.17238726 -0.20674752 -0.31329173 -0.15858535 0.30559462 -0.11895542 0.077786945 0.8773006 -0.32089984 -0.5301786 -0.15343057 0.124129325 -0.4953806 0.2163214 0.33366722 0.43100566 -0.32344154 0.35223323
fresh 0.47936916 0.34951818 -0.24180517 1.3284589 0.6024209 -0.7750447 0.48346055 -0.003907323 -0.48780715 0.3456666 0.17511357 -0.13755298 0.2991209 -0.57215464 -0.75235844 -0.14725897 -0.15616216 -0.092028156 0.39704427 -0.38196507 0.5947965 0.66039085 0.026679914 -0.09554103 0.38889375 0.31675375 -0.03067179 0.32305405 0.9386626 0.23305373 -0.4313319 0.052735303
hot 0.4172481 0.4808036 0.7129847 1.0269567 -0.47512993 -0.16902485 -0.21443157 0.5744937 0.86908734 -0.25076166 -0.044557735 -0.43666056 0.17221034 1.0096835 0.4538972 0.09603466 -1.2166688 0.24029572 0.9361197 0.012164447 -0.062374942 0.93878025 -0.42669117 0.57810754 -0.08071496 -0.3772234 -0.40203708 0.28531823 0.3371821 0.38631192 -0.24349816 -0.7396374
different 0.7076303 0.38694146 0.3937637 0.07299186 0.27857688 -0.23144874 -0.08793778 0.17745039 0.4649862 0.542347 -0.2859864 -0.62439024 0.065718114 0.014628175 0.06667355 -0.80668676 -0.16459033 -0.27685058 -0.22895291 -0.49116457 0.7632034 -0.05304645 -0.0749128 -0.3977218 0.4116943 -0.022409873 -0.28205404 -0.28729466 0.23458815 -0.31228217 -0.7621704 -0.08548469
big 0.43295643 0.53295887 0.6699231 0.3965655 -0.40427396 -0.8441879 -0.4675951 1.0146523 -0.43192473 0.694541 0.3927198 0.3259379 0.21801977 0.19657348 0.5519798 0.6130565 0.020833854 -0.51499844 0.22391742 -0.5953962 0.26957163 0.67989624 0.08209952 -0.92763776 0.09088342 0.6132663 0.061586693 -0.57831424 0.5873031 -0.16032931 -0.0009577605 0.049401905
worth -0.17584391 0.029125948 0.047531176 0.8075208 0.79898113 0.27966663 -0.17774892 0.5928138 0.08375419 -0.3201332 0.011778586 -0.16642761 0.6929959 0.8465717 -0.0250242 0.57853264 -0.6893943 -0.054999303 0.29564634 -0.48048863 0.31080648 0.60649633 -0.121003196 -0.08706423 0.06735619 0.009788814 0.050857283 -0.33993268 0.61834747 -0.14605033 -0.021525765 0.14741366
happy 0.43956244 -0.2970442 0.016084433 0.17610006 -0.28509745 -0.1807266 -0.24391803 -0.24047193 0.64588815 -0.5420115 0.045704544 0.2898924 0.2058693 0.9562849 -0.49332395 0.0795867 0.1179244 -0.33444017 0.21482368 -0.44084415 0.67795014 0.4931331 -0.92398965 -0.33994842 0.37807724 -0.28473574 0.24606504 -0.04984709 0.20314978 -0.08549837 -0.006421929 0.31617087
clean 0.92661387 0.43140936 0.18212044 0.6539768 -0.5212736 -0.3968715 0.7084817 -0.49162516 0.68929565 0.10922236 -0.167431 -0.40761474 0.6994467 0.34467492 0.5705731 1.2288488 0.29618618 0.030321434 0.18769775 -0.747055 0.761304 0.47129446 -0.34365898 0.37081206 0.30197468 0.13174811 0.062103756 -0.4291531 0.4659393 -1.0983049 -0.62876165 0.06878223
busy 0.40749735 -0.03432737 0.56438845 0.22303961 0.43069714 0.2618885 0.013605166 0.04177033 0.62226605 0.25326023 0.060347214 0.18844046 0.7158129 0.49644557 -0.45820487 -0.0981344 -0.40925202 -0.17570485 -0.19480214 -0.16289228 0.42711106 -0.011309018 -0.46777824 -0.067844786 -0.218416 -0.8200491 -0.44677573 -0.601321 0.32459065 -0.037513435 -0.47531068 0.015989058
sweet 0.6083192 0.5412259 0.7046762 0.12562554 0.15354742 -0.1110981 -0.5785514 0.75025254 -0.06311372 0.2186565 0.19588558 -0.5362845 -0.158021 -0.28822345 -0.24505496 -0.658647 -0.0630342 -0.469052 -0.18511629 -1.4432409 0.025583614 1.5495936 0.011201284 -0.0066343555 -0.42559886 -1.0993111 -0.577828 -0.86088735 1.231561 -0.121144526 -0.3701343 0.3056871
old -0.37412238 0.019095464 -0.33309242 0.1727467 -0.44627053 0.21093589 -0.28083295 0.07845779 0.14664513 -0.021223234 0.3384661 -0.09139272 0.4137465 0.39355472 -0.93471175 -0.23550516 -0.1822688 -0.6591133 0.89831233 -0.707074 -0.16324 0.010395177 -0.8970183 -0.59980595 -0.059716705 0.43425775 -0.06341597 -0.6668125 0.4088903 -0.4992509 -0.23776668 -0.3060486
long 0.35131767 0.26221588 0.079738796 0.646971 -0.23163068 0.115632586 -0.38712808 0.36517578 0.6446318 -0.1417058 0.06173297 -0.18407805 0.5817394 0.6069404 -0.2689393 -0.20506728 0.20945793 0.1528673 0.5617034 -0.43350986 -0.22624622 0.6079967 0.118891954 -0.27910462 0.3948105 -0.25922 -0.22034323 0.35561386 -0.3315374 -0.19202222 0.028186133 0.78224
free 1.1716808 -0.34623274 -0.28645873 0.62210107 0.2287801 0.5669245 -0.11164105 0.06345263 0.022179201 0.28206265 0.09893951 -0.32053992 0.0077159386 0.1655191 0.05895308 0.22715117 -0.17535761 -0.26124796 0.16390245 -1.0756721 0.57756764 0.3018124 -1.0223234 -0.10267115 -0.4351067 0.012408908 0.4127872 0.20754053 0.411539 -0.23145978 0.08214198 0.5634318
large 0.9507781 -0.08336727 0.32936186 0.63901263 -0.9658071 0.19049263 -0.49711454 0.5465976 0.5155323 0.35406458 0.2945266 -0.46361035 -0.34420308 -0.31034246 0.026258452 -0.02172947 0.15111485 -0.25228083 0.76267487 -0.3941604 0.37430033 0.07203947 -0.13400713 -1.0593184 0.37259412 0.27154288 0.67025125 -0.09766918 0.68759453 -0.2802511 0.27275473 0.057421267
awesome 0.8212005 0.20552386 0.042888857 0.6518862 -0.23937204 -0.19220576 -0.37176043 0.18242425 -0.079989664 0.6163377 0.7141663 0.26528528 0.43985677 0.28222293 0.22316054 0.5075444 0.2725088 -0.18386355 0.7297849 -0.2778648 0.05009392 0.18943939 -0.9977591 -0.41376138 0.41562867 -0.048895344 0.04595022 -0.20288539 0.10814249 -0.53859913 0.07530772 0.6583728
huge -0.20390472 0.31405485 -0.2569099 0.051194064 -0.09085629 0.3854847 -0.16290466 0.20573032 0.48195273 -0.35589102 -0.2657876 -0.68362397 0.39933613 0.37762457 0.079648025 -0.363309 -0.58812624 0.20187876 0.08793089 0.30933344 0.629319 0.59374076 -0.2375594 -1.191748 -0.6708071 0.38227627 0.44693553 0.096084334 1.0480152 -0.47427857 0.20211159 0.5052736
decent 0.39491278 -0.12526573 0.20577396 0.723475 0.03076364 -0.23677248 -0.22850274 0.3637093 0.5276552 0.5053567 0.20839846 -0.022095446 0.9806936 0.4599007 0.89901024 0.35371986 0.24062651 -0.015325764 -0.5128957 0.051629424 0.36828724 -0.2654614 -0.1501659 -0.6268597 -0.87376696 0.5159188 0.005476482 -0.6869513 0.3564304 -0.09220262 0.055705935 0.4853364
tasty -0.18095799 0.18515697 0.2511713 1.5176194 -0.13751501 -0.011617162 -0.6199867 -0.14735352 0.32010543 -0.8141785 0.4437783 -0.31119144 -0.028401395 0.48428687 0.74936146 0.34806627 -0.029196873 0.10688542 0.46991006 0.02573112 0.5097933 0.73295724 0.43702784 -0.27391872 0.11319597 0.01489849 0.13416196 -0.16079862 0.00024371385 0.26026335 -0.6337119 0.9329226
special -0.16110581 -0.012466523 0.93827206 0.485706 -0.173002 -0.47431803 0.114102975 0.6307436 -0.100729525 0.349302 0.33870474 -0.22154416 0.6887362 -0.1736818 -0.23760083 0.29428098 -0.35331985 0.032752614 0.7384392 -0.7076524 0.5340289 -0.03060146 -0.47312862 -0.6189983 -0.3645297 0.041191105 0.66400445 -0.31546807 0.23106907 -0.46625346 -0.68756187 0.8399951
excellent -0.28133854 -0.11872958 0.20226714 -0.021941822 -0.5817161 -0.35296002 0.73767924 0.6268998 0.53064275 0.0020667464 0.58193487 -0.29730195 0.046754695 0.066907056 0.18061368 -0.6664994 -0.48130405 -0.0865907 0.61736125 -0.4190899 0.5365887 0.29075235 -0.5733894 -0.39289373 0.17778903 0.111560404 0.22327071 -0.15898956 0.5844376 -0.20649332 -0.7458969 -0.34815088
high 1.2669508 0.2360583 -0.15632625 0.4401602 -0.19793072 0.47446892 -0.6315663 0.4669897 0.9716319 0.5699532 0.2241369 -0.43027997 0.7228411 -0.3229419 -0.23137257 -0.43211415 0.23031591 -0.035378776 -0.38963336 -0.26324376 0.519197 0.40462324 0.11124103 -0.5755073 0.24460192 0.14818098 -0.37938628 -0.71865714 -0.021128694 -0.075831026 0.17186417 -0.14945178
worst -0.017854469 -0.35942343 0.84714675 0.23190169 -0.56513256 -0.19322254 -1.0331883 -0.13121277 0.27356234 -0.115236156 0.25742692 -0.9728927 0.9084554 1.1947337 -0.55775124 -0.6083072 -0.66308427 0.7236462 0.10813371 -0.3164885 1.0906233 -0.29615915 -0.6799228 -0.5792574 0.83256453 0.30543682 -0.111873604 0.088791996 0.055547137 -0.9948382 0.016969945 -0.11211239
rude 0.49745393 0.4828708 0.8910058 -0.22612971 -0.23020822 0.20455213 -0.06001684 0.703142 0.20243011 0.21739478 -0.26423836 -0.58587366 0.4878389 1.2020541 -0.74560505 0.047622856 -0.2215113 0.14285293 0.82378787 -0.3411295 0.08607416 -0.740506 0.45851856 -0.11696757 -0.2811406 -0.038589448 -0.15402795 -1.0829414 -0.12745297 -1.1317874 -0.051139764 0.14208633
extra -0.14453186 0.10134034 0.8477596 0.2539572 -0.27622873 0.2997989 -0.5336338 0.53155196 0.3746675 -0.40510178 0.1645244 -0.66630536 0.7921965 0.6351075 0.6516547 1.356086 0.58133465 -0.07061781 -0.17288159 -0.47448003 0.3163136 0.60233927 -1.1326382 -0.7151878 0.17924942 -0.6776017 -0.13893029 0.13691454 0.7074822 -0.27005488 -0.4842132 0.09828576
cold 0.62592375 0.95555884 0.7008617 0.6925161 -0.5313765 -0.05442459 -0.51930577 -0.46695507 0.8793929 -0.3975354 -0.6911422 -1.0885394 0.47155282 0.08285804 -0.51435065 -0.039930783 -0.2863649 -0.25055733 0.24411769 -0.08933203 0.9136567 0.5902629 -0.12834877 -0.3967587 -1.0313637 -0.008076163 -0.06907987 -0.14305377 1.158336 0.008549444 0.10050141 -0.51887774
wrong 0.5573378 0.6375756 0.5702384 0.26122007 0.3560873 -0.63312244 0.23019843 0.8035814 -0.09552629 1.1507361 0.59328425 -0.8465055 0.5470701 0.63827056 -0.25206694 0.30022866 -0.763036 0.64437914 0.33172566 -0.24914001 -0.34052792 -0.49633214 -0.7897825 0.06535756 0.10706036 -0.7328752 0.01492032 0.3332807 0.9313863 -0.99750495 -0.67769754 0.47089875
horrible 0.8330016 0.14341667 0.5324845 -0.31115353 -0.569524 0.49170572 -0.57530475 0.24676341 -0.074776545 -0.11768074 -0.008656774 -0.5482885 0.22955915 0.43201134 -1.1662649 -0.3609257 0.3826165 0.085270144 0.018099276 -0.58840114 0.5975004 0.16878968 -0.77517617 0.11648595 -0.89577013 0.13734694 -0.36400792 0.020185973 0.60635626 -0.58476543 -0.073676 -0.6754878
favorite -0.09636001 -0.40199414 -0.41137126 0.87115264 -0.13823918 -0.028783642 -0.30510324 0.72244704 -0.4167619 0.121541366 0.689058 -0.13377935 -0.24723859 -0.3692522 0.076934874 -0.09116386 -0.52585626 0.090374894 0.9674051 0.23757342 0.5717411 0.52013224 0.16579203 0.3437722 -0.08712821 -0.10009813 1.0337732 -0.15306251 0.46041945 -0.6699907 0.07917533 0.5519989
perfect 0.072722316 -0.18110162 0.33718637 0.90939784 -0.16510259 -0.7118159 -0.46781474 -0.057258047 0.5552066 0.2576022 0.06870571 0.22616373 0.73125416 -0.4880712 0.1603178 0.25693733 0.42527822 -0.63036245 0.6749235 -0.31232786 -0.1291041 0.64826334 -0.69167 -1.0614338 -0.44111332 0.37184873 -0.50413257 -0.16409332 0.6933011 -0.70472664 -0.39118916 1.0646952
terrible 0.5218753 -0.55293924 0.53818166 0.7915777 0.122371525 -0.16280152 -0.018027702 -0.35676947 0.7012535 -0.07310354 0.34551334 -0.5200937 0.49884215 0.55295086 -0.1969234 0.17241183 -0.7320009 0.10100113 0.33228412 -0.40122995 0.7297228 0.51818997 0.16587004 -0.31551775 -0.53404546 -0.43111253 0.1257963 -0.11071334 0.46571165 -0.7009808 0.03040615 -0.32863644
quick 0.25099668 -0.18360303 0.020224765 0.57284826 0.32764253 -1.3223872 0.638296 0.06302768 -0.27925232 0.11936875 0.1685179 0.1714663 0.026334748 -0.022067655 -0.29794994 0.43118697 -0.36852127 -0.05634842 0.24867694 -0.51291794 -0.014654755 -0.23338029 0.6371467 -0.7995216 -0.5288865 0.50610435 -0.38668036 -0.93679035 0.50847864 0.7951635 -0.68567234 0.78051734
second -0.16830736 0.5279878 0.69182676 1.5998298 0.036972143 0.23815991 -0.74464554 0.34876353 -0.7542906 0.90733707 0.63687325 -0.35055232 0.4860231 -0.3366881 -0.32202604 0.010143977 -0.24035268 -0.1418054 -0.044467293 -0.27913663 -0.54148823 0.033354305 -0.6836932 0.53386664 0.3608771 0.10777937 -0.602834 -0.40599567 0.7370242 -0.8952766 -0.34008732 -0.5772702
open 0.6535171 0.6114243 0.84842706 -0.17412843 -0.5343752 0.27402627 -0.17729953 0.7067877 0.4005472 0.87241924 0.7410167 -0.4187765 0.8692732 0.3715779 -0.7018896 0.8174409 -0.3870557 -0.75907665 0.21526313 -0.52914834 0.29704309 -0.40875354 -0.31735495 0.15714587 -0.12936892 -0.43680578 -0.27087227 -0.66811895 1.1943762 -0.2151659 -0.11997336 -0.3486164
hard 0.457393 0.20920378 0.32386813 0.41569072 0.07828705 0.47091046 -0.29345816 0.99785864 0.012189375 0.083054855 -0.38835222 -0.2756374 -0.5032176 0.38183653 -0.3841257 -0.40618175 0.016287547 0.04407376 0.3890364 -0.5484837 0.12662978 0.64972734 0.05090537 -0.17381325 -0.25623676 -0.18101186 -0.33346948 -0.0972894 0.17095254 -0.39351618 0.51800525 0.8570413
able 0.43685237 -0.036593974 0.48368347 0.05887315 0.59839153 0.018376669 -0.8459346 1.0343559 0.3241577 0.5407591 -0.24441388 -0.03351704 0.15768717 0.22646354 -0.53847045 0.30002385 -0.25569144 -0.59837234 0.59736514 0.23292018 -0.008071465 0.20247169 -0.46484503 -1.2472026 0.5653121 -0.6757128 -0.95491254 0.19482851 0.3643164 -0.31353065 -0.7492879 0.4730705
spicy -0.4092548 0.53566617 1.0435421 1.0864062 -0.39849883 -0.0046314644 -0.4469872 -0.18482284 -0.67485386 0.6938275 0.99344844 -1.3984454 -0.58932513 0.64636546 0.55159926 0.8187154 -0.7579363 -0.70381707 0.1848476 -0.56568515 0.33641902 1.0039855 0.52901685 -0.08019394 0.16569608 -0.51115197 -0.6625252 0.40125397 1.1853349 0.57720345 -1.6644976 0.23807548
disappointed 0.7852747 -0.3933895 -0.24417564 0.7781586 -0.009665519 -0.22532758 -0.68249357 -0.7433747 0.79770845 -0.023366049 0.12873532 0.3171395 0.3079907 0.0061532916 -0.38199136 -0.2519144 -0.60779595 0.1262597 0.85160017 -0.53719676 0.47718915 0.961527 0.64479697 0.09714946 0.11765152 -0.8132236 0.1341847 -0.030683657 0.24684261 -0.6842872 -0.56265205 0.22673853
right 0.20097461 -0.5242425 0.35989878 -0.553506 0.58585244 0.2360156 -0.28937107 0.9540532 0.16665982 0.36886096 0.7764889 -0.11360629 -0.04085948 0.11394129 -0.47502697 0.4147883 -0.40695974 0.31328103 0.22017333 -0.3087972 0.22432177 1.2716548 0.114307426 -0.4071283 -0.27973607 0.7927275 -0.82520646 -0.02459524 1.0626533 -0.66278183 -0.18752012 0.69852537
fine 0.86976963 0.4454801 0.94505495 0.02364271 -0.20714566 -0.4301064 0.101499416 1.3081921 0.034097545 -0.32142368 0.14833215 -0.6333342 -0.20094967 -0.11371688 -0.11652331 0.24549885 0.34135386 -0.18229426 1.0121498 -0.7587571 0.5575259 0.2903645 -0.059190836 -1.4965823 -0.6453142 0.34690607 -0.19932705 0.0023374506 -0.4095254 -0.8898071 -0.18245564 0.23509423
dry 0.75804067 0.37337828 0.98290384 1.007069 -0.16100608 -0.4660034 -0.9042062 0.23030163 0.46674922 -0.6101279 0.29316232 -1.5135257 -0.07826178 0.38179135 -0.92625636 -0.23674636 0.13005693 0.43679246 0.36259034 -0.9171224 1.3807677 0.7725338 -0.2777584 0.04081813 0.070529446 -0.15229993 -0.70028114 0.09440734 0.5002181 -0.4729568 0.2056304 -0.053550813
red -0.052001514 0.13016982 -0.52682626 0.54092854 -0.41969293 0.53602576 -1.2790523 0.7256284 0.2537513 -0.02568444 0.50450855 -0.6540688 0.25858775 -0.16848926 0.014280267 0.104906246 -0.16633661 -1.1531905 -0.93265194 -0.62505275 0.107813016 0.38735524 -0.28398135 -0.3110306 -0.6630565 -0.48461556 0.089188606 1.0422535 0.9419077 -0.32314196 -0.6951121 0.15612052
slow 1.0065955 -0.44105825 -0.030001743 0.9599583 -0.07727276 0.14384583 0.32919568 0.69573575 0.7082835 -0.55806 0.15035987 -0.32464495 1.0920067 0.6913634 -1.2586069 -0.22447881 0.02940039 0.124715686 0.8198422 0.45749834 0.8415186 0.33406526 -0.32203788 -0.82322985 -0.6604188 -0.10598624 -0.35485455 -0.52634215 0.78053755 0.29091537 -0.13238907 0.07067525
cool 0.6156984 0.23771253 -0.27377605 0.637102 -0.39053527 0.11973213 0.18623298 1.4527049 0.47414747 0.2765171 -0.41571873 0.06307296 1.5856836 -0.28392324 0.21285972 -0.42310372 -0.03426421 -0.33535907 0.59493226 -0.61596376 0.402839 0.083080806 0.5893635 -0.5943168 0.2390483 -1.0754238 0.8672962 -0.83207524 0.60399103 -0.2745016 0.04047401 -0.005037419
expensive 0.33302498 -0.25155985 -0.5571301 0.37938783 0.071647994 0.1305782 -0.23113891 0.38175952 0.9956941 -0.30247772 -0.21390742 -1.087387 1.595396 0.367926 -1.3979952 0.41867638 -0.2181468 0.10898214 0.047200657 -0.0842414 0.3360803 0.75864196 -0.22735643 -0.14112298 -0.78872323 0.8424549 1.1555551 -0.23183236 0.5061321 -0.3657371 -0.43407887 -0.5887285
helpful 1.8379225 0.97544193 0.5226933 0.77899945 1.184241 -0.3880138 0.042377666 -0.17673023 0.72009325 -0.05237864 0.9023962 -0.12111214 0.5660564 0.6874965 -0.9266688 0.8466274 -0.15132472 -0.33579347 0.42490864 -0.39576682 -0.47249126 0.13795418 0.24929081 -0.07363337 0.13893515 -0.42289564 0.7907233 -0.4122205 0.68197596 -0.29840603 -1.3510108 0.51899135
ready 0.080414645 0.99853337 -0.46284506 0.6105645 -0.042242434 -0.46640143 -0.22551674 0.4619181 -0.23324104 0.33389044 0.35322717 -0.36589098 0.5125473 1.1267943 -0.42774045 -0.26548627 -0.205137 0.13934636 0.19662905 -0.954507 0.9046903 0.62936777 -0.5963212 -0.80006874 0.22338693 0.25574732 -0.21332285 -1.2249737 0.9991816 0.53426236 -0.60288566 -1.2441276
local 0.2856935 0.33995855 0.3386222 0.38430935 -0.043855153 0.21869737 0.20621769 0.51695424 1.734432 1.3974621 0.8056771 0.1424151 0.24849942 -0.9437996 -0.5401 0.05448733 0.1271853 -0.24226776 1.22534 -0.07318507 0.25606784 0.18141331 -0.6779017 -0.905146 -0.9537209 0.24927963 0.71585184 0.9693827 0.41623047 -0.38741767 0.06509779 -0.21779126
regular 0.1810623 -0.07213821 0.31125858 0.5569413 -0.8025719 0.29401258 0.2495578 0.21233568 0.021370206 0.4634537 0.20642179 0.22465472 -0.016075341 0.123933114 0.42605093 0.28340882 0.47522148 0.22387849 1.8096716 -1.3511834 0.23347339 0.50088924 -0.22734243 -0.5097873 -0.26031443 -0.7317338 0.6708083 0.03485499 0.6940839 -0.9763429 -0.66806436 0.82262534
poor 0.9356546 0.8183971 0.60142976 -0.2269842 -0.6719946 -0.7246717 -0.6099139 0.2740665 0.52758664 1.1207734 -0.44869816 -0.69943035 1.3716264 0.41253316 -1.4909878 1.7555969 -0.19831438 1.15548 0.39999682 -0.472143 0.6567051 -0.033794023 -0.6640379 0.12852342 -0.20297243 -1.133603 -0.21127489 -0.9061271 0.27544323 -0.7791061 -0.33893895 -0.70290834
average 0.4959152 0.09401863 0.5856367 0.6351639 0.04433136 -1.2216455 -0.08720743 -0.089180306 -0.057927165 0.4258541 -0.4419814 0.07220851 -0.39278466 0.20948121 -0.22960383 -0.63627934 0.44755307 -0.28937456 -0.74419683 -0.7147253 0.96694094 0.8041247 -0.3441188 -0.31318888 0.2800432 0.15761082 1.1208731 -0.31172165 1.2248807 -0.4468657 -0.53696376 0.36270884
cheap -0.83350605 0.11701422 0.38381857 1.202422 0.55904317 0.14221 -0.10769798 -0.023328591 0.55154276 -0.3028838 -0.1615993 -1.1415062 0.47128737 1.1997715 -0.201553 1.0598102 -0.41390026 -1.4182564 0.25464767 -0.5067455 0.6352322 0.46730223 -0.65690637 -0.3952207 0.4186216 0.5755518 0.31429255 -0.75834566 0.28862527 0.33475938 0.92679167 0.16492324
main 0.44673726 0.55683744 -0.80465853 1.0368379 -1.3872985 0.745309 -0.110806726 0.6517289 -0.22376731 0.33739012 -0.09997812 -0.79897434 0.2549029 0.57397324 -0.2497375 -0.30181298 0.1539343 1.1855122 -0.5229689 0.06839992 0.5032991 0.6943063 0.1436928 -0.5033867 -0.539866 -0.4669437 -0.56218386 -0.5144722 0.66674834 -0.7254619 -1.2925693 0.39770007
short 0.67759126 0.84697396 0.7767121 -0.31723702 -0.26881012 -0.013495492 -0.64893585 1.8272411 0.06582499 0.97372675 0.12494294 -0.5338898 0.3146304 0.406324 0.07474435 -1.0089362 -1.2518802 -1.1258631 0.66338456 0.538712 -0.230917 -0.34169266 -0.035278834 0.050008863 -0.72547805 -0.98223865 0.10070519 0.6792257 1.123092 -0.027531669 -0.35906482 0.03716132
fast 1.1014344 1.2272122 -0.085675836 0.7264137 -0.33406225 -1.2373365 0.22372097 -0.061194118 0.009703988 0.37159958 0.11983343 0.49043077 0.6509657 1.0618768 0.34703547 -0.24164902 -0.9221055 -0.12157023 1.2832065 -0.68752927 0.35612205 1.1358414 0.6515151 -0.42343244 -0.7612346 1.5077854 0.5905833 -0.18727429 -0.17071378 -0.1088823 -0.47449422 1.5892026
overall -0.43882564 -0.2244044 -0.2661441 0.5493907 1.5238204 0.04618919 -0.46378946 0.65122056 -0.2297933 0.1517667 0.29052135 -0.2032265 -0.15551928 -0.5392947 -0.55982274 0.22016776 0.8008396 -0.35420159 0.2308594 -1.1524763 0.31646454 0.7407281 0.5677297 -0.70426786 -0.32842648 -1.0038804 0.3066329 -1.11206 0.6239898 -0.2756121 -0.015159188 -0.928613
real 1.6285511 0.10961048 -0.6370638 1.4613874 -0.29383263 -1.0393301 -0.8914173 0.66728246 0.023192346 0.022802219 -0.068011194 0.80523854 0.30504066 0.978704 -0.7941842 -0.36296645 -0.060069717 1.4166132 0.29916212 -0.250684 -0.24096702 0.22986366 0.16708025 -1.1819177 0.122647144 -0.102054454 0.8601881 1.3052778 0.3770834 -0.23770887 -0.24056077 0.048977047
beautiful 0.19017369 1.0728312 0.3112632 0.8926289 -0.59059197 0.09494673 -0.4152869 -0.15689364 0.06997678 1.0076487 -0.034079045 -0.41128328 0.20762062 -0.3974154 -0.4045519 -0.13032787 0.7066111 -0.64109993 1.252643 -0.14904024 -0.6021333 0.98463166 -0.29730573 -0.75399965 0.8050395 0.25619105 -0.36830768 0.12486883 0.43308887 0.07598729 -1.1925672 0.08183566
entire 0.23984602 -0.58299136 -0.20073223 0.1816926 0.9832109 -0.9814984 -0.66612476 -0.08346234 -0.3675562 0.91502637 -0.43161958 -0.5260442 -0.0083334595 1.0653374 -1.1762393 -0.067443155 0.66766757 -0.41625825 0.68827105 -1.2965411 -0.43503204 0.91965944 0.9626119 -0.84310424 -0.95115185 -0.263465 0.6000509 -0.45147598 0.96415836 -1.9719304 -0.20999807 0.20322107
white 0.88006157 1.3115215 -0.16191287 0.43870938 0.6855747 0.036068823 -1.1234826 0.98452204 0.1342878 -1.0530633 1.089723 -1.2440077 -0.17787017 -0.58952945 -0.1283739 -0.31448892 -1.6550714 -0.75649285 1.5983702 -0.53822345 -0.11664753 0.7232218 -0.60046345 0.06580606 -0.19961625 0.6301387 0.01819123 -0.1669676 0.18619512 -0.7090882 0.42890137 1.5745112
available 1.6473413 0.22241667 -0.42528528 0.4915113 -0.5513113 -0.30865464 -0.8516173 1.6979336 0.5923254 0.7909083 1.1106242 -0.18839005 -0.012148183 1.260923 1.4857801 0.006203265 -0.5632507 -0.55948 -0.6952818 -0.76290303 0.61288583 0.6438241 -1.0733773 -1.1177825 -0.6789188 -0.80724543 0.2593508 0.110571526 0.6664072 -0.1730723 0.22622111 -1.0440906
fantastic -0.7061129 -0.43853864 -0.4993044 0.7358867 0.6973531 -1.1971786 -0.7299163 0.27003363 0.5978912 0.9293166 0.7844197 -0.8706077 0.94804585 0.34675166 0.5707409 -0.27008006 -0.68970084 -0.66432935 0.032036535 0.054231923 -0.039889384 1.0333078 -1.6735743 -1.0324262 -0.40658322 -0.15158243 -0.089031145 -0.2794353 1.1534603 -0.30565286 -0.349306 -0.060006104
okay 0.49035174 0.46286973 0.8711545 0.13859351 0.40272427 -0.11827309 0.68704003 0.7761238 0.109728076 0.13231388 -0.41630945 0.99964106 -0.686534 0.6399109 0.0032459104 0.34360814 -1.0784199 -0.31687137 0.65853554 -0.31048304 1.0601598 0.75858825 -0.036652237 -0.11638365 -0.46593714 -0.5854745 0.40350068 -0.5323516 0.33204404 -0.8150379 -0.9405654 -0.04830881
warm 1.2206115 0.77148414 0.85619634 0.82591885 -0.46254236 -0.9629082 -0.17382076 0.113964416 0.80399156 -0.18054627 -0.88170767 -1.0334818 0.4069277 -0.6385424 0.31718603 0.032006573 -0.8609453 -0.43383512 0.14387976 0.3350635 -0.5751742 0.87244225 0.60863554 -0.061252914 -0.3369792 -1.3475889 -0.6651392 0.018647468 1.5825924 0.42437348 -0.056978002 -0.93467146
dirty 0.94386166 0.40314892 0.339128 -1.0351391 -1.0379373 -1.855947 -0.6876021 0.17449927 -0.44838744 -1.4255631 1.1605028 -0.62954605 -0.13629253 1.1152681 -1.1766232 0.18676747 0.074434124 -0.7681533 -0.22546066 -1.3111793 -0.17827432 0.7768845 -0.797298 0.7257113 0.35917917 -0.01874106 -0.17009121 -0.526065 0.56166524 -1.6177669 0.31306005 0.30866295
wonderful 0.74861044 1.699329 0.98071533 -0.22176947 0.30713022 0.5059678 -0.5069377 0.42788398 -0.10836543 0.14619245 0.084566996 0.73187095 0.6592009 -0.61231196 1.1251771 -0.30526343 -1.1371652 -0.7118357 0.69135284 0.4984422 0.07381198 0.9466428 0.3832937 -0.04708752 0.18496384 -0.16391532 0.59104794 0.34050488 1.2440867 -0.31563866 -0.82500136 0.36049512
close 0.3644461 -0.57533 -1.1202757 -0.531096 -1.2016164 0.5062499 -1.2942604 -0.0050834897 1.1600313 1.3027666 0.456587 -0.5516944 0.62554044 -0.17255194 -0.056448087 0.95605844 -0.9548297 -0.8748309 0.25143003 -0.9323412 0.46003205 0.30791238 0.31698158 -0.48197725 0.8667784 -0.44154882 -1.1942422 -0.19522943 0.6962526 0.005090805 0.41360095 -0.50006026
simple 0.1909887 -0.18324281 0.6757278 0.11060871 0.36511546 -0.2707823 -0.46633893 0.8748099 0.024205972 0.8468366 1.1965389 -1.5254143 -0.7546693 -0.3911266 -1.2092748 0.5074989 -0.7405739 -0.899684 -0.058879923 -0.36850908 0.23298253 1.7802773 -0.90200233 -1.0209763 0.19729058 -0.22186382 0.080053955 -0.7543462 0.31179422 0.2208403 -0.49382755 -0.9845421
easy 0.86011356 0.27795142 -0.11435678 0.27162057 -0.93934613 0.6472714 -1.1474799 0.14181384 1.1174417 0.5341301 0.4025077 -1.1422186 0.5287553 1.0216439 -0.02165049 -0.34960514 0.4606266 -0.21959305 0.8894803 0.28620738 -0.70520777 1.5845227 0.5087945 -0.0039008732 0.45515317 2.0393822 0.014698934 -0.62250555 -1.4942784 -0.08002296 -0.4711571 -0.38964108
bland 0.851934 -1.7216439 0.88087046 1.2452877 0.20241608 0.17685203 -0.8981495 0.18267314 0.73959047 -0.11917003 0.66938186 -0.21569356 -0.059875492 -0.7392397 -0.49646822 -1.2465134 -0.7392071 0.5894227 -0.07039341 -1.2610626 1.3501793 1.7807393 -0.539632 -0.42929724 -0.89557433 0.38360885 0.017368965 -0.3161285 1.0343382 -0.46128005 -0.5365176 -0.0574896
las 1.1086305 0.07982361 0.76555717 0.074588224 0.12540068 0.9442474 -0.47337577 -0.07924118 -0.008794153 1.1862643 0.22313057 0.35013095 0.81531847 -0.4798108 0.47853088 -0.36665976 -0.63565177 -0.38304988 0.13882463 -0.23539054 1.1198484 0.7366709 0.01534529 -0.75315416 -1.4982344 0.19784865 1.3332483 0.37182987 2.0520597 -0.7012523 -0.1362728 -0.09433387
green 0.05221737 -0.09793986 1.2688138 1.5635384 0.32829043 0.7075375 0.4748101 1.0560963 -0.14682305 0.06195675 -0.034145772 -1.1211872 0.25002265 -0.6743974 0.00064297393 -0.2501954 0.46557188 -1.0621775 0.81060094 -1.5283884 -0.77274996 0.8470535 -0.30183804 -0.5357947 -1.610745 -0.331914 -0.48335254 0.06843021 -0.358289 -0.7909283 -1.1467513 0.020499533
chinese -0.97648597 0.28654805 -0.31309322 -0.16591041 -0.8518438 -0.62019366 -1.2262282 -0.20521006 0.07810339 1.4597013 1.2673346 -0.72304684 0.039593183 0.18471847 -0.38515782 -1.4926813 -1.2754855 0.11556559 -0.23369917 -0.81653506 1.6452445 0.7936532 -0.21689974 -0.5047048 -0.5596376 -0.11775245 1.1494185 -1.4393116 -0.0869491 0.0968497 -1.1612053 1.4937959
professional 0.73784655 1.4746393 -0.19676115 -0.7743479 1.0175977 -1.0285583 -0.71092165 -0.00036827847 0.15770344 0.0152456425 0.5385408 0.7021308 1.5594382 0.32678983 -0.019392759 1.1164018 0.106654935 -1.0527769 -1.1684117 0.3351505 0.8924948 0.051330283 0.3271763 -0.7246659 0.32555467 0.64175 -0.15086524 -0.59417415 0.85346264 0.17884867 -2.1763701 -0.32628524
black 0.611838 1.2064736 0.38887665 0.45454478 -0.61322635 -1.0407934 -0.6828711 0.8845145 0.024434485 -0.9998492 0.034091454 -0.33414993 0.47974005 -0.6647719 0.27038813 -0.7390268 -1.1613382 0.04012994 0.44177592 -0.5954193 -0.4296797 0.8471431 0.38866076 -1.1320952 -0.8122998 -0.14941142 1.064488 -0.40492064 0.8543687 -1.2558465 -1.0879089 0.17935854
ok 0.47380182 0.2658611 0.21375324 -0.5793008 0.47273284 0.44604316 -0.13645455 0.20986219 -1.3560592 -0.25654468 0.2889508 -0.9227405 1.1643406 -0.0026697323 -0.4869444 -0.2767846 -0.6510337 0.18561146 -0.07135455 -1.1823202 1.2550167 0.26339883 0.5479033 -1.5748363 -0.18649355 0.19044814 0.409906 -1.25545 -0.024469314 -1.1479176 0.09142425 -0.65798485
attentive 0.8238572 0.9997299 0.15410756 0.39807388 1.0150045 -0.37962463 0.32248023 -0.6118231 0.15716694 -0.230048 0.32499456 1.357857 -0.27301544 1.0567479 0.337484 0.7076555 -1.0639385 -1.111623 -0.07207428 -0.25708604 -0.55516464 1.2154405 0.18252279 -0.108532034 -0.70272744 0.13780372 -0.6582017 -0.6968298 1.285297 -0.58466524 -1.6623676 0.8325072
french 1.2406112 -0.0616688 -0.16295792 0.89902896 0.711599 -1.8462323 -0.30986324 0.4157307 0.28178966 -0.7778303 0.36798948 -0.7249345 -0.24441399 -0.6799284 0.82797396 -0.5623631 1.6876571 -0.5467061 0.2309389 -0.56280077 1.6242031 0.5780737 -0.46445128 -0.9343167 -0.56630343 -1.6760675 -0.07511877 0.21643087 1.5224539 0.27528632 0.23452125 0.52179366
reasonable -0.024472693 -0.18212175 0.25519317 0.09160183 -1.2292248 0.4756281 0.9714015 0.002514137 0.33301115 0.003952468 -0.14768516 -0.18239194 1.1673856 0.11119108 0.36229193 -0.32120472 -0.47960305 -1.3522047 -0.93938166 0.029580258 1.3754022 0.33108702 -0.25351173 -2.344202 -0.09924222 -0.8009942 0.25453404 -0.4775512 0.13855948 -0.5779493 -0.38958162 1.1696303
impressed 0.79935455 0.86650074 -1.5557687 0.5715454 0.1460735 0.03135506 0.95774573 -0.00044225197 0.90024066 -0.26514184 1.2879152 -0.28389385 -0.0392837 0.10928371 0.12823181 -0.37607247 -0.5674888 0.6498226 0.7950545 -0.48280552 0.6539854 0.7679662 -1.0418638 -0.4455364 0.7239171 -0.4774638 0.22464225 0.83780426 0.8186792 -0.35278055 -0.964586 0.41218126
mexican 1.1643931 -0.1829177 0.12695679 0.43220586 -0.43434072 -0.19110265 -1.3841282 -0.79198486 -0.4889711 0.31523627 -0.04117667 0.082372084 0.29662177 0.76403546 -0.26946616 0.09636351 -0.5188441 -0.8411499 -0.4038953 -0.6976062 0.37673718 0.93233275 -0.85042197 -0.73987645 -1.4136934 -1.3448329 0.67348945 -0.5543554 0.98854 0.56439084 1.7472749 0.8735401
comfortable 1.1652869 0.20414835 -0.020189155 -0.0827595 -0.98628587 0.4617015 0.7566186 1.579126 0.7108519 0.3675874 0.25122872 -0.4697389 1.0492605 0.6889616 0.03235699 -0.076300375 0.72073644 -0.78835624 0.008325288 -0.3926023 0.2815007 -0.2206117 -0.9945865 -0.15913601 0.43902653 0.8677777 0.31191996 0.36091375 0.39284012 -0.041243818 -1.6975863 -0.009477965
late 1.1853915 -0.79756707 1.009403 0.0118665 -1.4899464 -0.5035771 -1.1673588 1.023221 0.14326148 1.3217041 0.34531915 -0.3123402 1.3046883 0.772508 0.17831774 0.2502216 -0.46664363 2.1254656 0.5029655 0.6712114 -0.39265534 -0.32734334 -0.4727739 -0.30237505 -0.38916755 0.50190485 -0.007300997 -0.5994253 0.15796791 0.017414924 -0.4010935 0.8541953
hungry 0.5313537 -1.1535349 0.4437288 0.54282653 -0.17819448 -0.7490429 -0.0180356 -0.0035814107 -0.17602259 0.093636125 -0.31195378 -0.7542741 0.97004867 0.40887332 -1.3047259 1.0487491 -0.28668764 -0.043385983 -0.69432086 0.04534717 0.35542622 -0.6740773 -0.6282859 -0.6089997 -0.3691396 -0.17981254 0.43108684 -0.6632867 0.43136325 0.024695106 -0.13242473 1.1325508
pleasant 1.0185089 0.35952625 0.34047413 1.3653415 -0.86989963 -1.4969149 0.21964228 -0.23294833 0.7306659 0.75882673 0.24734321 1.6355592 0.033187777 0.3212615 -0.8964176 0.5476302 0.15043186 -1.0704818 0.4615643 -0.23787934 -0.31105536 0.24230947 -0.055658527 0.20334461 0.078982465 -0.049118936 -1.1311307 -0.8593748 0.5232901 -1.072391 -0.24833192 0.9512865
awful 0.58417654 -0.026136108 0.69437474 -0.5547774 -0.84100175 0.2597086 -0.10316684 -0.16011426 0.72580826 -0.9259226 0.3704624 0.05922917 0.35477793 0.24297528 -0.991319 0.8853666 -1.631028 -0.28906465 0.29822695 0.5882667 1.521801 -0.38592505 0.9966283 -0.2528379 -0.6775649 0.28719938 0.45859683 0.23470886 0.40609065 -1.5484099 -1.4949241 0.076163486
pricey 0.11817594 -0.6060512 -0.5318737 -0.28924665 0.17997079 -1.0435834 0.11929599 0.49167046 2.06775 -0.18498231 -0.90639573 -0.7871922 0.44555658 0.076227404 -0.6155783 0.035653416 0.35112166 0.471479 0.6337754 -0.43895572 0.3601826 0.5398976 -0.4467266 -0.1356744 0.8031697 1.0121332 -0.45276958 0.3580027 0.6999714 -0.006288515 -1.0860602 -0.07043847
loud 2.4133725 0.4859666 1.0454583 -0.39367944 -0.6348854 0.44130906 0.7949576 0.115003265 0.6709339 0.40068373 0.79553485 -1.4088255 -0.8271875 0.474114 -0.79916006 -0.3357316 0.29024452 -0.9507636 0.0071705356 -0.34374055 0.20762089 -0.4461702 1.3438222 -0.19564772 1.059622 -0.5872757 0.013129027 -0.17568462 1.0015376 -1.3150866 -0.24493621 -0.5917711
fun 0.7112107 0.9379776 -0.31673318 0.3265677 0.5848261 0.8321886 0.29019675 0.38104132 0.78620774 -0.08135594 0.08452885 0.26074594 1.065977 -0.55852807 -0.72318697 -0.0112162875 -0.48947066 -0.9976788 0.004657531 -1.2389715 0.29663628 0.70087886 0.44269335 -0.62513816 -1.2986276 0.68679625 0.39197084 -0.95074147 1.1486106 -0.19102748 0.015936157 -0.39625862
glad 0.28735524 0.28062466 -0.4128423 0.33293003 -0.5368329 0.07175826 -1.1442599 -0.031267997 0.6593922 0.4501241 1.5204114 -0.19171798 0.1491906 0.9687532 -0.49653208 0.9087774 -0.629501 -0.28217447 0.13215816 0.19317225 -0.109537415 0.28145418 0.42664006 -0.99860793 -1.0408132 -0.30035678 -0.23540772 0.26043776 0.23388292 -0.049248576 0.4951612 0.14544909
disappointing 1.6420953 -1.3266995 -0.21085736 0.4647017 -0.19590554 -0.20601343 -1.0258386 0.58804077 1.3794097 -0.2068626 -0.098823994 -0.1534639 -0.00243916 -1.0158745 0.20458673 -1.8453197 -0.4670079 1.0534416 0.30787474 -0.5199368 0.35366288 1.5314069 -0.4704209 -0.062135857 -0.014344394 0.17928414 -0.6938522 -0.896123 0.9087545 -0.9125443 -0.23227069 -0.29822084
soft 1.0736992 -0.16858193 1.75225 0.82185906 -1.1120425 -0.8874916 0.2904496 -0.33263573 1.2476305 0.31892058 -0.92774403 -0.24944031 -0.6641196 -0.6987772 -0.40798634 1.216681 0.7167811 -0.3844112 -0.4863854 1.061599 1.5497222 0.7675544 -1.1954145 -0.69244903 -0.47887436 0.6407883 -0.921873 0.29191816 1.1442183 -1.0747269 -1.4687597 0.79524356
tiny 1.6356785 -0.26789725 1.1233019 1.3524343 -0.4542358 -1.4353466 -1.8294287 1.5294619 0.91188055 0.59810174 -0.3523328 -1.1732339 -0.671216 -1.0217876 -1.0577664 0.90120584 -0.6740804 0.87245876 -0.34968236 -0.6730605 1.0427197 0.8996947 0.6626461 -1.1213533 0.4157951 -0.3133155 0.01569919 -0.29387248 0.051233172 -0.68243194 0.1018583 0.076764286
salty -0.6178837 1.3592758 0.33382398 0.10626568 0.2453604 -0.48318905 -0.29504186 0.39776668 0.70128506 -0.41081202 -0.7916188 -0.941766 -0.812388 0.12732102 -1.3947816 0.084874436 -0.07079514 -0.4306852 1.0410056 -0.56379485 0.94358295 0.40837795 0.21169427 0.656587 -1.4487222 -0.98796374 -1.6161282 -0.060207516 0.5668675 -0.4010813 -0.57053965 1.5224278
worse 0.6939194 -0.34995115 0.7984861 0.92995584 0.08053037 0.8928647 -1.0337344 -0.6543432 0.9175763 -0.034307618 -0.38068104 -1.849059 0.48644385 2.1688259 -0.9527977 -0.1889195 -0.91646767 -0.36131802 1.3462626 0.33991346 0.43862537 0.0569428 0.22708513 -0.2054134 -0.06577979 0.14076634 0.6800177 0.45068696 0.31596836 -0.25674796 -0.42208874 -0.05544044
surprised 2.1615767 0.25955623 -0.6486204 0.9364247 -1.014437 0.42754585 0.13029377 -0.3028117 -0.24202669 0.5517018 0.35142323 -1.6222492 0.2774998 -0.17266147 -0.7847583 0.88967896 0.03833416 -0.03502508 1.5402203 0.41831076 0.38365895 0.49206597 -0.83342355 -0.2643904 0.023422508 -0.18829623 0.5486704 -1.0344262 0.62354994 -0.61391056 0.49389708 -0.5218341
flavorful -0.08628595 1.0290309 0.21097368 1.28054 -0.8925705 -1.2022626 -1.4047213 1.0154809 0.71464324 0.38346758 -0.14036001 0.23617901 0.000510633 -0.80963755 0.4664772 0.1682058 -0.5434489 -0.09564121 0.36020955 -1.0665687 0.63679796 1.6332672 0.5555597 -0.2684696 -0.5343659 -0.96965396 0.1296072 -0.056841873 1.0902561 0.63819 -0.5178929 -0.009761058
past 1.6442349 -0.5202693 0.1902808 0.41224104 -0.01444676 -0.83444923 0.0889801 -0.24149531 0.3420736 0.49661317 0.14252698 0.90556675 1.3422774 0.36913803 0.39897335 -0.43930528 -1.2253857 -1.1012403 0.29362804 -0.076906085 0.5516679 -0.44371024 -0.49098733 -0.29080924 -0.85626364 0.7360465 -1.1667726 0.4819108 0.8564199 -0.65574634 -0.7973511 0.17133151
single 0.6945814 0.74866354 0.07237845 -0.84121126 0.23617709 -0.1137139 -1.096075 -0.111232154 -0.47668916 0.9242472 0.50124604 -0.58066165 -0.5044803 0.90483904 -0.08480067 0.378046 -0.5010383 -0.46827784 0.62092936 0.8015664 0.17834991 0.7511398 -0.52194923 -1.8078022 0.10429327 -1.3316207 0.6672042 0.17698887 -0.24859749 -1.7694829 0.20517299 0.097200826
italian 0.9971933 -0.4505281 0.03878379 1.0531353 -1.0708085 -1.2401153 -1.0615175 0.36505556 0.33705327 -0.0773293 -0.33213884 0.8881311 0.15751933 -0.006472226 -0.46322614 -0.7371114 -0.46242866 -0.1718548 -0.4983515 0.13184398 0.52015096 1.9396379 -1.2705736 -0.8469727 0.13768286 -0.6390627 1.2373579 -0.09714675 0.7835422 0.05338845 -1.3250722 0.754162
low -0.5594031 1.2061756 2.8543723 0.34843916 -0.31747815 -0.38740352 -0.7198414 0.5164086 0.3815873 0.023528004 -0.2454121 -0.43217218 0.39785388 0.9077138 -0.39601487 -0.62107563 0.14355788 0.12956306 -0.2144393 -1.7607548 1.0024645 0.31299004 -0.7293473 0.2065562 1.0378426 -0.4426292 0.33737564 -0.79239845 -0.41494936 -1.5880458 -0.9207553 1.6565367
sad -0.23132278 -1.396461 1.1343901 0.38517624 0.1496785 0.12718673 -0.3853813 -0.32254392 0.9290323 0.93681204 -0.1828269 -0.4701774 0.36938557 -0.53363144 -0.52110624 0.22638744 -0.4009828 1.8227699 -0.78966945 -0.43469474 0.20860204 -0.040798794 -0.66685987 -0.1394845 -0.30815738 0.30767304 0.95187104 -0.88070136 2.1436117 -1.3871306 -0.98841554 0.06725581
cute 0.4732735 1.7674655 0.24965383 0.56334287 0.48146108 -0.78093064 -0.45204 -0.12448164 -0.6715013 1.6082566 -0.31978342 0.13762607 0.06334012 -1.0648216 -0.48444206 1.3105228 0.55349153 -0.78250694 0.1671279 -0.14430842 1.156193 0.9839998 -0.29335284 -1.0666187 -0.26755148 0.7990834 1.696262 -0.21313702 0.6463172 -0.4211554 0.4395048 -1.1196281
thai 1.2863259 0.9360654 0.23632346 1.5320815 -0.035703134 -0.1722772 -0.21924266 -0.5294722 0.43696028 0.48818433 1.7412615 -0.37964958 -0.80408 0.019312304 -1.0331807 1.2138636 -0.8064726 -0.64854175 -1.0091255 0.32616174 1.2978414 -0.16058153 0.30441678 0.055317875 0.109293155 -0.21796623 -0.14841059 0.87425184 -1.1550858 -0.2594537 0.38407546 1.4302284
sorry 0.6162843 0.008220125 1.2208987 0.3603019 0.5290801 -1.3494521 -1.4508817 -0.62065125 0.035045084 0.8821501 -0.94430363 -0.9489104 1.1494006 0.76418924 -0.23713425 0.7371851 -0.26347268 1.2947894 0.00334976 -0.574661 0.6120325 -0.5788739 -0.481733 -0.6068609 -0.5070715 0.4102086 -0.02236355 -0.58871466 -0.4299869 -0.54696757 -0.2555475 0.0025748683
mediocre 0.2704899 0.3757036 1.3992193 1.0424805 0.88295513 -1.6614656 0.33567482 0.62487257 0.7891872 -0.29639995 0.08043001 -0.6004379 -0.042486034 1.030015 -0.05671858 -0.610835 -1.1052479 0.06621608 -0.60187507 -1.6392965 0.0437262 -1.1766363 0.6398231 -0.7410822 -0.5215644 -1.0571452 0.62962466 -0.6852504 1.09872 0.34881485 -0.14444998 1.1550212
weird 0.7246622 0.5162409 0.7195747 -0.6075944 -0.4699899 0.063790455 0.20273395 1.4023279 -0.038732294 0.29031947 -0.77566886 -0.7370122 0.07376128 -0.34595194 -0.61712855 -0.63991 -0.1585458 0.1353579 0.93455124 -1.0732144 -0.062240165 1.3443472 1.0176148 0.07859156 -0.88767725 -0.032164756 0.5276209 -0.48117968 -0.3505639 -0.29888546 -0.27771556 0.6782595
interesting 0.11321572 1.7216475 -1.4201337 0.6931742 0.9124186 -0.69854313 -1.0241435 1.0691377 1.3663772 0.5220431 -0.16049658 -0.8715628 0.45983 -0.31633848 -0.29548422 -0.67071784 -0.7972778 0.38316205 1.2483475 0.22572641 0.27153763 0.25953513 0.6564077 0.1846087 0.5335613 -0.938294 0.63879824 0.46859443 0.5250808 -1.180631 -0.8686759 -0.6821435
excited 1.285429 -0.197725 0.19587666 0.0057467986 -0.10380666 -0.78159875 -1.4443091 -1.136503 -0.9726571 0.9045423 1.0765944 -0.034045275 1.1069773 -0.3680306 -0.1218153 -0.23642333 0.23182595 0.24121071 1.7013335 -0.8681609 0.660858 0.87966716 0.4702093 -0.70857924 -0.09520891 -0.3372233 0.16625454 -0.44572693 1.0568879 0.10341157 -1.1601052 0.2517323
authentic 1.7095109 0.23715203 -0.51300484 1.0901741 0.56106544 -0.5975908 -0.054992378 -1.4358138 1.2418041 1.2262301 0.39903012 -0.17770934 0.10067931 -0.3387306 -0.087670304 0.036028214 -1.3556887 0.4397849 -0.8431791 -1.1608428 0.46514264 0.95943666 0.7738127 -1.2151933 -1.2924075 0.12256465 0.63155234 1.2200183 0.33587703 0.18503317 -0.3347803 0.54598343
non 0.18196589 0.72622013 -0.9158601 1.8849285 -0.4003539 1.0635049 0.49163654 -0.7455053 -0.092442475 0.078360364 1.1164665 -1.0979182 0.24691777 2.0900824 -0.540937 -0.69565856 0.071872756 0.833344 -0.16422838 -1.1529547 0.8670118 0.59092194 -0.4329613 -0.63799286 0.9129933 -0.43038443 0.43705717 0.14362974 0.4321441 -0.041915916 -1.4734739 0.072368294
fried -0.15482275 0.86828846 0.89503247 1.3965663 0.14530498 -0.36929342 1.0035107 -0.5754307 1.3456887 -0.5675486 1.6328357 -2.097931 0.3930138 -0.94938725 -1.0552206 0.2364889 -0.004825304 1.1602142 1.7960815 -1.6550856 0.3378875 -0.24936414 -0.028021041 -0.6107451 -0.63472503 -0.18157782 -0.8856556 -0.39635003 1.0439963 0.4550222 -0.9357605 0.30204043
solid 0.66761905 0.7093512 0.5725791 2.0156653 0.37015608 0.46596438 0.3420994 0.058392454 0.21023495 0.8060707 0.21984781 0.8016873 0.060507987 0.816363 -0.20798694 0.021944476 -0.3375188 0.30967155 0.6621004 -0.42634046 1.1838368 0.61234283 0.14899011 -1.6887826 -0.18209648 0.67057455 -0.2820216 0.9356851 -1.1992859 0.72249675 -0.3180257 -0.08206464
young 0.04423089 0.8855848 -0.19205207 0.039556406 0.08113092 -0.3805411 -0.84040457 -0.057215594 1.1530663 0.62144214 -1.1978266 -2.417302 1.4532396 0.25072098 -0.18624592 -0.09000561 -0.6361797 0.057813916 0.004910496 -1.073325 -0.49445105 0.6380897 -0.25653967 -1.8462825 0.19892521 -0.5938229 0.5448985 0.41043866 0.7426651 -1.7926728 -0.7701689 -0.50689137
dark 2.4362874 -0.09160708 1.0189332 0.24397054 -0.18121077 -0.89059025 -0.2645095 0.7821741 0.9787275 0.116671614 0.8647025 -1.1433156 -0.9672781 -1.2568793 -0.8063024 -0.7425689 -0.4261222 -0.8752292 0.65590113 -0.7068259 0.93802094 -1.2412125 1.3321073 -0.7088546 0.38039824 -0.38270858 0.7793964 1.4601268 0.0449145 -0.25334874 0.14034645 -0.2158049
garlic 0.11305933 -0.5933412 0.5851971 1.6166478 -0.23021032 -0.6571256 -1.4095935 0.6511337 -1.5918647 -0.73661083 -0.19445574 -0.52017105 -0.5492838 -0.7010587 -0.6259076 -0.07843873 0.047806673 0.995431 1.7256013 -0.70820737 0.4925947 1.1289066 -0.7989746 0.16300428 -0.636988 -0.24145065 -0.3125464 0.5845052 1.3209997 0.6700183 -1.2354361 0.09805069
possible 1.6173735 -0.017807009 -0.18576668 -0.52589166 0.31884435 -0.1264925 0.14168474 -0.15743151 0.9589736 0.5580176 -0.53539425 -0.97513276 -0.8642708 0.79257774 -0.6456805 -0.13713077 -0.8051856 0.4766944 0.4234184 0.061295543 0.7511085 -0.075212836 -0.99299383 0.42261088 0.37455228 -0.447706 0.064610176 0.61613446 1.1879271 -2.1391387 0.28206196 -0.57319844
personal 1.6865366 0.83626986 -0.93605477 0.19180867 -0.012007391 0.7437346 -0.30064222 0.09776334 0.21322434 1.3073235 -0.08396697 -2.1284907 1.5916857 0.47711504 0.76888144 0.77729666 0.34652588 -0.22385167 -0.10754969 0.0518581 1.0138654 0.34962508 -0.91593844 -0.9868469 0.14775711 0.35937226 -0.39597163 0.3589828 0.005090456 -0.5364816 -0.825873 0.71321595
standard 0.03623211 0.29944152 -0.22099392 0.7233027 0.19942033 -0.55446196 0.01618663 -0.508244 -0.39707538 1.9012682 -0.6337994 -0.17554612 0.45007053 0.45483318 0.10303129 0.0061951517 -0.13091348 0.5005519 0.9186132 -1.2989544 0.8982111 -0.79277277 0.1381908 -0.55931914 0.6952756 -0.81184185 0.49019557 -0.20718004 -0.13319342 -0.6169141 -0.9191919 0.81580544
asian 1.4712706 -0.32857168 0.51467216 -0.42869136 0.13921094 -0.41297534 0.541434 -0.47298557 0.6801145 1.1280094 0.78726447 0.037270457 0.4210419 1.0184827 0.03915982 -0.6730745 -0.7442235 -0.54570514 0.61050713 -1.1340249 1.2292503 0.31581455 -0.70659053 -2.6229544 -1.8228518 0.4445187 -1.4583082 0.30248404 0.072100066 -0.35419562 0.84532225 1.2700304
unique 0.67901474 0.28470045 -0.73013794 0.94080776 -0.9288488 -0.38566005 -0.449966 0.6568713 0.18643938 0.58687854 0.005858284 -0.14321013 -0.18106486 -0.24867275 -0.22193068 1.2921078 0.6268905 0.4854728 1.4627314 -0.33426192 0.07467401 1.5528898 0.06051498 -0.87965375 0.6513455 -0.4828434 0.14376222 -0.6437062 0.6475306 0.28970313 -0.25907046 0.33214882
usual 1.2446946 -0.2254942 -1.2371098 0.23212972 -0.19756772 -1.3682632 1.0857795 0.4817716 0.649361 0.4990327 -0.029416654 -1.3373429 -0.19037649 0.61541826 0.44402868 -0.24271175 0.5593385 0.082904235 0.6970191 -0.38795474 -0.66336 -0.069705546 -0.80620134 -1.0969664 -0.7193928 0.10243742 -0.47042385 -1.0196506 0.36603302 -0.4593781 -0.33019817 0.3116864
similar 0.27613863 0.10022454 0.29366773 1.478862 1.1291776 0.52017236 0.26890442 -0.27937186 0.18027239 1.0710374 -0.48131737 0.5392611 0.8302986 -0.38852805 -0.09870996 0.51252127 -1.6384827 -0.47967097 0.8720759 -1.4476012 1.2314749 0.3224823 0.50550926 -0.47410828 -0.8780653 0.15553363 -0.57092893 0.195902 0.7309675 -0.50659156 0.32734913 0.2994959
light 0.7002445 -0.55953836 -0.4487226 0.12532799 -0.52037174 0.43607008 0.037773993 0.28838465 0.94202405 -1.0252073 0.76342964 -1.3954794 -1.0869261 -0.92827153 -0.9306542 0.08321205 0.24665843 -1.40005 1.1388544 -0.11310495 -0.51248467 1.672326 0.12358612 -1.0148461 -0.037899256 -0.12366563 -0.19601136 -0.10097597 0.5590713 -0.7394304 -0.9853663 0.56490487
frozen 0.45266578 0.24988626 0.1322393 1.0261639 -0.9264474 -0.6152379 -0.53994507 0.43309337 0.73653364 0.05331239 -0.51537406 -0.06304487 -0.2525056 0.75943226 -0.92134196 0.46889013 0.052554306 -0.6634586 1.126283 -0.7596885 0.21454743 0.971502 -0.4081548 0.37786874 -0.914404 -1.1776896 -0.7198485 -0.17347191 -0.120655 -0.2766463 0.809847 0.53027046
true 0.6866418 0.020291677 0.15121241 0.3103288 1.2421142 -0.6311601 0.35656238 -0.6836113 0.037945915 0.108987294 -0.38182396 -0.022441003 -0.2830222 0.9043016 -0.26716477 -1.2059625 0.90212435 0.54880697 0.3713384 0.15995301 -0.14898376 1.4611031 -0.9678646 -0.24633849 0.869092 0.33516806 1.1672274 0.04649503 0.6392029 -0.31612906 -0.09696409 0.22283076
crazy 0.34764907 0.50147724 -0.030924257 0.52404207 -1.6638494 -0.708655 0.55629826 0.45919895 0.41421315 1.0247939 -0.7309937 -0.15197188 -0.5124381 1.3346202 -0.7602076 0.87584704 -0.34558538 -0.6476388 0.20446263 -0.9540268 0.21460108 -0.44836473 -0.35824063 0.07581643 -0.5706773 1.4715924 0.15704887 0.03855822 1.5278869 0.38567597 -1.6080648 0.08565419
thick -0.5322156 0.1736853 -0.32140958 1.4327492 -0.49600145 0.2770662 -1.3377352 -0.19997893 1.0654194 -0.43235573 0.68870556 0.19758281 -0.98288375 -0.5213461 -0.56919867 0.08450038 -0.8211628 -0.71682984 -0.07323396 -0.13294621 -0.45505548 0.9782488 -0.31089285 -0.77321184 -0.37695304 -1.0970116 -0.24319342 -0.3797549 0.043431386 -0.9687612 -0.66668034 0.015625793
yummy 0.25533864 -0.22848625 -0.8432046 1.8850926 -0.38600475 -0.6304962 -0.763578 0.64460397 0.5564643 -0.66947556 -0.21856494 -0.7120568 -0.74021477 -0.35877854 0.08163967 0.8211507 -0.6310425 -0.28230172 0.9021065 0.5134603 0.6899366 0.85649693 -0.03145157 -0.37311608 -0.55208445 0.15474877 0.82580465 0.11689087 0.70307136 0.45662028 -2.2884586 0.86496
fair 0.916417 0.36942604 -0.799677 0.019711552 -0.110972725 -0.38317242 0.009954738 0.3097611 -0.44251728 0.41853374 0.18862881 0.08681443 0.38616958 1.2573985 -1.4758817 0.21428384 0.3011877 0.37342012 0.8069036 -0.3858411 1.0619153 1.4983642 0.6166415 0.6425436 -0.2003506 0.04686997 0.2358095 0.23394501 1.0877506 0.9405023 -0.36893138 -0.22951753
thin 0.21849534 0.39103037 1.4872231 -0.026714165 -0.54782873 0.3122916 -0.05542144 0.4469541 1.010562 0.2538103 1.2086469 0.62942445 1.119804 -0.95655495 0.6274926 0.09856124 -0.13518725 0.1931923 0.05731727 -1.57715 0.5982042 0.10471095 -0.0074963644 0.23682937 0.09478778 -0.3506819 0.20571303 0.6683717 1.025855 -0.8253322 0.6157734 1.7234236
blue -0.04115462 -0.7248559 0.1145221 1.3799317 0.74792963 -0.063145965 -1.279445 -0.36699593 0.924192 -0.6078505 2.7450278 0.35009432 0.3464943 -0.34997055 0.467637 -0.5943145 0.8550829 -1.3535953 0.010631424 0.33149043 0.67709357 0.661384 -0.09684731 -0.937358 -1.0582142 0.8329514 0.18653409 0.5689076 1.8804567 -0.93615586 -0.36790577 -0.2388135
ridiculous 0.010951868 -0.770244 -0.62212235 0.3543403 -0.12911938 0.37855437 -0.5464599 0.050987802 -0.1076017 -0.14801276 -0.65242213 -0.56732863 1.0709606 0.79837567 -0.6996554 -0.14093775 0.81414783 -0.82091707 -0.63535553 -0.5095672 0.8064158 -0.6145803 0.1426741 -1.0841559 -0.05830041 0.14707229 -0.060083073 -1.5479283 1.2062334 -0.23505323 -0.00031781243 -0.052355375
sour -1.1507974 -1.0631099 -0.47906384 0.8760884 0.08575977 -0.6929032 -0.35622668 -0.69611216 0.99246114 0.01751636 0.34052747 -0.7761467 -0.4453426 0.9805063 -0.40895617 0.2251592 -1.8762631 0.5130498 1.2938817 -1.4258388 0.782604 1.1141869 -0.20288643 -0.42461836 0.8140123 -0.21209951 -0.24661939 -0.10902051 1.2097884 0.3306409 -1.2680404 1.305084
multiple 0.89172924 0.85127574 0.079383485 0.10470373 0.23332144 0.7630799 0.58850724 0.35025266 -0.0069059664 0.24187388 0.71033376 -0.7399702 0.33309904 0.67200893 -0.023067916 0.7320542 0.027148737 0.49326333 0.61822695 0.6219685 0.36062318 0.62875444 -0.24261439 -0.19444273 -1.1698987 -0.07195161 -0.74651265 0.3844048 0.023379536 -0.9986167 -0.07924234 -0.7601872
negative 0.3084689 0.27408844 0.35230753 -0.14037222 0.56109303 -0.21757115 0.12209972 0.6956286 0.9906418 -0.32771444 0.1789749 0.1005774 1.2492534 0.1619584 -1.652896 0.5349517 -1.2116743 -0.28829783 -0.07319503 -0.7606073 -0.004944472 -0.029230462 -1.1506147 -0.9924221 0.08904072 0.15738271 -0.70389813 -1.3364798 0.13911328 -1.5764928 -0.3445541 -1.5485812
smaller 1.5441544 -0.81372195 0.0033747759 0.7451464 0.072813764 0.07689312 0.37875506 0.21313104 0.5869458 -0.17259495 -1.1535239 0.49227288 0.70183784 0.33676675 0.13866992 0.35451648 0.40636584 0.88719815 0.38780934 -0.86918116 0.6427359 0.5856018 -0.45659912 -0.5925273 1.6516001 -0.58860284 -0.32987767 -0.025828568 1.2796838 -0.08410725 0.7728646 0.4697834
higher 0.453998 0.21923897 0.89983076 1.6334293 1.0080103 -0.53567505 -0.059503343 0.27462175 1.3288118 -0.68545777 -0.160155 0.429425 0.13310106 0.75280535 0.033066586 -0.086411566 -0.65473783 -0.29214242 0.15607077 0.6867159 0.9473372 0.4449613 -1.6809158 -0.63170207 0.9515359 0.21284693 0.630775 -0.46659464 0.81098115 -1.2033564 0.47068962 -0.10887767
basic 0.97000456 0.11589107 -1.292567 0.7442486 1.0472344 0.7595941 -0.03217551 0.8361931 0.82717985 0.5716634 0.038169965 -1.3441525 0.0054980135 0.06536337 0.22558877 -0.28200594 0.29916498 -0.5001889 0.7090777 -1.843409 1.2715807 0.13827857 0.43622333 -0.9335644 0.058017366 -0.6361093 -0.2715049 -0.022058262 0.13910466 -0.18580063 0.45599884 0.42861107
general 1.3125978 1.9112208 -0.08864623 1.127206 0.21752037 1.0099808 0.73820895 -0.8617918 -1.1632348 -0.32141286 -0.033159338 -0.8534333 -0.4769427 0.34314492 0.028477985 -0.08200296 0.16172129 0.9929354 0.08652257 -0.19446094 1.4128621 0.745319 -0.14460374 -1.0652444 -0.6188434 0.3982914 -0.29641134 -0.32643494 -0.90769196 -0.7317859 -0.49223045 -0.09213868
total 0.6231476 -0.5027619 0.09084546 0.30615184 0.42427048 1.4392257 -1.3548986 -0.37694287 0.17545685 0.86046404 0.0046829977 0.15759633 1.9174918 -0.015278684 -0.5463551 -0.04734472 -0.24748842 -0.5302364 0.22658825 -1.0145516 -0.49180165 1.5084774 1.1826868 0.040471174 0.09295298 0.4538782 0.50096977 0.22812293 1.3519597 -1.0400853 -1.1059268 0.47574106
knowledgeable 0.99134165 1.6356146 0.7199568 0.42057005 1.6778984 -0.20709015 -0.1851879 -0.23574084 0.10262965 0.76951003 0.64636207 -0.5097987 1.4913069 0.3843234 -0.54369926 -0.05880177 -1.0098894 -0.522667 0.042711228 0.67548305 -0.11702338 0.618106 0.9695345 -0.8958674 0.3387913 -0.62587696 -0.27863497 -1.4564985 0.97716075 0.011404711 -1.5372548 0.34382963
convenient 1.1823187 -0.5981105 -0.76948655 0.8933081 -0.08343255 -0.51683044 0.1565763 -0.6667756 0.1352811 -0.2502186 -0.34036428 -0.113407075 0.99346054 0.3894421 0.09226252 -0.046977337 -0.09838024 -0.19328767 0.498527 -1.2980927 -0.6032348 0.20576188 -0.2529937 0.38882196 0.123845 0.77231103 0.08391634 -1.979168 0.12894084 0.29516268 0.17045853 0.30965182
neutral 0.47921854 -0.044577166 0.028273188 0.056331746 -0.35739607 -0.3234879 0.6703177 -0.7601887 -0.21085608 0.17756738 0.20933264 1.1692873 0.40834606 0.13589385 0.46621767 0.50424653 -1.1401317 0.41603172 -0.69980437 -0.16116141 0.47237888 -0.3777792 0.8874285 -0.25907388 0.16511644 -0.84663785 -1.2214258 0.15468034 1.8257366 -0.7491175 1.0109048 0.52282876
half 0.43488294 -0.88066804 0.9952897 0.09036071 0.5275462 0.37915355 -0.54095113 0.2779759 -0.8541777 -0.25692135 1.2822218 -1.176528 0.8739466 0.4178826 0.48264095 1.3129205 0.63316745 -0.29768962 1.3726056 -0.34923995 0.06800507 -0.15579988 0.7316307 -1.4315193 0.27982807 0.5287442 -0.3448334 -0.6144109 -0.13057755 0.31821302 -0.37436503 1.2848792
clear 0.66391426 1.7058953 -0.19259788 -0.33074713 0.0064276564 0.16107741 -0.19068053 0.27977318 -0.82188284 -0.39813626 -0.09207158 0.12098347 0.71463746 0.67956567 -1.1041243 0.71144617 1.0665598 -1.220165 0.9880093 -0.93334186 -0.43943685 0.7697311 -0.24837756 -0.23587246 0.48630753 -0.5799419 -0.55645627 -0.28852242 0.8774381 -0.5947962 0.11238199 -0.15287136
difficult 1.4188106 -0.036526036 0.0030283537 -1.5009341 -1.262671 -0.41095883 -0.28775537 0.04860434 0.13379866 0.65607834 -0.35600585 -0.36957675 0.9278734 0.7515317 -0.22307026 -0.34349307 -0.32355642 -0.46667323 0.82851255 -0.5945851 -0.127035 0.80005765 0.034491684 -0.3075974 0.2968312 -0.20078783 -0.6864098 -0.7428703 0.6228576 0.7387706 -0.9434017 -1.2059243
honest -0.0643495 0.7429107 0.8202817 0.45880133 0.814135 -0.5416314 -0.25398174 -0.32634825 0.83355033 -0.00354128 0.6479927 -0.054379683 1.6746565 1.2593733 -1.8139251 0.050008822 -0.32621816 0.10585489 -0.20859018 -0.17080012 0.16129762 0.26021305 -1.4241265 -1.175823 0.6405419 0.8368019 -0.36756602 -0.19136785 0.86493313 -0.58914167 0.5090435 0.5480764
original 0.019739347 0.9190451 0.34112683 0.80630857 0.52270395 0.80221224 0.13095306 0.96246344 -0.34081557 1.0216476 -0.72508925 0.11928396 1.2038723 0.20469649 -0.91469413 -0.93220484 0.9838924 0.29102215 -0.8603388 -0.25597763 -0.49989814 0.22832398 -1.5136546 0.64488494 -0.059829254 -0.67316985 0.9724455 0.7533657 0.5323217 -0.37391204 -0.37593657 0.4787891
korean 1.7897875 -0.232311 0.48112997 0.28614506 0.18926863 -0.50256103 -0.432359 -1.1508205 0.8597979 0.43538836 -0.34910095 0.062435735 -1.0593804 -0.32227728 0.70891273 -1.0578644 -0.45175123 -0.32490805 0.5284811 -1.4631813 1.6912838 0.00052405894 -0.85615355 0.10833207 0.07117425 0.0032106228 0.32110327 -0.73741573 0.2539623 0.24834971 0.4257368 1.7040445
creamy -0.5195757 0.69816345 0.6468791 1.5641323 -0.42958993 -1.3342856 0.22245209 0.6637879 -0.050135862 -0.13387904 1.1235411 -1.0619149 0.6068352 0.4730753 0.20588022 0.5583036 -0.13800816 -1.5507569 0.66532826 -0.83228165 0.8923787 0.7920883 -1.0081686 -1.3084867 0.25584677 0.9197644 0.73653275 1.9799676 -0.40477437 -0.6072923 -0.5901723 -0.29650646
limited 0.7600378 -0.3059041 -0.7630069 0.7108852 -0.34247932 0.51189 -0.32202625 1.8919865 0.020060569 0.76047856 -0.074346796 -0.090176605 0.20306039 0.12745628 -0.41474164 -0.17527144 0.16106969 0.3875739 0.07718532 -1.1135304 0.055863414 0.7376371 0.39973065 -1.8748856 0.26358524 -0.12866564 1.0752914 0.42518097 0.4500541 0.635012 0.25647223 0.6916976
pleased 0.42656237 -0.41363275 0.82064915 -0.13734852 1.5377806 -0.10033842 0.07200867 -0.68227774 0.7575339 1.3015782 0.83194697 0.65970623 -0.1859628 0.5668538 0.7413999 0.7506356 0.72894 -0.7042135 1.9396056 -1.1984924 0.5420298 1.3419111 -1.2594732 -1.1201215 -0.03261223 -0.41986716 -0.14192058 0.7731238 -0.48593986 -0.6461967 0.0067946585 -0.14106031
normal -0.002554886 -0.12809531 -0.44659358 0.3157232 -1.1806239 -0.9930753 -0.021256024 1.1390657 0.7288977 -1.1416861 -0.9212757 -0.41654864 0.7496172 0.39416692 -1.8101668 -0.23509972 -0.13716489 -0.83145154 0.32920593 -0.6659794 0.9407771 0.398719 -0.98697734 -0.7110724 1.2972872 -0.55193996 0.46476868 -0.09167616 0.29566744 -1.7689401 -0.59652597 -0.52262294
gross 0.372929 0.2110536 1.16744 0.8347651 0.13446374 -0.27241543 -0.2202474 -0.51312745 0.97845054 -1.3168563 -0.19057569 -1.4648004 -0.47670645 0.3010484 -0.33711147 0.35916907 -0.73791057 -0.12766327 0.56014574 -1.704993 0.83359414 -0.2547493 0.35103676 0.90697235 -1.7506483 -1.2178317 0.956323 0.49800637 1.9493535 -0.7248768 -0.48425868 -1.2914512
positive 0.62083274 0.9533409 1.0559912 0.37090278 0.060083803 -0.24796693 0.121076785 -0.110390216 -0.3248101 0.91913897 -0.17075565 0.5064166 -0.0014539873 0.014022765 -1.473817 -0.9779604 0.31600934 -0.15727073 0.44380713 -0.6374387 0.5832727 0.5720806 -0.7981551 -0.31117362 0.51255417 0.9670165 0.0040975898 -0.3999293 0.0472597 0.026645038 -1.215944 -1.1760224
fancy 1.75187 0.14003266 0.17630412 1.1858723 1.1414217 0.36184502 -0.06967519 1.4310088 0.5318084 0.17081434 1.1342149 -1.4110392 -0.7018609 -0.9159164 -0.46757746 1.0497727 -1.7930145 -0.40067932 -0.81748146 -0.55378664 -0.6667869 0.16930339 -0.33875224 0.65284616 0.5029548 0.41031653 0.6213154 -0.74685323 0.25988722 0.31355825 0.46789384 0.8193645
willing -0.20237243 -0.01623614 -0.27021277 -0.29017648 1.0113761 0.13739093 -0.29211125 1.5331147 0.5160464 0.7277535 -0.55313337 0.4092574 0.40408003 0.40088925 -1.2946422 0.027851157 -0.23339194 0.5901659 -0.5309658 -0.1933617 0.0030886095 1.3301564 -0.68465996 -1.0400918 -0.017330332 -0.94490844 -0.7985047 -0.93156517 0.6415383 -0.28406653 -0.896847 -0.16563793
certain 0.80565614 -0.5958128 0.23401248 0.7372296 0.41417858 -0.25006455 -0.8111029 0.42446777 0.06199374 0.7150006 0.15770401 -0.82358253 1.27839 1.242242 0.5518927 0.3022333 -0.6198389 -0.5380799 0.695679 -0.5868535 -1.5610578 0.2892961 -0.63061726 -0.35838288 0.35556796 -1.028205 1.0752354 0.033595055 0.23477384 -0.45567128 0.46117908 1.0948064
polite 0.76675594 0.87424123 0.4132738 0.5756851 1.2830698 0.8945778 0.93581986 0.028902654 0.772341 0.7487212 -0.28611386 -0.04908534 0.61019754 0.5126089 -1.1049448 0.01601167 -0.72174084 0.5008383 -0.31761637 -0.021342482 -0.19339317 0.45621377 0.08782725 -1.6615429 0.6982254 0.3337627 -0.59465766 0.0215039 0.45087403 -1.1143963 -1.2056664 0.044081982
juicy 1.3417878 -0.16420633 0.7258793 0.8406735 0.49381527 -1.6730222 -0.42863047 0.633875 -0.30857888 0.12556046 0.59231657 -0.011890503 -0.7200332 0.0035951775 -0.7202974 0.33938104 -0.8222658 -0.20496048 0.58979326 1.6932753 0.49086732 0.5312532 0.47058243 -0.5831971 0.60537255 -1.4694215 -1.3446783 -0.15232486 1.4521902 0.6107371 -0.78317195 1.1300055
tough 0.59194255 -0.14229119 0.04626672 0.3467487 0.41591474 0.22156349 -0.99889016 -0.048638064 -0.30581728 1.1587546 -0.3298396 -2.3084223 0.4770796 0.46812394 0.0023995666 -0.2803723 0.7016336 0.35264125 0.98652214 -0.07912774 1.6698687 0.4405051 0.47353795 0.07027008 -1.6630689 0.86203945 -0.6404926 -0.6815907 1.2884358 0.41443586 -0.58302134 0.14546268
outdoor 1.7847282 1.2576238 -0.0075153983 -0.44117224 -0.43436125 0.9047109 -0.34577295 -0.06313853 1.3087076 0.08323174 0.20383205 -0.4282465 0.77862096 -1.1312774 -0.48692065 1.1082832 1.0183924 0.4425472 1.1009015 0.6601544 0.47471815 0.5064408 -0.1283109 0.74936503 0.9688627 -0.40946543 0.47261456 -0.48294714 1.831449 0.008321714 -0.30683324 0.43996292
satisfied -0.49753892 0.92810017 -0.94377536 0.8766492 -0.8523888 0.06648741 0.3312067 -0.17917785 -0.24421519 0.91579825 0.4986117 0.43439227 0.08745536 1.0706253 -0.5964626 1.1234256 0.48033977 -0.3386485 0.77620727 -0.19228008 0.18248403 0.5614846 -0.74839485 -0.8526412 -0.54709035 -1.5689077 0.4506716 -0.054554354 -0.26008213 0.5889713 -0.2769309 0.38764518
additional 0.42489767 -0.7371446 0.14840104 -0.0046612932 0.36806706 0.058348227 -0.870326 0.8882404 0.9310316 0.61085254 -0.045778368 0.03076388 0.63837546 1.1887485 -1.0016773 1.9483361 0.40901908 -0.10012955 -0.3980783 -0.5150948 0.71295595 1.7992774 -0.71865094 0.06387068 0.14351001 0.90877473 0.19391212 1.2046483 0.23162624 0.0033594207 -0.019329656 0.6689576
unprofessional 1.0578927 0.78039795 0.17934415 -0.16072461 -0.58481586 -0.23035543 -0.66706157 0.028077258 -0.709139 -0.5573318 -0.40973875 -0.7642108 1.7933441 1.5229537 -0.61876917 0.053889226 -0.16787508 -0.9651681 0.5267998 -0.5013346 0.2108389 -1.2034947 1.2654341 -1.1779233 -0.034155153 -0.9679997 0.068417 -0.47908077 -0.25179273 -0.48680106 0.64212 -0.8992003
actual 1.4562112 1.1525956 0.58130765 -0.029860435 -0.66429216 -0.92913634 -0.88500005 0.6861467 -0.66088873 0.6289067 0.29188758 -0.25555772 -0.12806681 0.4882567 0.19901614 0.39343324 -1.2658765 0.6064538 1.4690317 -0.15486272 0.30909896 0.46264866 -0.39424852 0.21654041 -0.10735517 -0.34907314 0.9464864 -0.25648102 -0.5402339 0.24735583 -0.05152703 -0.03505925
modern 0.63138336 0.6664038 -0.6517616 1.2331119 0.14370412 1.0356885 0.6704455 -0.49517232 -0.37168398 0.91864747 0.8391164 -0.05362809 0.17984779 -0.9436943 0.17454286 -0.22253318 0.025953943 -0.13967453 0.82923406 -0.31851342 1.1232831 -0.21015774 -0.11343471 0.037440218 1.0443226 0.7939171 0.94939774 -0.45076025 0.614556 -1.9413571 0.40332362 -0.17045404
flat 1.6078391 -0.40194705 1.577605 0.680174 -0.2018996 1.048376 1.7219152 0.4153098 -0.102110505 -1.6324962 0.1310865 -0.73631215 1.939581 -0.15193921 0.7186785 0.6322857 0.0519462 -0.5045309 0.5075746 -0.7069179 0.60561013 0.3988497 -0.33053294 -1.7531781 0.30489582 0.7179787 -0.28276828 1.3849641 0.37651083 -0.6133125 -0.45384735 -0.05675086
odd 0.72687316 -0.36034954 0.7643768 1.9045069 -0.8631634 0.1168043 0.36942896 -0.12564565 -0.36339557 -0.10608889 -1.3641962 -0.10883513 0.92126846 -0.35717833 -0.27769333 0.21289402 -0.57215464 -0.678446 1.1849871 -1.0703396 0.89567864 0.6603394 -0.45501238 0.35276031 0.1032137 0.3783629 -1.9881406 -0.5484569 0.91306376 -0.5300247 0.52889985 0.65856177
double 0.09378137 -0.68304914 -0.16328628 1.7287626 0.19623195 0.38831204 -0.73640996 0.71741986 0.3030724 0.49356967 -0.34839085 -0.99495465 -0.86142355 0.7348887 -0.7447847 0.7241805 -1.5562509 0.19776374 0.5215724 0.20610285 -0.6445423 1.9157426 -1.0240735 -2.2716734 -1.289169 1.2675146 1.2352768 0.39550287 -0.31873533 -1.5838908 0.019752169 -0.12784395
disgusting 0.48093888 -0.8619963 0.2170658 0.4912148 -0.8138822 -0.2916451 -1.0317713 -0.11831854 0.39221403 -0.3707271 -0.039968185 -0.6351604 0.39423385 0.56864065 -0.1884076 0.026362618 -0.048423775 0.11390968 0.6636028 -1.3628457 0.94975233 0.21677685 -1.5970883 1.5349795 -1.6092346 0.27556658 -0.023856763 -0.6499236 0.8900312 -1.7186477 -0.2671521 -0.3739619
older 0.39688084 0.43182734 -0.56156 0.6479051 0.3813654 -0.15841241 -0.5439428 0.14326003 -0.2913645 0.069750205 -0.79807234 -0.0083232075 0.52798754 0.65627843 -0.6585827 0.17598394 0.31220853 -0.5370027 -0.28755918 -0.8882036 0.4289059 0.17502387 0.32780138 -0.44222707 1.2492621 -0.5892433 0.31418744 0.07805871 -0.15216902 -1.3009008 -0.03752523 0.0004424192
typical 2.085603 -0.81893736 1.0674562 0.85048604 0.0773934 -0.46483272 0.4560818 -0.5151957 0.9450855 0.79020417 0.16496205 -0.6555929 -0.42372653 0.3588425 0.51790833 -0.6020004 -1.1676254 0.59645206 0.49699908 -0.068775095 0.5509696 0.9687406 -0.12416533 -0.44573078 0.41908363 -1.0968726 0.708797 -0.69602007 -0.29835662 0.15843856 0.28924698 0.50111794
deep 0.4385135 1.5568643 -0.2106947 0.4052297 0.67052513 -1.4698571 -1.123102 -0.96569383 -0.77318907 -0.09756092 2.4919868 -0.4701034 1.8772874 -0.97391754 -1.1388308 0.17253123 -0.33751032 0.51805454 -0.6029812 -2.0581949 0.4130946 0.04886316 -0.7517819 0.68813896 0.6293767 0.7954264 0.016538369 0.59704316 1.9250002 -0.22406603 -0.3731055 0.5683604
rare 0.56468517 -0.1331 0.6523577 0.33173853 -0.56079996 1.8437093 -1.1932526 0.75042456 -0.9255206 0.951266 0.69557965 -0.9837132 -0.98856306 0.97365206 -0.39443877 -0.38262302 0.6762663 0.17779815 -0.12833127 0.50708085 1.1691447 -0.72704095 0.02172489 -1.1280081 -1.1006187 0.4289201 -0.40683022 -0.8604114 1.9266713 0.054476764 -1.3765092 1.8783596
traditional 0.3580125 1.3772628 0.27139252 -0.17436686 0.022772789 -0.7260559 -0.28540355 -1.3096907 0.7991387 1.279045 0.35453075 -0.41874287 1.6087338 -0.23118491 -1.4276013 -0.7024117 0.0015217648 -0.46886024 0.35378653 -0.64064354 0.9794252 0.7186221 0.39750367 -0.5927551 0.46164173 -0.56214637 0.9743725 0.55230737 -0.052069023 0.46600756 1.2382636 0.9530339
bigger 0.06376343 0.5686675 0.035302155 1.0362511 -0.07648359 -1.1501765 0.41607952 2.3193738 -0.755457 1.092117 0.29776135 0.36274245 -0.54478747 1.272922 -0.40544468 1.1546391 -0.33537358 1.4239064 0.15325446 -1.4362494 -0.10995464 0.3529269 0.39646623 -0.44809914 -0.46250084 0.8398115 0.9949409 0.2587833 0.85148335 -0.4098573 0.0468807 -0.2176859
vegetarian 0.53667706 0.43367004 0.20279911 1.3821939 -0.075498894 0.759426 0.34324273 -0.5175469 -0.17015742 -0.4291502 -0.1110627 -1.6527146 -0.21478088 0.36274073 -0.31758013 0.6830433 -0.6374188 0.5630063 0.15027156 -0.30653206 0.34928903 0.7727622 -0.9790163 -0.49675286 -1.333806 0.04319704 0.34355447 0.2577551 0.24913049 0.09812863 0.39264536 0.11201778
indian 0.38151276 0.2529649 -0.15271746 -0.04600172 -0.5190313 0.83526224 -0.42419007 -0.22090931 1.3523597 1.2297777 0.9834535 -0.6186589 0.05863607 -1.1303877 -0.53189576 -1.2292994 -0.77795386 0.4166861 0.15492098 0.35047913 0.32008108 0.8687786 -0.30824503 -0.72978294 -1.3018477 -1.0004432 1.5237582 -1.0311109 -0.09520337 0.039598554 -1.1360377 0.85305035
efficient 0.37020501 1.8435832 -0.32836044 0.49425274 0.8152914 -0.744176 0.15892185 -1.2152421 0.95283407 0.57338953 0.08783831 -0.052675415 1.2494544 0.33178693 -0.34856978 -1.1029178 -0.4407356 -0.2879815 0.2872931 0.3015824 -0.29105398 1.3646797 -0.19369498 -0.74708706 -0.032589823 0.13907053 -0.71330947 -0.40267423 -0.33984807 -0.5063161 -0.90158623 0.05414928
incredible 1.0754867 0.8458297 0.3021438 0.41858077 0.6764465 1.1187491 -0.94763815 0.26235437 -0.24249211 -0.09139428 1.0269309 0.6494474 0.49643984 -0.15944305 -0.32928386 0.055012114 0.05008173 0.047399424 1.6388465 0.16273604 -0.84781337 1.1413302 -0.3486946 -0.15152322 -0.9441127 -0.10892204 -0.34522125 -0.06112677 1.5019287 -0.3828859 -0.784771 0.3678987
baked 0.32162032 0.60268575 0.17525244 1.2477988 0.9269449 -1.3964133 -0.24265438 0.34760517 -0.73290986 1.1561784 0.26363388 0.53141564 0.04166583 -1.1039209 -0.13511479 1.5555553 -0.19635439 -0.9751355 1.6836134 -0.8557341 1.0940458 0.09735909 -0.39382413 -0.22148909 -0.6006664 -0.26903212 -0.25886655 0.28195158 0.80219513 -0.11011348 -0.31249827 1.0812691
previous 0.7003971 -1.3837069 0.39315215 -0.26856598 0.20302421 0.63874114 0.29188737 -0.15208572 -0.8167097 0.90897095 0.1085297 -0.8298138 1.3694065 1.1894742 -0.29768458 0.0672566 -1.0626609 0.3537604 1.4285206 -0.8795136 1.0210481 0.6166099 -0.8941663 0.008783947 0.90414363 -1.7188543 -0.29018167 -0.22356969 0.9321574 -0.16708729 -0.8550525 -0.8239954
particular -0.045527842 0.34091315 -0.05559996 -0.65949446 -0.4914057 -0.39181384 -0.17393725 0.1613922 0.24424353 1.6063354 0.23550369 -1.184962 0.34294596 0.5332335 -0.49862766 -0.5233333 -0.025113396 -0.66757447 -1.0912551 -0.66068226 -0.17533758 0.17747964 0.0065734508 0.34485304 -0.008916072 -0.3038913 -0.39346886 0.00057309825 -0.4473571 -1.3366313 -1.8443503 0.11967559
soggy 1.4352971 -0.98962253 1.1109661 1.3158554 -0.5438614 -0.9877024 -0.86462426 -0.17956851 -0.06856176 -0.74473894 -0.3523213 -1.3558629 -0.47272262 0.0014714123 -0.15031941 -0.19272576 -0.10706669 0.2844515 -0.5584632 -0.36458817 2.606261 1.4177443 -0.18980382 -0.9822969 -0.020661343 0.034329236 -0.99946284 1.0625006 1.2511575 0.8636459 -1.2031062 -1.4871863
super 0.581848 0.8006132 -0.01705499 0.63474697 -0.07609751 -0.75733215 0.5803391 1.20701 0.15920876 -0.10520109 0.17866005 -0.09723684 0.7433361 -1.0669824 0.9194317 0.37549344 -0.49261227 -0.45989394 0.0622589 -1.0172751 1.6370696 -0.26297915 0.83549625 -0.9887312 -0.09911978 0.41755757 0.52807057 -0.593123 1.0187777 0.21248873 -0.38970444 -0.22020875
classic -0.048718415 0.56688744 0.16268928 1.5542518 1.2279377 -1.3128973 -0.43804663 0.18857437 -0.098434225 -0.31125373 1.3254619 -0.78520733 1.1654909 -0.9438334 -1.0552968 -0.3464104 -0.5030902 -0.09960605 -0.46825287 0.2982565 0.07878321 -0.63123584 -0.28003308 -1.369326 0.0071126097 -0.04292435 -0.14496498 0.13447915 0.86714536 0.64222634 0.6908645 -0.03477724
outstanding -0.5887169 0.91121995 -0.029883627 0.8707011 0.4766828 0.7207616 -0.9864799 0.4221959 -0.2863399 -0.46017995 0.52125937 0.6092048 0.85020643 1.1817768 -0.15587741 1.0041958 0.34384337 0.2932179 0.37577474 -0.38531482 0.41529334 1.035829 0.892833 -1.9100877 -1.0994393 0.4059008 0.06280398 -0.03370843 0.72420466 -0.2907876 -0.1377755 1.0963006
lovely 0.40200624 1.1109326 -0.32529834 1.1566156 -0.58626544 -0.06049668 -0.64540267 0.25224957 0.30532417 -0.48021844 0.5512519 0.2427079 0.5570194 -1.0514207 0.9533248 0.009554062 -0.32426223 0.33156574 0.058239676 0.14382806 0.61984104 1.3792183 -0.3758684 -0.7913626 -1.1105986 0.35092154 -0.7165399 0.14764732 0.4855075 0.22058737 -0.5507498 -0.19999045
quiet 0.34181115 0.6431594 -0.8769438 0.9421532 0.23469584 -0.23538108 0.2764755 0.48688903 0.39344537 -1.0434053 0.2108321 -0.5238401 0.11396724 0.8568506 1.5885307 0.95934695 -0.6208591 -0.24576828 0.40883735 0.47840038 0.13076904 -0.040071264 1.3796815 -0.88655555 0.9554109 0.9921352 0.8070504 -0.69510716 0.7328175 -1.0043323 -0.8838887 -1.0822438
generous 0.37854537 -0.54935324 0.5570689 0.8719183 1.8928796 -0.7030206 -0.61833584 -0.41504145 2.1283245 0.081898496 0.6792398 0.22234802 0.4278506 -0.13269901 0.8058538 -1.0618584 -0.18665813 -0.0484737 1.602697 -1.1824923 0.66132164 0.59475 0.5886175 -0.15591453 -0.37641177 -0.8801034 -0.1108302 -0.30020288 0.05014174 1.0291144 0.3351356 0.98135114
sick 0.32123464 -0.0069639157 -0.3836115 0.8955296 -0.6584885 0.106097415 -1.5987598 0.21449931 0.31993905 -0.4108064 1.1444898 -0.53118753 -0.1257871 0.8254277 -2.1876059 -0.09589672 -0.3408248 -1.3519388 -0.5408152 -1.611781 0.537556 0.0033044205 -0.6060583 0.56469244 0.048207395 -0.5615068 -0.21855696 -0.6558431 -0.153762 -1.042674 -1.079953 -0.42859873
casual 0.6163449 1.011247 0.28983745 1.2829077 -0.04370765 -0.62710685 0.79882693 -0.37089837 1.0197053 -0.5073001 0.8113012 0.27576768 0.4811766 0.95827436 0.442518 0.14189619 -0.12425302 -0.009900968 0.27382994 -1.9662313 -0.5326927 0.3035565 -0.12186553 -0.7346291 0.41167137 0.60155964 1.8003386 -0.77862996 -0.030926868 0.36659542 -0.43461466 -0.1631332
healthy 1.1835983 -0.123042576 -0.019274497 0.7271735 -1.5524007 -0.30349663 -0.9560661 0.17445233 0.07103383 1.1337622 0.1263188 -0.4615149 0.89141524 -0.036348745 0.16484448 0.33482012 -0.14197226 -0.24727537 0.5293751 -0.075421594 0.22877814 0.1833079 0.46322137 -0.39256704 -0.38586563 0.45732114 -0.26440832 0.6046745 0.21566023 -0.3486813 0.12671652 1.058695
prime 0.340103 -0.4225392 0.38550055 0.14362922 -0.079324864 -1.5002731 -0.21193427 1.0028008 -0.6519409 0.18017018 -1.1757176 -0.4902183 -0.12324009 0.22652933 0.53702503 0.21413389 -0.283067 0.38366318 0.5921998 -0.62281156 1.5944498 -0.3020785 -0.5035051 -1.5909514 -0.86152357 -0.44359642 0.09898182 -0.4849886 0.9757378 -0.34037498 0.273698 0.7240463
rich -0.13423483 0.5073139 1.3369548 1.530365 0.13187066 0.43745345 0.08709619 -0.7431625 1.3497595 -0.6128825 1.5109186 -0.27897602 -0.56190616 -1.9557813 -0.9553457 1.1043997 -0.26143715 -0.18109488 0.16424939 -0.3689038 0.5097648 0.42914194 0.18637484 0.11380027 0.32163352 -0.85449636 -0.50477856 0.17842568 0.25061527 -0.8774377 0.12722395 1.2398274
medium -0.5307094 0.2657797 0.7497609 2.592534 -0.27634504 0.80097693 -0.5139992 0.3917502 0.23276657 1.4350708 0.60216045 -0.3361354 -1.1423948 1.1004366 0.37921488 1.4459032 -0.05737658 1.0876875 0.30445188 1.1277537 0.20806322 -0.5433236 0.47953883 -0.76641244 -1.0702201 0.95524424 -1.2038356 -0.24282593 1.6029165 -0.841881 -0.64087 1.6564443
heavy 0.039872743 0.026014702 0.634137 0.8980829 -0.07095651 -0.1608577 0.6141465 0.12780248 0.5904446 0.018390495 0.57150155 -1.2327477 0.10656687 -0.84496933 -1.0929995 0.9382443 1.4507588 0.14865716 0.07345754 -0.81482416 0.68077946 0.19990002 -0.22369958 -0.66233784 0.077403456 -1.5084903 -0.98864794 0.6419173 0.14170022 -1.0170707 0.054693114 1.4989319
mini 0.76033 0.28555965 -0.8916739 0.21425521 -0.3651358 -0.2649555 -0.057404783 -0.9908867 0.72862387 -0.45915085 1.1370046 -0.8243876 0.36866513 -0.65958655 -0.1277684 0.92538667 -0.4510883 0.98679405 0.11632245 -1.7728394 0.5071092 0.52572256 0.72433335 -0.65645415 -0.20399673 -0.6763444 -0.0903686 0.68566126 0.7087955 -0.80857325 0.4004234 0.39878735
american 1.6153123 -0.71573997 -0.14577141 0.6942338 0.5223761 -0.5881522 -0.87322164 0.46412128 -0.6376643 0.9943991 0.5714187 -0.09401595 -0.15042576 -0.15991196 -0.83508635 -0.4996754 -0.51787305 -0.17028145 0.23286542 -1.2977529 0.3921422 0.008871318 0.30838636 -1.0971905 -0.44504982 0.99877816 0.09225688 -0.910445 -0.5451428 -0.46215457 0.102244504 1.3425304
important -0.059241273 0.016849985 0.0121881245 1.6862835 0.056182902 0.7629079 -0.95364577 0.84924066 0.22102542 -0.71238387 0.5172479 0.27655712 0.6442044 1.5955774 -0.41402787 1.1222738 0.6480086 1.2511443 -0.28348196 0.19627723 -1.4406861 0.65236175 -0.13965574 -0.87532437 -0.10496366 -0.6824982 0.05507937 -0.58350617 0.09244127 -1.2878938 0.4395317 0.12636934
crowded 1.5118983 1.6055908 -0.5203932 -0.19403212 -0.17330718 -0.15731981 -0.81240946 0.14060844 0.08618251 -0.75129265 -0.19425327 -0.32652256 0.50359505 0.2879501 -0.69702107 -0.26356176 0.19859816 0.4053285 -0.81752276 -0.45853955 -0.18911073 1.444234 1.1194519 -0.059571993 0.5432636 0.5670653 0.4287031 0.730179 0.7578871 0.2616901 0.39065227 0.6156401
strong 1.5562705 0.8469617 0.77412033 0.5550212 1.0067741 0.82826704 -1.084807 0.37011534 1.0904427 -0.16256404 0.5601177 -0.4571724 -0.913818 0.010862857 0.12463025 0.2714419 0.071611986 0.0140871145 0.50489354 0.19292733 0.51596993 -0.13741207 0.70862424 0.82061344 0.315628 -1.6121984 0.1102946 0.38968056 1.4365649 -0.47204572 -0.8561488 1.1268791
cheaper 1.7244269 0.25516826 -0.62675905 0.3908358 0.7049527 -0.7509526 0.3817736 -0.026913287 0.44225815 0.88126355 0.2989131 -0.75933194 1.8222443 -0.2375974 0.29189476 0.1152257 0.112649344 0.08248825 0.9049333 -0.35555872 -0.058320742 0.21957669 -0.12590818 0.82954407 0.13257872 0.6233716 0.05628428 -0.13447727 -0.96683174 -0.6649147 -0.34213027 0.63336873
popular 1.2831217 0.22601646 -0.41181862 -0.07668704 -1.0249538 -0.06442469 0.7191311 0.5796251 0.5778418 0.6373663 -0.18570359 -0.52159774 0.61845523 -0.26906332 -0.69926244 1.0503881 -0.21470954 -1.1709006 0.088368714 -1.0961456 0.9531412 1.0741699 -0.12834992 0.5072256 0.8216812 -1.3456272 0.43783575 1.0451887 -0.42662182 -0.223336 -0.1547339 0.40425876
complete 0.38102755 -0.5659703 1.0156319 0.32836697 -0.053265467 -0.7899362 0.094761245 0.86048156 0.42337582 0.45134598 0.40540197 0.15138021 1.798119 1.2810903 -0.96535975 0.16832934 1.0315875 0.14912987 -0.23398273 -0.6138497 0.2094767 -0.6561837 -1.5388564 0.2115314 1.0032943 0.4780508 1.2191745 0.3838379 0.6144554 -0.12783238 -0.40976265 0.8181304
upset 0.5706217 -1.0477461 1.2636278 0.581567 0.54109335 0.26120856 -0.34322214 0.6832034 0.46576756 -1.1307328 0.61156 -0.095996834 0.92869514 1.4246122 0.12453282 0.5702422 0.63831884 -0.51453793 -0.07939883 0.30119407 -0.35535407 -0.42923036 -0.25583303 -0.10405666 0.37567288 -0.74552345 -0.014658693 -0.59479207 1.2213534 -0.114266135 -0.32710403 -0.29910573
early 0.8339374 -0.018123554 0.31601208 1.3161827 1.4740273 -0.20787023 -0.6146385 0.24929276 -0.20461994 0.6429139 -0.038515657 0.7165491 -0.16849957 0.5304438 -1.4669105 0.74456024 0.46889848 -0.85337496 1.7541355 0.03253628 1.3356733 1.618058 -0.9674365 -1.2082895 -0.35912135 -2.480039 0.31357846 0.12829036 -0.7200419 -0.8680375 -0.76781607 -0.83438736
interested 1.28546 1.2107491 0.40073565 1.2076533 -0.17332254 0.29835916 -1.3362082 1.2140354 -0.3944519 0.38476637 -0.17345557 -0.3313669 1.5910981 1.5125043 -0.42670697 -0.53209645 -0.3601789 -0.2679136 0.545003 -0.35503975 -1.1637719 -0.05864406 -1.3064537 -0.5819172 0.028173804 -0.77415335 0.58941233 1.6780498 -0.6028931 -0.828392 0.5083886 1.0911413
mixed 1.0134431 0.90515256 1.1115519 2.2351468 -0.12479721 0.2999334 -0.55875874 -0.31289852 0.439075 0.20441791 0.18831754 -1.2194911 0.1805171 -0.4286692 0.092649296 -0.19485359 -0.5681612 0.032232046 -0.17905354 -0.39406782 -0.27053845 -0.45988548 0.46625078 0.17784216 -0.07917747 -1.0727047 0.97594833 -0.6622343 0.45370567 0.1340824 0.27093333 0.39852777
separate 1.6697433 0.18021736 -0.04872529 1.3583679 -0.41568035 -0.22665659 -0.54879093 0.4081288 -0.6678978 0.25134477 -1.0613457 -0.57072353 -0.53919476 0.6884794 -0.7228927 -0.7733539 -0.589079 0.65711296 1.8501259 -0.82811487 -0.8552971 -0.08322694 -0.22540972 -0.8920581 0.9777983 1.9587054 -1.7989819 -0.15544625 1.4926965 -0.10306352 0.13026832 -0.018269
cooked 0.97550774 -0.413935 0.67430526 -0.51172197 -0.7606855 0.023096316 -0.36824936 0.10691587 0.35023507 -0.20897636 0.27478784 -1.6721493 0.8037669 -1.3146137 -0.40995327 0.97045285 -0.26483223 0.33641297 0.36212054 -0.8945654 0.15123564 1.1434147 -0.5863638 -0.6992057 -0.89756626 0.027172547 -0.27039042 -0.65787846 1.4793824 0.49727097 0.104014695 -1.1022815
uncomfortable 0.3407962 -0.61029416 1.4610342 0.43805206 -0.7576268 0.06585488 0.24055852 -0.42858315 0.77566856 -0.6816433 0.17118399 -0.43204853 -0.47775552 0.21099454 -0.7029741 0.9652539 -0.3853481 0.6835583 0.7593994 0.09030598 -0.0058903843 1.0468376 0.13495061 -1.0349298 0.24265651 -0.50311613 1.4297051 -0.62939423 0.59755874 -1.7208124 -1.1508801 -0.47109175
affordable 0.9899778 0.88638175 0.7186884 1.1222359 0.30058974 -0.64744073 -0.8608142 -0.01352355 0.10615098 0.44613287 0.4568107 0.13523825 -0.20436752 -0.0019300953 1.798379 0.47549188 -0.35882077 0.48172703 0.66317624 -0.6887703 -0.51264125 0.6833661 0.93372226 -0.64563304 0.38299507 0.16215867 0.6186223 -0.8678986 0.28297788 -0.2769875 0.27144006 1.0887843
major 0.6994152 0.8389405 0.115872845 0.5006425 0.60764605 0.3321655 -0.8133152 -1.2787598 -0.766315 0.031506985 1.007504 -0.35176829 1.0487461 0.010489505 -1.6322111 -0.031926945 0.90929353 -0.6065111 0.7770565 0.42627448 0.5164455 1.0077592 -0.44983283 -0.56677526 0.95246613 -0.019151425 0.9250243 -0.48080605 0.5006104 -0.8067831 -0.05166111 -0.8987804
tender 0.4056614 1.2732526 0.49358284 -0.20579 -1.0588177 -0.15401365 -1.4651494 0.71155286 -0.7443813 -0.27415645 0.83277005 -0.2871554 0.4340075 -0.051139314 -1.2033544 0.4183569 -0.1184108 0.42227656 -0.46549645 -0.81372833 1.7406195 0.027645554 0.030366218 -0.53463084 0.08531778 -0.6238278 -0.460669 0.72869974 1.8940517 0.13080792 0.042076796 1.3767
corporate 1.3954767 -0.021925181 0.6866683 0.10046725 -1.11802 0.7448956 -1.1338735 1.0086994 -0.49816313 -0.12234264 0.22623205 0.14312725 0.87435085 2.403783 -0.044827733 0.37491065 -0.3065795 -0.4885035 0.8700863 -0.36300167 0.55994534 -0.38108644 -0.23218259 -0.16975516 -0.80844367 0.31240854 0.0848405 -0.66996425 0.099193074 0.42910752 -0.67513674 -0.58527434
larger 1.2885534 0.11265431 0.010313831 0.087378114 0.7207836 -0.6644313 0.7967056 1.1450673 0.10440878 1.498141 0.012048548 -0.2939736 -0.059407573 -0.76682425 -0.33073387 -0.4176004 -0.60596025 0.83323485 0.6638867 0.25800908 0.44275475 0.14621523 0.17483862 -0.894265 -0.5600527 0.17914267 0.1783566 0.71752965 0.4814721 -1.4760976 0.82373315 0.20363459
complimentary 0.23895071 0.5311599 1.5833564 0.8921767 0.8418324 1.0150652 -0.46693128 -0.5985532 0.69559336 -0.4955309 0.28127894 0.2598659 0.43522498 0.21235865 0.53384596 0.79644 -0.7549968 0.014663339 -0.39108384 -0.5041993 0.008332085 0.58154297 -1.1719518 -1.5425596 -0.57608247 -0.7138249 -1.3255067 -0.09559405 -0.048172045 0.4251471 -0.39243945 0.37217945
homemade -0.44017428 0.74826556 1.3255897 1.2712096 0.17080307 -0.61004114 -1.0268449 -0.60960346 0.89631385 -0.573797 0.33355978 0.022263398 0.6542509 -1.0515972 -0.23972116 -0.2988496 1.2874787 -0.668735 -1.1033118 -0.789578 0.011759415 1.5933006 -1.0825933 -1.3870728 -1.0588125 -0.81028414 -0.43761727 -0.034199882 1.3117718 1.0147061 -0.2158145 1.5545596
overpriced 0.7849717 -0.19692883 -0.5383015 0.29986942 -0.69447786 -0.01203254 -0.078002125 -0.20349424 0.37931532 -0.5205933 -0.32870775 -1.0896859 1.2122875 -0.069918364 -0.8292715 0.68458635 0.27407968 0.0070043486 0.32302567 -0.7531034 0.6851874 -0.797577 -0.582814 0.6058145 0.83644503 0.12684266 -0.34875226 0.47137824 0.72970724 -0.04107316 0.39537063 0.12624265
biggest 0.77823997 0.9742959 -0.23410456 0.3575495 -1.2997446 -0.32493415 -0.31635323 -0.17602217 -0.48910385 -0.37338707 1.9756542 0.57887834 0.118801504 0.9278235 -0.19134247 0.35308304 -1.271457 -0.027389437 0.14442705 -0.17988926 0.76914656 -0.20652074 -0.5522509 1.1088703 0.114293724 0.20661563 0.30181298 0.1847966 0.2352733 -0.77364403 -0.6085299 0.22234756
japanese -0.11993259 -0.8400985 -0.5006234 0.63844407 -0.4233739 0.10555185 -0.23604047 0.069227114 -0.146758 2.0251849 0.98690176 -0.12908955 -0.5211128 -0.08068381 -1.4902365 -0.95913357 -0.43736583 -1.1367912 0.9424107 -0.64708155 1.9372495 1.367625 -0.050873645 0.31335813 1.2995198 0.4932524 1.2331712 -0.5947005 0.83260894 -0.3495923 -0.34350052 1.0529894
raw 0.5804985 -0.68231916 1.3808675 0.053609893 -0.5936413 0.2946879 -1.5329989 0.25803927 0.053203497 -0.2106977 0.16879688 -0.3184623 0.32645595 0.13667916 -1.2163326 -0.55398303 0.19960693 -0.3208026 0.99523944 0.7469327 1.3147234 0.5138272 -0.298479 0.026305376 0.7381946 -0.71186805 -0.6702367 0.9673757 0.6703378 -0.38121635 -0.43717968 0.8087
correct 1.0564566 -0.14716223 0.42279056 0.03999299 1.7000374 0.73182493 0.3879956 0.5581256 0.5920315 0.40930372 1.3604923 -1.3567039 0.64857703 1.5188667 -1.6338655 -0.2602104 -0.28232393 0.6972798 1.4634137 -0.72779614 0.26329535 -0.20215102 -0.45283535 -1.1081815 0.11329046 -1.257867 0.19134052 0.38512322 0.5012202 -1.3516004 0.47329202 -0.73632896
tasteless 0.73748624 -0.29591113 1.24147 1.4223742 -0.17519432 -1.33025 -0.34830886 0.12314856 -0.40341997 0.61332196 -0.44917548 -1.1766211 0.53769135 0.018332316 -0.67383844 -0.017799458 -0.62632906 0.5829682 0.8632371 0.16405563 1.2123487 1.2525101 0.48649755 0.13534877 -1.6113715 0.79949784 0.9664074 0.91085833 -0.14874999 0.18259527 0.091659956 -0.121039905
roasted 1.0831409 0.5939281 -0.4668597 0.6607767 -0.3015757 -0.45182145 -1.0506971 1.0246396 -0.8012887 -0.83391035 1.3305287 -1.3440589 0.34607702 -0.6687437 -0.34830385 0.17709246 0.07492357 -1.4235352 0.27980268 -0.72371405 0.7532098 1.0776473 -0.56212753 0.21094738 -0.17683057 -0.43953097 0.25290856 -0.34310827 0.27606454 0.25220567 -0.9073993 -0.051319737
plain -0.031849336 0.29126844 -1.144344 0.29842448 -0.85603076 -0.69151205 -1.0821277 -0.018243026 1.2733133 -0.949322 0.11759459 -1.4136591 -1.0960705 -0.48647684 -0.6390006 -0.15189685 -1.0668107 0.64252484 0.73513854 -0.2022106 1.3043838 0.27873638 0.57103163 -0.23542097 -0.90135294 -0.98258305 -0.48792824 -1.09607 -0.19478361 -0.6720428 -0.40544516 0.25216264
annoying 1.058597 -0.0019419547 -0.5228694 -1.2251242 -0.3562035 0.40746573 -0.3570081 1.657817 2.1889122 -0.61851 0.392805 0.14872411 0.3405626 1.538941 -0.50134236 -0.068498455 0.35512218 1.1253837 0.01449056 -0.16672677 -0.7522575 0.99308145 0.8085122 -0.4739734 1.0707176 0.30207098 0.597523 0.0034456088 0.16175458 0.5890466 -0.1891784 0.73426425
enjoyable 0.18703279 1.5524733 0.451711 0.21726958 0.31170523 -1.0155236 -0.22773641 -0.3307738 0.054010127 -0.13218479 -0.5938997 -0.2761418 0.37662742 -0.032888513 0.6809611 -1.0069052 -0.9349961 0.18760099 -1.5628189 -0.54086715 -0.47770774 0.9506577 0.0145220645 -0.97203195 -0.19891158 0.6458949 -0.5564394 0.21929176 0.27767622 -0.12852405 -0.663812 -0.29285458
impressive -0.18147206 -0.30979732 -0.14985508 0.5947673 0.13516042 -0.6251197 0.08796546 0.27083617 -0.703396 0.6335151 0.2669981 0.26318166 0.5314918 0.60532796 -0.67470855 -0.32217094 -0.078318104 0.19333023 0.33297133 0.44855183 0.8576505 1.5196606 0.6484483 -1.6093667 -0.2184305 1.128164 0.42840162 -0.5343644 1.2657292 -0.32624453 0.7320594 0.86528206
lower 0.50557363 -0.07945737 -0.21304473 1.1844053 1.4491693 -0.6227655 -1.0243217 0.21424481 -0.039322026 -0.12212578 -0.8049384 -0.088555254 1.2706686 0.12108708 -0.17868364 -0.08202638 -1.149951 0.4272442 0.63490176 -1.167812 0.60332763 0.18096156 -0.78132135 0.3977629 1.0794944 0.15557641 0.88459426 -0.21518773 0.8140703 -1.0942575 -0.30945495 -0.68840796
saturday 2.0465102 0.68656653 0.64333874 0.17674729 -0.8341594 -0.73306566 -0.2107916 0.40882826 -0.10662272 0.059564337 0.8181821 0.6906909 -0.87956154 1.3038332 -1.5937244 -0.17598659 -0.69427323 -0.93056595 0.6302634 -0.1034013 -0.4661974 1.2007526 -0.69460064 -0.03171703 0.21017618 -0.083026655 0.56941843 0.48582065 0.6642381 0.47359073 1.1704671 -0.7178726
courteous 0.63506633 0.8960943 0.68432164 0.46888122 0.23414102 -0.6824752 1.3002676 0.00049529626 -0.04138239 0.6557681 0.59025323 -0.1144343 1.2436724 1.1955295 -0.52744144 0.55301124 -1.1728824 -0.69889396 -0.1710341 -0.6991029 -0.93255657 1.6707624 0.8073671 -1.0318494 -0.2985819 -0.11776758 -1.4018655 -1.2653251 -0.3110465 -1.0455596 -0.439374 0.4377522
sized 0.14231248 1.0193311 0.1858814 1.4265708 -1.1122637 0.8927879 0.30088592 0.63941693 0.5639916 0.42060444 0.14634562 -0.044024482 -0.21993263 -0.97661597 -0.15538184 1.5557569 -0.06845361 0.18927598 0.15358993 -0.3537867 0.30265352 0.97787905 0.2120293 -1.1945877 0.38178924 0.31931812 -0.9382825 -0.4237465 0.56924045 0.038016427 -0.24671799 0.6037013
consistent 0.4972904 -0.38029155 0.34110302 0.72533363 0.6686904 1.052329 0.8806431 0.49890637 -0.3100501 -0.88471615 1.0337859 0.27154163 0.4261507 -0.1216118 -2.175827 1.1814377 -0.38700506 -0.67993563 0.12779763 -1.2716657 -0.2799093 0.21530628 0.07211769 -0.85455906 -0.33770034 -0.29049724 0.06628785 -1.1755929 0.15839985 1.1173769 -0.088814266 1.1252588
funny 1.2975221 0.18667766 -0.11306794 0.033358045 -0.4181546 -0.3186677 0.91921085 -0.4548589 -1.0663602 0.82859915 -0.21631642 -0.1519732 1.1280842 0.25402611 -0.9292463 1.0112629 -0.61202574 -0.30797076 1.1020943 -0.3848242 0.01088851 0.32512856 -1.0533491 -0.8504585 -0.29810873 -0.24025635 -0.38655752 -0.28650144 0.66559947 -0.7354638 -0.96446806 0.7664524
prepared -0.07437712 0.26492476 -0.3650449 0.7800459 -0.63010937 -0.1512717 -1.4369558 1.0869179 -0.26269877 0.26777026 0.7264671 -0.7888656 0.012308368 0.32027978 -0.7374997 -0.30443886 -1.0215585 -1.3681651 1.513873 0.14860408 1.795222 0.22493127 0.33481675 0.053035047 1.3585807 -0.5310518 0.22833207 -2.2301724 1.1250995 0.4758724 0.13964725 0.35187533
fabulous 1.453861 1.4495766 0.41746762 1.8011346 0.22600292 -0.41469696 -0.13087957 1.100937 -0.7693214 1.9682461 0.12831575 -0.017169464 -1.0477514 -0.6978049 -0.013378768 0.8570424 0.22725749 0.89149475 0.30506307 0.5154308 -0.6016101 -0.35664564 -0.04482648 -0.6737418 -0.28103802 -0.2511797 -0.1916354 0.035058368 0.80724245 -0.48717204 -0.7459619 0.16696283
wait 0.41517836 0.59208566 0.100202 -0.39524373 -0.8070571 -0.34224105 -0.7243629 0.459944 0.60897255 0.8500626 -0.049421184 -1.5892289 0.38327548 0.33645463 0.24999274 -0.35955203 0.1679131 -0.07331619 -0.6887707 -0.6232291 0.47008976 1.2300814 1.8200476 -0.29904205 0.93497336 0.22258358 0.29419708 0.43134758 0.90674925 -0.01299479 -1.045145 0.7520544
outside 0.07867073 0.5216969 0.17795633 0.025530875 -0.6253403 -0.12310232 -0.82980067 -1.1500218 0.15043285 -0.20612833 0.22291651 -1.334952 0.6485733 -0.5106858 1.0441338 0.058946215 0.3838915 -0.9065204 -0.241666 0.15894273 0.8270256 1.3023121 -0.41001925 -0.84470266 0.60516226 0.46827966 0.8297432 0.78133965 0.58712554 -1.0012623 -0.18188968 -0.7715106
absolute -0.49118164 -0.07234627 1.3162136 1.566739 -1.1176071 -0.1816554 -0.8246654 -0.70953864 0.36398306 0.25791207 0.31295252 0.47117877 0.5122851 -0.13706918 -1.5870404 -0.33597198 -1.3246146 -0.16329284 -0.4558062 -1.075337 0.6083429 -0.8691805 0.021696718 -1.62935 0.7323592 -1.1040554 -0.4149869 1.3409559 0.91828597 -0.15523031 -0.5255222 -0.40320036
specific 1.8880012 -0.4663033 -0.05416452 0.669087 -0.79642 1.519214 0.26599774 0.66473454 0.80408525 0.048286952 -0.4068893 0.39754954 0.27998188 0.94948876 -0.6988996 0.9363694 -2.155212 -0.56035936 -0.6933762 -1.5729312 -0.6689639 1.0328636 -1.4686109 0.06549019 0.69886255 -0.47275475 -0.52690756 1.323503 0.38669646 -0.55233234 -0.7009122 0.12749256
brown 0.38063198 -0.3874851 0.3284859 0.49796265 -0.39360705 -0.3035451 -1.699581 1.2558378 0.02630424 0.08630524 0.27285603 -1.0347651 -0.82210904 -0.5692901 -0.2984642 -0.13216762 -0.7482675 -0.17627642 1.6588906 1.2557892 0.13967282 0.19859663 1.027933 0.02419988 0.13844348 0.6056061 -0.40069833 -0.33676088 0.2865768 -1.844688 -0.48562962 0.5285093
sticky 0.8997241 1.299317 -0.07224986 0.77175546 -0.645796 -0.68226296 -0.3033828 0.8572478 0.12673289 -0.49052647 -0.2802619 -1.3708987 -0.22134198 0.7787499 1.030016 -0.014406554 -0.7613883 -0.6382224 0.44274274 -0.12107633 1.4567227 -0.7419405 -0.46360826 0.34607425 0.11857354 0.11444858 0.41603598 -0.43613574 1.5145262 -1.7206177 -0.24998091 1.1375997
carne -0.21254048 -0.75883734 0.40824348 0.20603096 -0.39971703 -1.8610963 -1.3983792 0.9728195 -0.2684896 -0.3949691 0.12468644 -0.14670193 1.2472101 0.58000815 -0.4271791 0.58173347 0.4477769 -0.5310949 0.38454646 -0.93414044 0.4430551 0.9939806 -0.645145 -0.026862532 -1.3799716 -1.140759 0.3555962 -0.4644474 1.5023468 -0.5428248 0.042945173 1.4909195
needless 0.40491968 -0.88931096 0.4728639 -0.322927 -0.20460384 1.2694706 -0.5419849 0.68666977 -0.26221272 0.5672683 0.7244484 0.37906644 0.25502577 -0.69838876 -1.8248124 0.89050967 -0.8059127 0.6891242 -0.22660504 -1.0557855 0.16144039 -0.084620714 -0.58922833 -0.33319828 0.6493576 -0.6004588 -0.08010834 -0.5814074 0.5757911 -0.047930975 -0.26762938 -0.8128201
overcooked 0.8730674 -0.18134154 1.3091143 0.17148319 -0.85961616 0.07545965 -1.6756802 0.746203 1.7342445 0.37017554 0.26308072 -0.9407868 0.7990689 -0.09651394 0.1535621 -0.1404592 -0.09185005 1.571923 0.0658899 -0.5155085 1.7280563 1.0564322 0.53564805 0.6930183 0.7345631 0.4329741 -1.6657755 -0.74962443 1.724493 0.58431447 0.58034533 -0.98884434
lucky -0.014075775 0.76026297 1.205916 0.54642147 -0.05019038 -0.6048644 -0.3666616 -0.44514686 -0.45143947 -0.76832825 -0.9976506 0.07592597 -0.4479878 0.19186126 -0.6783022 0.7177778 -0.15308574 -1.1556847 -0.94891405 0.5988939 0.79216284 -0.09940695 -0.38433573 -0.8545748 0.15393329 0.05782657 -0.73550975 -1.1587888 0.1924158 -0.7337736 -0.5848387 0.8452011
safe 1.6040502 0.082410194 -0.11940227 1.8222561 0.40901655 0.87139904 0.16183537 -0.37363914 -0.10722843 -0.04991596 0.7852543 -1.8260864 0.9172877 0.6424129 -0.68387896 0.73943716 -0.553566 -0.018626008 -0.19815846 0.36250684 0.97875404 0.4107115 -1.3954186 -0.0900339 0.747618 1.627715 -0.06724836 -0.7141692 -0.7737709 -0.6364217 -0.41284716 0.010602906
crisp -0.720219 0.15116733 0.86168563 2.4056244 -1.8390489 -0.83996254 0.7489052 0.68007326 0.28659365 0.37259495 -0.06824236 -0.88480175 0.47879437 0.43725082 -0.7608727 0.06153755 0.5960907 0.2981915 -0.016290035 -0.9240734 -0.57789105 0.85321134 0.4546958 -2.0527544 0.7543261 0.264655 -0.7376015 0.5929593 -0.13201758 -0.3649322 -1.2629446 1.1972547
bright 1.0416018 1.1961077 -0.33532253 1.7048097 -0.3328576 0.40590248 0.5744749 0.33313173 1.0035762 0.45486456 1.4103622 -0.8075071 0.039328203 -0.21735996 0.41727033 -1.264584 -0.853824 -2.014346 -0.3322376 -0.5627994 0.1020657 -1.0286583 -0.37103343 0.13880832 0.64574385 0.3953568 0.72118706 0.6066202 0.30474022 -1.1431788 -0.95547664 0.42736688
patient 1.3096907 0.9501926 0.1937664 -0.5239978 -0.23811033 -0.1976506 0.14344406 -1.1229129 0.44710883 0.750704 -0.46432394 1.8284913 1.0190878 0.7466179 -0.64289254 0.11960398 -0.028899748 1.4031137 1.1241308 0.15556578 0.29195568 1.0834452 0.86166584 -0.8835655 0.42295882 -0.08303826 -1.0217452 0.3531014 1.7720283 -1.1263908 -0.64673275 0.30682695
recent 0.7336588 -0.44255993 0.56143785 0.5762535 1.4035866 0.13871644 -0.8765593 0.23206306 0.21325064 0.702479 -0.26337776 0.31349817 0.9774609 0.34716094 -0.7897093 -0.29096615 0.19506578 -0.74337316 1.2197789 1.2236342 -0.0674746 0.9738003 0.0019517187 -0.15926516 -0.17377003 -1.1830552 0.134474 -0.6027492 0.42224732 -0.7334455 -0.67830765 0.32947865
cozy 1.0690475 1.0667769 0.21699844 0.7848287 -0.45640475 -0.3277135 -0.10747991 -0.8186532 1.1818261 1.4547795 0.8855011 -0.82478917 -0.014158914 -0.20126426 0.09212614 0.9553042 -0.11281765 -0.18523689 -0.09391075 -0.08026437 -0.4025106 1.3633292 -0.646942 -0.41097772 1.2984312 0.41444898 0.2662009 -0.9861843 0.46644375 0.6857786 -0.1373111 0.30070677
stale 0.40551937 -0.12188855 1.6937511 1.0407783 -0.79303634 -0.5472575 -0.5860885 0.093081094 1.4209545 -1.1838756 0.19346029 -1.0821202 0.72015685 1.6197984 -1.129108 -0.2914479 0.22553222 0.002410996 0.22506714 -1.5477643 0.8410878 0.8551049 0.5922856 0.4457007 -1.16291 -0.4818478 -0.77762854 -0.02055122 -0.4957175 0.4309482 -0.51680654 0.652813
ayce -0.3492305 -0.1488699 0.8880153 -0.4084394 -0.13221031 1.0245707 -0.86233824 0.6058275 2.072643 1.797195 -0.14714256 0.22013165 1.0629714 -0.54263186 -0.39079747 1.192194 -0.5092011 -1.8137283 -0.316415 -1.2960987 1.3233478 0.79721373 -0.16692245 0.5977167 0.49412298 0.7607657 1.636173 -0.011465965 0.91082674 0.7660301 -1.134137 0.2814895
exact 0.19757782 1.0505279 0.23366912 1.120258 -0.5506628 -0.05502987 -1.0420337 0.90926677 -1.3384806 0.09752639 1.3417096 -0.30459338 1.2217399 0.61024886 -0.65908396 0.14430182 -0.053325463 -0.30788195 0.5196107 -0.04196027 -0.31335568 -1.5527034 -1.2765427 0.8892941 -0.8989467 0.30388343 0.10339003 -0.004435452 0.0219706 -1.3393136 -0.62339216 -0.19648379
dead 1.4589891 -0.6959812 0.9495073 1.8135523 0.20661917 -0.23804656 -0.278017 0.6242421 0.037646882 0.20532466 -0.9048089 0.62821543 -0.26726502 0.18181641 0.6986072 -0.3309117 0.85008115 -0.19625758 0.8823471 -1.0067872 -0.29047492 -0.46823218 0.03554413 -1.4344115 0.20232019 0.83875465 1.3704846 -0.29551786 1.4534382 -1.1510226 -0.6886632 -0.25702503
live 1.2697045 0.7809586 0.51885986 0.66597104 -0.49150917 -0.5846757 0.12658887 -0.14187132 0.2533889 -0.20675555 0.9496968 0.83991927 -0.33225092 -0.26055062 -0.5477348 0.034565672 0.8234752 -0.51089567 0.5978984 -0.6575625 0.8839283 1.2008214 0.18974578 -0.14337692 0.95574725 -0.04938774 1.402001 -0.31714943 -0.62602746 -0.19774313 -0.3582854 0.035351068
drunk 1.9461532 0.53703225 0.17392908 0.3586238 -0.4992242 -0.2572809 0.20095716 0.3259404 -0.51199996 -0.7379872 0.21638237 -0.47312525 -0.26356465 0.6311275 -0.34469095 -0.24254969 -0.6678355 -0.7151219 -0.87548184 -1.9275181 -1.163812 -0.81201106 0.40715116 -0.62915903 -0.0047793835 -0.7719805 0.3069188 -0.51371205 -0.09179412 -0.4867799 1.0769246 -0.23215987
aware 0.48113543 -0.49617547 0.035130464 -0.58299476 -0.8936045 -0.15520185 -0.072444014 -0.13764758 0.5242056 0.41770205 0.7351195 0.7375588 -0.28020695 0.865077 0.0117537165 -0.020416735 -0.37641314 -0.44746125 -0.39298683 0.2967384 0.17630565 0.8264113 -0.18428056 -0.53668684 0.70325786 -0.7909957 0.46491387 -0.9888811 0.5858638 -1.658317 -0.07255535 -0.35102803
private 1.7614521 1.0580698 -0.058642335 0.19183722 0.12031188 0.16064698 0.5993265 0.06528081 0.2324346 -0.2141422 0.621695 0.02832402 1.3456482 -0.4946766 0.5873294 0.40602452 -0.18560152 1.1529377 1.4333184 -0.77250004 0.20801306 -0.24000493 0.4553248 0.70540386 -0.053046554 0.2869806 -0.9021599 -0.61158353 0.79157627 -0.0052005965 0.36538818 0.1755793
dim 0.670823 -0.58819383 0.49882376 0.4311825 0.124467075 -0.7078039 -1.3536142 -0.08171514 1.1365926 1.2604799 0.90397733 -0.3871602 0.5739708 0.011771619 -0.22709483 -1.2071505 -0.84589785 -0.970457 -0.160221 -1.7623262 0.42472842 1.3376948 0.18163392 -1.1300358 -0.44431376 0.19832192 0.5349604 -0.2711839 0.5476847 0.026054915 0.8954114 0.42387626
strange 0.8336776 0.5877106 0.69488037 0.31427622 -1.6283691 1.4142569 0.47064903 1.1364585 1.2976241 0.46987316 0.1066054 0.09794368 0.31673846 1.2292824 -1.427994 -0.9615681 -0.05674441 1.1985848 0.5791534 -0.80756193 0.17117685 0.9078991 -1.9394976 1.625081 0.14180136 -0.6631062 0.6137367 0.6622947 0.47730538 -0.053446777 0.54991573 1.2444173
