1968 32
good -0.68341655 0.18619266 0.031208761 0.51429385 -0.2533407 -0.13975099 0.18279 0.5490884 -0.23386075 0.1602935 -0.6449703 0.3527108 -0.2923063 0.8523961 0.13414715 -1.078656 0.42957252 0.22534977 -0.14670542 -0.26513135 0.23034693 -0.3015522 -0.17357469 -0.4662328 -0.023916265 0.0011709414 0.8284643 0.0033577722 0.01709062 0.31253567 0.0065052956 -0.23763148
great -0.4963139 -0.064685434 -0.43179983 -0.3936532 -0.30697423 -0.35510764 -0.27372816 -0.016652115 -0.08522599 0.11806749 0.2750897 0.27585077 0.043329306 -0.27001375 -0.042731874 0.4149142 0.4874593 0.07089008 0.9596896 -0.72776747 -0.09370327 -0.45549738 0.2734189 -0.61712676 -0.09171583 0.04761261 0.054518797 0.45455673 0.16170886 -0.49712825 -0.51721734 -0.41720483
other -0.9961036 -0.31624758 -0.245437 -0.06520988 -0.2820288 -0.72577614 -0.4134096 -0.8207716 0.19394882 0.14916098 -0.8451398 -0.04425424 -0.46398142 -0.13172145 -0.5549527 0.063044205 0.20347832 0.39018112 -0.21919139 -0.50230294 -0.42751417 -0.003117287 0.19582666 -0.8504202 -0.63572025 -0.16515006 -0.15577814 0.1027738 -0.3149716 -0.19423567 0.06686954 -0.8104285
nice -0.23257637 -0.7546258 -0.31165117 0.71885645 -0.057786964 -0.50311977 0.06091727 -0.05472065 0.13533457 -0.14312787 -0.057340786 0.21429838 0.21544896 0.12562299 0.07739212 -0.041869044 0.38133478 -0.03153813 0.8290142 0.05562658 -0.6143039 0.23553392 -0.09384012 -0.6116908 -0.46686032 -0.62560725 0.25065362 0.09657278 -0.0023077521 -0.7285054 0.2615085 -0.51095474
little 0.30302295 -0.26932824 -0.06467421 0.49891785 0.36939386 -0.4661626 0.2978376 0.14916739 -0.08063077 0.6391195 0.44037244 -0.26126206 -0.0022130758 0.20196582 0.16973568 -0.44986197 0.14746304 0.9504973 0.3731867 0.15962985 -0.23591468 -0.66007674 -0.01351243 0.019830966 -0.6705239 0.13619737 0.13458396 0.111138046 0.7016391 -0.32081333 -0.27881074 -0.12701762
more -0.35073125 -0.5555826 -0.3034436 0.22255959 -0.31386894 -0.05666474 0.37213093 0.170982 0.5085232 0.4843917 -0.38248867 0.45398346 -0.15535891 0.56980675 0.49794838 -0.3802308 0.5076396 0.53212106 -0.2875295 -0.31118006 0.36708945 0.15843652 -0.49311846 -0.15563858 0.021741387 -0.2961225 -0.02981236 0.13963103 -0.023703048 0.25650942 -0.39964262 0.4832192
best -0.13944516 -0.23546161 -0.3409077 0.4338898 0.25125936 0.1542206 0.240229 0.15295488 0.5975351 0.30389157 0.39415693 0.27557883 0.42206454 -0.126265 0.54474336 -0.047779217 0.3921087 -0.2547076 0.14175396 -0.10708352 -0.33182776 -0.2526177 0.045322333 -0.3159903 0.060285266 0.2711331 0.22075684 -0.19639249 -0.28963742 -0.43992072 -0.10062173 0.046662904
friendly -0.4778192 -0.67227316 0.23735616 0.33866832 -0.47792327 0.33379966 -0.55578375 -0.21040043 -0.06121337 0.31488878 0.14422524 -0.05814578 0.68209106 -0.29966897 0.08556404 -0.29551566 -0.12122773 0.8189401 0.33997196 0.051810805 -0.29958436 -0.56890064 -0.080253944 0.003954885 -0.51634204 0.031187017 0.37884867 0.010575758 -0.022349 -0.3595123 -0.91963875 -0.2403059
bad -0.96481425 -0.53674877 -0.36620724 0.8605279 0.11605446 -0.7650091 0.00041992962 0.23719642 0.548812 0.33499214 -0.46660736 -0.11897492 -0.25962484 0.19544722 0.35933846 0.30209413 0.4157725 0.4437883 -0.020624125 -0.5211281 -0.31813937 0.34772962 -0.015480388 0.46554935 -1.096828 0.38530737 0.4497699 0.114418045 -0.0006753225 -0.08779566 -0.89123446 -0.5938589
first 0.22483721 0.2436648 0.13454822 1.0047055 -0.21057343 -0.032307826 0.32823896 0.2546589 0.57178986 0.30879655 -0.5396762 -0.08430314 0.23552361 0.17387512 0.39066172 0.40248072 0.35697415 0.41800472 0.31146795 -0.17039998 0.42778844 -0.060388014 -0.26432353 -0.44425952 -0.0445169 0.30548158 0.29516336 0.50121945 -0.4862423 -0.20118786 -0.4444748 -0.15874556
new -0.26336685 -0.34620363 -0.19196445 0.6357237 -0.28554618 0.5729047 1.1319761 -0.28849027 -0.30799773 0.13876256 -0.086483575 -0.3871848 -0.29563257 -0.07471684 0.5081674 -0.103096105 0.5855729 0.5746186 0.9104306 -0.119042575 -0.14424333 -0.53032255 -0.05179322 -0.081532784 -0.37331942 0.060319018 0.7203488 0.122612454 0.4650696 -0.09799583 -0.036782835 -0.12584566
better 0.077424034 0.112375975 0.07855489 0.34079692 0.03331534 -0.13971181 -0.29934436 -0.5505261 0.53266644 -0.10908068 0.1078113 0.63761175 0.20812325 0.3837464 -0.10581412 -0.23820762 -0.073458 0.5878411 0.09343297 -0.2610836 -0.24219249 -0.3334408 -0.057496883 0.028359557 -0.6227537 0.036903143 -0.28947127 0.43310404 0.032504838 0.036066428 -0.5546941 -0.19472732
few -0.4380973 -0.34307885 -0.10010258 0.40956622 -0.08187333 -0.45536652 0.044359207 0.08872644 -0.6830239 0.7731464 -0.12399065 -0.06263432 0.2952854 0.13824803 0.08431604 0.062395383 0.78244406 0.6223213 0.8272374 -0.71160203 -0.57100326 0.0019134199 -0.39155692 0.10603891 -0.38555107 0.45896548 -0.28803605 0.89384377 0.17307672 -0.20448779 -0.6455509 -0.38897777
sure -0.2806742 -0.5967775 -0.5109649 -0.12011421 -0.3402631 0.3785702 0.25113192 -0.14908548 0.24356423 0.4008368 -0.15751366 0.2457651 -0.16601509 0.6857915 0.47883177 -0.712305 -0.21414453 -0.24188113 0.44964355 -0.38141894 -0.106171004 -0.39246517 0.2440492 -0.3158327 0.39901397 0.69829714 0.27723107 0.22089206 -0.13164724 -0.061119515 -0.99396276 -0.32233295
small 0.18425387 -0.29378647 -0.35511932 0.1923702 -0.2795668 0.33632544 -0.55022407 0.24318391 -0.39229435 -0.09226829 -0.10492189 -0.3310734 -0.016942246 0.2541682 -0.55834687 -0.52065176 0.66333646 0.7340805 0.21727113 -0.4772849 0.06224826 -0.47778255 -0.68603235 -0.05723469 -0.023249283 0.28802115 -0.1806066 0.13324432 -0.0048038024 -0.7412907 0.10192211 -0.04356555
delicious -0.3517955 -0.58508736 -0.3568935 0.3045059 -0.50324297 -0.42198744 -0.16653877 0.019289996 -0.34758812 0.5246917 -0.11184829 -0.12543717 0.059589524 -0.20740624 0.7218515 -0.3717282 0.25566116 0.17739385 -0.047801256 -0.041446228 0.54201204 0.19327942 0.3581336 -0.23292316 -0.5064945 -0.44955945 -0.055271536 -0.56313646 0.23013839 0.55712193 -0.25079983 0.32481074
many -0.7934469 -0.85814863 -0.20298736 -0.12734568 -0.5013316 -0.3943319 -0.052863944 0.22929665 -0.31403 0.32083833 -0.18990572 0.74174017 0.5959517 0.44913992 0.43760327 -0.73378617 -0.21857968 0.035353117 0.31948322 -0.78579634 -0.20189299 -0.31625122 0.21433412 0.2829323 -0.1083148 0.7131969 -0.02656732 -0.26092896 0.25743335 0.019327007 -0.29609334 -0.22065079
amazing -0.9633477 -0.6128515 -0.29840595 0.4147484 0.0074032582 -0.60195917 0.35092187 -0.27857462 -0.23212598 0.6719712 -0.13923259 -0.17701487 0.34652454 0.1302895 -0.07658207 -0.6842724 0.092679635 0.3293238 0.3813808 0.64881706 -0.12684505 0.25793937 0.012011954 -0.8290142 -0.25710595 -0.21525726 -0.21883443 -0.20380358 0.22967823 -0.25669736 -0.75179946 -0.42369387
only -0.76176953 -0.019763371 0.120944016 0.56357515 -0.23510696 -0.5682734 0.9134672 -0.63811755 -0.16428201 -0.13353573 -0.037583027 0.47113553 -0.32324752 0.11477521 0.17753635 0.18143977 0.0021043483 0.9724042 0.61540836 0.26055327 -0.4503072 -0.6116862 0.30228263 0.023286067 -0.48143858 0.4064375 -0.3103003 0.049948364 -0.6159973 -0.52838784 -0.057616886 -0.015758116
same -0.8191008 -0.7122696 -0.68840504 0.43850613 -0.12513262 0.58569527 0.4126808 -0.3306938 0.6827676 -0.059220526 -0.13445729 0.24926105 -0.30918163 0.07745178 0.27929643 0.31533155 -0.019289967 0.41267636 0.4410257 -0.29197428 0.16617677 -0.3960389 -0.08203364 -0.42073345 -0.16336598 0.68525326 0.55619246 0.4776085 -0.24384159 -0.17723083 0.26606545 0.45433882
last -0.18458422 -0.5435716 -0.5200078 0.5812505 0.22055876 -0.3829377 1.0286068 0.06298365 -0.14478903 -0.2509841 1.2218428 0.66519004 -0.611145 -0.12273701 0.36280724 -0.15475188 0.6086973 0.6438176 0.08818362 -0.43203554 -0.7550882 0.027581323 -0.10514662 -0.7104152 0.39843422 0.207677 0.08682537 0.30820543 1.1013447 0.26508886 -0.5426256 -0.36572808
fresh -0.53818995 -0.056618713 0.44397512 0.37415454 -0.33035678 -0.6778915 -0.25833562 0.04297288 0.26329178 0.047823142 0.066239096 -0.17214091 0.11260093 0.49847594 -0.110808484 -0.1740834 0.21750839 0.70995164 -0.5179492 -0.6761723 -0.42101663 -0.1350957 -0.27309802 -0.2543606 0.22961807 -0.3715954 0.26313198 0.45780602 0.1974874 -0.9489762 -1.0519404 -0.10636291
big -0.37254375 -0.18869475 -0.2590649 -0.05547632 0.12523282 -0.51860744 -0.207252 0.45037657 0.069408916 0.10334281 -0.44745597 0.6260096 -0.11800884 -0.049261417 -0.25292286 -0.14394674 0.2769664 0.035574824 0.31996784 0.019559748 -0.46656123 -0.15370043 -0.21190032 0.09199306 -0.83488834 0.22095825 0.42976588 0.18783201 -0.5119042 -0.42374223 -0.3079584 -0.4370635
different -1.0328356 -0.4849133 -0.48318532 0.25799736 -0.19391511 -0.52556854 -0.079286836 0.102547124 -0.198844 0.29316345 -0.050225522 0.77952695 0.095520794 -0.07721962 -0.079456344 -1.1219338 -0.2847034 0.3091542 0.072555065 -0.45646712 -0.04415903 -0.13405117 -0.10647155 -0.2990024 0.46032277 0.027741592 0.2649356 -0.41134873 0.5491433 -0.0009188913 -0.34275195 -0.034288876
hot -0.52306974 -0.47013956 0.16271105 0.51780504 -0.27118805 -0.31590506 0.48141205 -0.80286676 0.692282 -0.10039585 0.08647326 -0.033345044 0.119419575 0.433932 -0.22290045 -0.11478201 -0.037388023 0.038910083 0.19600272 -0.2874524 -0.22562997 -0.28119877 -0.33532748 -0.82508004 0.26815778 0.36310428 -0.07346708 0.34677058 -0.15498461 -0.217752 -0.77737945 -0.18480676
next -0.78827447 -0.577922 -0.06150615 0.098823994 -0.25818658 -0.113280505 0.14843218 -0.54782116 -0.41579324 0.4405763 0.052115604 -0.26855314 -0.4839137 0.10915749 0.15484928 -0.87757397 0.42631382 -0.24604577 0.71383584 -0.3953289 0.12445094 -0.3293471 0.2555299 -0.011864027 -0.956955 0.1476221 -0.16217227 -0.27497542 0.06742425 0.026253503 -0.110300615 -0.43169704
much -0.50572145 -0.45309237 -0.3274475 0.6404595 -0.45597234 -0.13413972 0.052859474 -0.08665044 -0.09000435 0.035323087 -0.45166126 0.8919555 -0.16728093 0.20807485 0.06861584 -0.18857099 -0.023303557 -0.07964638 0.39791745 -0.16572286 0.05718812 -0.93558866 0.6721904 -0.2075439 -0.34320837 0.86387765 -0.21920528 0.09378992 -0.005714489 -0.36599803 -0.4739714 -0.43159243
worth -0.4365251 0.08885709 -0.04337873 0.66305965 -0.43315005 0.20620395 0.034492284 0.2077792 0.05336027 0.037876796 -0.16416925 -0.3648134 0.25201505 0.12892261 -0.2744554 -0.2397513 0.5502902 -0.23343018 0.32136396 -0.07113775 0.33785015 -0.59121495 -0.16742012 -0.2952386 -0.9962852 -0.12041373 0.40695792 -0.15037626 -0.06716309 -0.46778125 0.42925107 0.014311559
full -1.1155038 -0.77288073 0.06630266 0.33366588 -0.92697096 -0.3809608 -0.04597477 0.046090018 -0.37351435 -0.15170628 -0.19627382 -0.12321679 -0.869633 0.35653737 0.43190238 -0.90478647 0.115767576 -0.43501833 -0.06844555 -0.18966088 -0.20131458 -0.46100137 0.4156587 0.26981157 -0.4003278 0.8246221 -0.4216742 0.41259485 0.27322337 -0.7502008 -0.3293218 -0.007986336
clean -0.33711103 -0.43721634 0.34346023 0.7746598 -1.0715456 0.21291235 -0.70085245 -0.1657215 -0.34650937 -0.036608472 0.08314815 0.76611674 0.7048676 -0.40733096 0.6025113 -0.66348577 0.42536962 0.6620059 -0.08620291 -0.8075987 -1.0302156 0.35497105 -0.19557923 -0.3236546 0.08599943 -0.16915841 -0.04161353 0.32447633 -0.44230434 -0.489 0.20787482 -0.46173537
happy -0.41743806 -0.18985917 -0.48445463 0.44782743 -0.60438484 -0.012941316 0.07829431 -0.25559908 0.2637715 0.1555932 -0.4563445 0.45445985 -0.61494255 -0.326281 0.024261985 -0.3971193 0.569963 0.60714453 -0.09332492 -0.2965551 0.17137854 -0.71022063 -0.43644562 0.0013410822 -0.16922933 -0.14598107 0.37325203 0.33109495 0.5679214 0.41625524 -0.06965183 -0.58138764
busy -0.7604623 -0.5073213 -0.3198089 0.43960473 -0.33513266 -0.33167592 -0.012853824 -0.35715318 0.5364201 -0.4634194 -0.9906409 0.3844823 0.033695817 0.38318244 -0.035685815 -0.41894108 -0.010743193 0.8029963 0.24687572 0.1928453 -0.2426677 -0.31778368 -0.4864786 0.2568514 0.95866793 0.14998062 -0.15499654 0.67943656 -0.53459454 -0.24290048 -0.549984 -0.22643338
sweet -0.32071298 -0.7023963 -0.59697545 0.5537259 -0.05681001 -0.30070576 -0.2752757 0.35370392 0.5097911 0.5279369 0.29522827 0.46447286 -0.070955195 0.35227898 -0.07251103 -0.6229276 0.1374308 0.39259535 -0.4995111 0.33493668 0.043489814 0.493112 0.020589978 -0.34377885 -0.76096046 0.2426754 0.454029 -0.33739793 -0.26538363 -0.014406271 0.065176696 -0.14218499
long -0.8835428 -0.06661817 -0.44203186 0.34975544 -0.5819273 0.13626805 -0.42404065 0.12170651 -0.31236565 0.76530373 -0.50368476 -0.07865701 0.17365164 0.485774 -0.35896033 -0.28179908 -0.123757005 0.36509934 0.2785693 -0.4056625 -0.1742848 -0.65145105 0.032838643 0.071742535 0.23856166 0.00476472 -0.30063394 0.3340989 0.15542844 -0.15838408 0.13605903 0.36868092
old -0.118783824 -0.13855302 0.72824293 0.6488976 0.08953302 -0.58518595 0.25262195 0.5473092 0.47319007 -0.34539482 -0.12647907 0.1469595 -0.5216977 -0.594099 0.34555605 0.24941093 0.7308627 0.32856014 -0.1595972 -0.0049696653 -0.65547395 -0.50420886 -0.28135115 -0.34381777 0.06898943 0.49674332 -0.24729715 0.096097454 -0.48563337 -0.3669705 0.014749406 -1.016451
free -0.58214676 -0.20906931 -0.13728645 -0.313322 -0.22736143 -0.35868835 1.0617234 -0.1887277 0.19072692 -0.44270164 -0.28542152 -0.1867835 -0.16907534 0.375054 -0.26066113 -0.7667793 -0.0062128194 0.69127625 -0.0675754 -0.32778397 0.1748565 -0.40732282 -0.42152274 -0.14226665 -0.48547038 0.16178025 -0.070731744 0.4840537 0.078946404 -0.1108778 0.41846177 -0.11661675
awesome -0.27098712 -0.8111319 0.60291314 0.5682147 -1.175102 0.28496793 -0.5133849 -0.3291509 -0.14683554 0.716872 0.49475527 0.13019787 0.4538215 -0.18372712 -0.7441471 -0.7337586 0.31602556 0.46966586 0.076827876 -0.21801442 -0.1445973 -0.7093691 0.09471416 -0.6033384 -0.26677373 0.57783747 0.0036503768 0.146396 -0.3839493 -0.4561623 -0.40603468 0.19471858
tasty -0.8164562 -0.26212522 -0.5882443 0.38828608 -0.59372216 -1.0590426 0.14024965 0.13850863 -0.1013381 0.13253494 -0.023064118 0.28666872 -0.45210195 0.6549248 0.34800258 -0.4796616 0.23088399 0.10245086 0.5410268 -0.55364406 0.48758933 0.008125325 0.25066066 0.003738963 -0.33125907 -0.3027965 -0.06371334 0.18382998 -0.10575098 -0.30227378 -0.4546197 -0.0004962059
large 0.41639814 0.10100153 0.2876636 0.3909785 -0.48724407 -0.5922007 0.11343689 0.20348297 -0.08251467 1.1401438 -0.06424174 0.61884826 0.16836447 0.8328321 -0.005764153 -0.02999198 0.73268306 0.19982904 0.3664921 0.04064311 0.12114595 -1.0096388 0.51710564 0.17048894 -0.37333798 0.59731865 -0.21501881 -0.27358973 0.19957428 0.08976595 -0.06912489 0.19989732
excellent -0.6998657 -0.36475307 -0.17610708 0.39888614 -0.73967034 -0.30001742 0.48603946 0.2848671 -0.6453284 0.5582061 0.29317802 0.20684233 0.27658832 -0.27084398 0.49502766 -0.38596028 -0.5490711 -0.07783731 0.64301264 -0.35654092 -0.35247606 -0.65625656 -0.3239995 -0.8619403 -0.7028782 -0.5547807 0.011914165 0.44940925 0.33593687 -0.38284922 -0.73210394 -0.13012856
huge -0.9432965 0.3612138 -1.0339459 1.2624425 -0.2299411 0.13538998 -0.79798865 0.13726309 0.34064212 0.38474268 0.0010439234 -0.23261741 0.57016194 -0.58211327 0.015144266 -0.5283784 -0.13672751 0.42027 0.1644306 -0.6776164 -0.405738 -0.10115743 -0.3892537 -0.9309206 -0.30336303 -0.7011981 0.07068583 -0.39781395 -0.11726643 -0.17807633 -0.23217927 0.89088434
most -0.22164893 -0.87505746 0.14548586 0.6688767 -0.3528396 0.27909806 -0.1816172 0.38792267 0.57288873 -0.015876636 0.34708852 0.5141099 -0.08495268 0.17577 -0.43759027 -0.70813954 1.0699699 0.6246407 0.6479953 -0.0754201 0.4627113 -0.120989636 0.057858273 0.056670517 0.093929894 0.578452 -0.32440504 0.25890207 0.2773208 -0.5981691 -0.025114983 0.044692468
worst -0.11955608 -0.70509803 -0.24458078 0.3085135 0.0914851 0.24773134 -0.31717423 -0.15603279 0.57633924 0.2232544 -0.43340454 -0.1469395 -0.07403209 -0.029861355 0.37478828 0.25948614 0.44615108 0.35939318 -0.39832103 0.23864102 -0.78172797 -0.2262112 0.39281136 -0.0989978 -0.66615367 1.3827637 -0.08662781 0.42229182 -0.11690703 0.29441524 0.6521893 -0.24838905
special -0.60007274 -0.063302554 0.32754624 0.38588706 0.548758 -0.8671395 -0.19506897 0.070741214 -0.27224293 0.17965876 0.78602093 0.52447575 -0.7665604 0.45932525 -0.32629022 -0.3308983 0.6486655 0.602425 0.45581934 0.59077954 0.22495705 -0.6699856 -0.14963023 0.030440092 0.26193523 -0.08392398 -0.087632224 0.05494154 0.32102293 -0.13468759 0.070122726 -0.25624797
decent -0.43158785 -1.2215339 -0.37599814 0.31027874 -0.46730754 -1.6724515 0.24616146 0.6291197 0.103121296 -0.021108106 -0.4139858 -0.8411538 0.49087027 0.55187136 0.30712613 -0.1805742 0.36976054 0.74952465 1.1703392 -0.37762484 0.36020416 -0.51209044 -0.12881464 -0.29163015 -0.68331814 0.35436296 -0.33258393 0.06853191 0.28925627 0.12699856 -0.030417196 0.67501605
rude -0.5626838 -0.7964655 0.5170733 1.348662 -0.3692199 0.1345696 0.096694775 1.1933886 -0.372628 0.31880996 -0.46637148 -0.1774725 -0.24960868 -0.11524266 0.7752355 -0.24463318 0.57984245 0.3474737 -0.047908153 0.29525253 -0.8580211 -0.2099914 -0.38689396 0.54762405 -0.15929295 0.5457842 -0.4677854 -0.102059044 0.2768607 0.0024774286 -0.30387148 -0.7408714
horrible 0.22978309 -1.2893182 -0.386459 0.242822 0.05881974 0.2707562 0.55017436 0.9138528 0.009491947 1.118338 -0.55383337 -0.24172518 -0.34859607 0.8979446 0.30184036 0.3670332 1.1785728 0.40784076 0.2793325 0.03745924 0.18908854 -0.05228382 0.21197487 -0.1912049 -0.27428928 0.921573 0.12934272 0.08468888 0.39149687 0.13587105 -0.11093247 -0.34101483
cold -0.35875064 -1.7371049 -0.46820503 0.6386895 -0.6467134 -0.59446096 -0.3895091 0.004685756 0.16339727 -0.0381841 -0.48113757 0.10371068 -0.87698925 0.44292852 0.2939711 -0.7161545 0.231026 0.45481774 -0.40309387 0.07184812 -0.41238204 -0.46348852 -0.42536077 0.04617741 -0.3271842 -0.18994063 0.63944185 -0.12857306 0.21904191 -0.29323465 -0.4567629 0.5957306
least -0.17092638 -0.3604721 -0.97640455 1.7191834 -0.1411508 0.11236122 0.76939964 0.69625664 0.55502385 -0.3068998 -0.56327283 0.44361398 0.005234627 -0.5243339 0.19513562 -0.24616092 0.64506316 0.63480914 0.42702278 -1.147006 -0.33116725 -0.5243299 0.64424366 0.3172518 -0.7276147 0.20843284 -0.4369201 0.2603156 0.2530189 -0.061804555 -0.33624792 -0.5095518
extra -0.9994298 -0.88351965 -0.33681902 1.2536105 -1.0398911 -0.6883104 0.34420747 0.030169107 0.28291494 1.0445086 -0.38955107 0.019818287 -0.67938167 0.6682741 0.099349804 -0.37472937 0.19604659 0.23548189 -0.13288485 -0.9127037 -0.057222966 -0.30721292 0.031840988 0.16299607 -0.9201592 -0.18916708 1.0063211 -0.016316548 0.16591956 0.15753362 0.2662907 0.056039706
wrong -0.2586034 -0.2583949 -0.5914974 1.0612797 -0.2183381 -0.7310218 0.034996577 -0.07179617 0.06419052 -0.028560441 -0.23258871 0.36904177 -0.4217102 0.22117868 0.770184 -0.39982352 0.78604394 0.17289956 0.28001836 0.37071514 -0.08839871 -0.20710613 0.3837104 -0.30083433 -0.3126265 0.9810749 0.7258744 0.39216852 0.81457317 0.054360908 -0.7415101 0.03104341
high -0.573857 -0.45381382 0.16480775 0.9212493 -0.18988156 -0.21534374 0.22739792 0.112127654 -0.38496342 -0.36641833 -0.1655737 1.0108216 0.3236608 0.635595 0.5096846 -0.72756195 0.7865271 -0.3711037 -0.18003568 -0.6549517 -0.45964432 -0.40396172 0.16419771 -0.2400654 -0.38624445 0.26285303 -0.3268166 0.6878764 0.6774427 -0.2630835 -0.18132237 -0.7630207
whole -0.05920773 -0.5544828 -0.7360412 0.37997785 -0.9210163 -0.46865612 -0.7750504 0.52072406 0.27476993 -0.22825871 -0.6404603 0.28975698 0.07210333 -0.36295238 -0.10097072 -0.31239885 -0.48322165 -0.15341085 0.1327934 -0.2789732 0.011577581 -0.84846956 0.5433969 -0.19288062 0.30611974 0.67778647 0.0031721394 0.25762555 0.8852512 -0.05280598 -0.5475601 -0.9062664
favorite -0.21060446 0.16255967 -0.33010316 0.59559333 0.20597795 -0.31027564 -0.11377146 -0.56321526 0.042016424 -0.4296691 0.58312166 0.50488687 -0.077434 -0.51501626 0.71249676 0.27071524 0.37617558 -0.039575145 0.101707235 -0.2070898 0.2382882 -0.6968569 0.7011347 -0.67611945 -0.5861989 -0.5914038 0.57029897 -0.22540991 -0.5510682 -0.10270271 -0.34887618 -0.6828101
perfect -0.5761865 0.4533056 -0.2614847 0.19884004 -0.556958 -1.1169529 -0.5811536 -0.22781588 -0.068426475 0.9363972 0.23557316 -0.06590772 0.55395 0.3969596 1.2163897 0.055251367 1.0558634 0.42786786 0.12506753 -0.5723108 0.038594123 -0.8918697 -0.16460751 -0.6924602 -1.2707214 0.94705963 0.3872186 -0.09597289 -0.042815834 0.17203008 -0.25451827 0.008145745
terrible -0.8750899 -0.32680193 -0.23664631 0.80959946 -0.9222568 0.25077805 -0.17765754 -0.12508029 0.31925398 -0.89045256 -0.0105338935 0.34187308 -0.4844358 0.588837 0.94664675 0.15282722 1.1345086 -0.51149017 0.21651115 0.41415486 -0.38650998 -0.3111445 0.6347502 0.2591389 -0.5128557 0.5759739 0.3166206 0.7092723 0.41292062 -0.21979225 0.7030705 -0.9634763
own -0.77797323 -1.0275376 -0.49069262 0.09212779 -1.1630905 -0.32618025 0.7756074 -0.1603653 0.09974908 -0.36267436 -0.63953984 0.54233056 -0.6529035 -0.19342436 0.6107277 0.16808793 0.06933859 0.5573862 0.144583 0.41911662 0.010786528 0.37019944 0.035131957 -0.35198084 -0.02492449 0.37116125 1.1405122 0.5869806 -0.15193589 -0.8122465 -1.2787142 0.5417158
open -0.5442652 -0.534373 -0.4396512 0.3936847 -0.27444035 -0.46604308 0.2592832 0.6074968 0.37527576 0.7867555 0.07119791 0.062150106 0.3980305 1.0096467 0.7068082 -0.23180017 0.21903184 0.46321854 0.5180954 -0.51697713 -0.91267806 -0.47999662 -0.42563286 0.42408785 0.59852153 0.3225396 -0.18984434 0.29476136 -0.5308291 -0.28570265 0.18915264 -0.50421584
several -0.7098004 0.52893794 -0.26750052 -0.01188906 -0.1907803 0.52843994 0.83691466 -0.40562117 -0.2789395 -0.09755215 -0.6775129 0.48810112 -0.09684005 0.86583835 0.055827543 -0.8180292 0.06423768 0.47669092 0.7395508 -0.031225212 -1.4382728 -0.44581738 0.7120148 -0.54539514 -0.21826035 0.6675884 0.0124103725 0.3773917 0.40350485 -0.5616915 -0.04739957 0.059723977
quick 0.045484517 -0.45336 0.28577405 -0.14976369 -0.5147764 0.07306815 -0.90099883 1.2471595 0.90637034 0.36559013 0.25722584 0.60407925 0.7789654 -0.46511972 -0.09220769 -0.37010664 -0.12624398 0.7869415 0.6094852 -0.41658106 -0.5440925 -0.077843525 0.5064009 0.06717908 -0.2330487 0.7775475 0.61420244 0.032504212 -0.17187092 -0.03607128 -1.5331546 -0.8914042
hard -1.8160654 0.7266062 -0.6665458 0.9145022 -0.33346003 0.10556462 -0.09553193 -0.33200654 -0.03464696 0.81805694 -0.8603167 0.094583474 0.1767765 0.17639506 -0.5192067 0.30738503 0.027147114 0.42489627 0.68347734 -0.14129095 -1.0363201 0.081253715 -0.046625845 -0.067350596 -0.32770857 -0.035032894 -0.22753255 0.54434675 -0.54415935 -0.16564114 -0.33078924 -0.47138682
enough -0.41206387 -0.7852923 -0.30792305 0.757194 0.5883607 -0.84879416 0.025926743 -0.07289328 0.64033705 0.33229536 0.19204679 -0.100929566 -1.1301336 0.30778757 -0.4094762 0.5592775 0.36521775 0.13188751 -0.45519137 -0.08900417 -0.42540675 -0.07409301 0.30435345 0.27087748 0.012464791 0.520617 -0.24857952 -0.18731777 0.3638784 -0.6201171 -0.62256396 -0.87023735
second 0.23141642 0.51905006 -1.1887532 0.4051831 0.21942917 -0.22886626 0.3518231 0.27007744 -0.09681912 0.11532522 -0.28071392 0.2862683 -0.25945845 -0.5284831 0.63949156 -0.4789742 0.5128382 0.9611456 0.78463936 -0.5566803 -0.52715075 -0.31367847 -0.16063808 -0.38448387 -0.9079462 0.3844824 0.39402214 0.016434362 0.56706524 -0.25644824 -0.9035498 -0.3804616
able -1.3316362 -0.37626436 -0.6999799 -0.3254963 -0.061775815 0.18301442 -0.41606712 0.2375224 -0.05569457 0.30158564 -0.20135699 0.976381 -0.088400766 0.36660156 -0.49224648 -1.275851 -0.38348258 0.9936591 0.7317243 -0.639766 0.37849867 -0.33240363 1.0222435 0.2822042 -0.56537145 0.65798473 -0.3124974 -0.030297004 0.30160886 -0.693262 -0.7154132 -0.57242113
fine -0.5265265 -0.18365937 0.9187613 0.65277004 -0.74871856 -0.7634899 0.28407925 0.1389357 0.14092137 0.7997933 -0.7550002 0.49458647 -0.51526904 -0.04506444 0.0943634 -0.74771863 -0.5861568 0.37660113 1.2609819 -0.27486086 0.79189813 -0.6495852 -0.1302139 -0.72210205 -0.46535614 -0.5884634 0.23115711 1.111452 -0.22799028 -0.60261065 0.6727151 -0.44474137
right -0.29933006 -0.77048784 -0.038668435 0.7823143 -0.77165806 0.43651322 0.3859307 -0.17591302 -0.050241217 -0.5168036 0.03689176 0.6101119 0.022536777 0.5685895 -0.16717803 -0.894421 -0.44642678 0.30858305 -1.0008866 -0.8804642 -0.21329749 0.3749992 0.5087257 0.7389982 -1.0565547 -0.2627924 -0.15223455 -0.10567049 0.9989637 0.1812444 -0.5993219 0.17473353
spicy 0.19743836 -0.20066345 -0.7033392 0.25349748 -1.0420089 -1.4260383 -0.3974816 1.3457625 0.6575149 0.41402373 0.6020103 0.2614391 0.029077986 0.58714277 0.665641 -1.3897526 1.0311488 0.67026913 -0.31613216 -0.6681577 0.115687646 -0.6262298 1.5250553 -0.4216114 -0.2620345 -0.13387814 0.2141437 -0.18131441 0.20679775 -0.24439676 -0.17420438 -0.2521799
less -1.1458215 -0.6053041 -0.3659507 0.36712754 0.3164748 0.91860944 -0.101729766 1.0541835 -0.07923503 0.5102208 0.15006612 0.052369073 -0.6740588 0.13679525 -0.19680783 -0.7375558 0.5359152 0.67720497 -0.44081712 -0.80933636 -0.25092897 -1.0737478 -0.07118058 0.66140324 0.0656769 0.6635924 0.82222766 0.94465727 0.39054194 -0.7776207 -0.41771996 -0.4846601
dry -0.5485307 0.16870405 -0.8406291 0.7831105 -0.5982435 -0.4757126 -0.40971634 0.061010804 0.2344449 0.18576947 0.91482276 -0.16868724 -1.5980455 1.1145399 -0.06717156 0.17210066 0.33547395 -0.19111584 -0.83899003 1.0808105 0.015642842 0.012766739 -0.6083696 -1.2305893 -1.285758 1.1168917 -0.47823152 0.7026996 -0.66832554 -0.3719582 -0.5143229 0.009188916
cool -0.7695353 -0.5267664 0.0014467523 -0.31880328 0.035001498 -0.5280912 0.9272484 0.5435255 0.5712979 0.59916 0.23271164 -0.69679224 1.2493334 0.29723397 -0.3970072 -0.6707454 -0.12439505 0.19813816 0.18010172 -0.82580334 -0.09534063 -1.4812975 -0.47152275 -0.5864644 -0.55064964 0.77330476 -0.40186298 -0.030857874 0.31883508 -0.6048137 -0.5565457 -0.59197944
disappointed -0.31066132 -0.864393 -1.5231754 0.3024038 -0.6129607 -0.046327516 0.4354752 0.51482004 -0.5104434 0.4839629 0.09407355 0.9650954 -0.90508443 0.093152665 1.0520562 -0.004452085 0.37657645 0.6318424 -0.11647933 -0.20783567 -0.71676874 -0.40949103 0.30788174 -0.3047911 0.088256165 0.61670786 -0.76393026 0.43535465 -0.5676747 -0.20616296 -0.72483474 0.17922194
local -0.8628702 -1.9450877 -0.50025254 -0.36038008 -1.0154989 0.7896557 0.5576062 0.26118273 -0.19110884 0.33975977 0.2284378 0.039597057 -0.27990425 0.48659065 0.02557384 0.52760255 0.9504323 0.35445157 0.7298401 -0.5294591 -1.073198 -0.12809715 0.21405487 0.36746863 -0.93753415 -0.71030974 0.6141281 -0.8290243 0.13416038 -0.6227276 1.273948 -0.4139499
helpful -0.99922216 -1.211838 0.1281525 -0.17679664 -1.3234577 0.3548009 0.4022386 0.37511316 0.60470927 -0.48896116 -0.95233256 0.2000486 0.34648195 -0.2190812 0.10308117 -0.48589033 -0.22137873 0.48726374 0.22614385 -1.0171825 -0.7530636 0.16354924 -0.42583972 0.3412658 -0.5409528 0.01086084 1.3477464 0.22070673 -0.28982174 -0.6590131 -1.7137656 -1.0457363
slow 0.87833387 0.08246961 -0.70497495 1.4296743 -0.19566678 0.21080664 0.11089722 -0.9876062 0.46630144 0.7254292 -0.35409057 0.36364734 0.3201665 0.93732256 0.25776622 -0.9524488 0.2775439 1.5346547 -0.106188186 -0.43485424 0.630483 0.4016122 -0.36966574 -0.7947531 0.24806352 0.30767837 -0.36647785 0.712189 -0.20404625 -0.06299116 0.25863856 -1.334991
red -1.0088905 0.91288024 -0.80673176 0.940916 -0.7430959 -0.57297945 -0.062632404 0.08281425 0.6097888 0.4999946 0.009736873 0.8741431 0.19711944 -0.4772294 -1.2562554 0.18943231 0.9704795 -0.41073346 -0.7374356 -0.6255465 -0.80432373 -0.7830771 0.4769696 0.4804014 -0.20635183 0.32311073 0.14461339 0.0703162 0.92293835 -1.0579003 -0.49934205 0.4509241
ready -1.5986415 -0.044260893 -0.75672054 0.46736607 -1.7456776 -0.8430875 0.1618454 -0.21337248 -0.48637614 -1.1338357 -0.88782907 -0.5774056 0.6366245 0.32158253 0.80177367 -0.82136446 -0.5250983 0.62160915 -0.5042688 -0.3969952 -1.1067271 -0.72647065 -0.3302046 0.22872745 0.14259635 0.25408465 0.71266925 -0.2432885 -0.04526612 0.39951655 0.1565846 -0.41169867
regular -0.44230092 0.037916996 0.40409324 0.8147958 0.31365183 -0.40124094 -0.14390992 0.7279889 0.024384728 0.23858856 -0.021072064 -0.40919355 0.2739335 -0.1760514 0.8508289 -1.361226 0.7272626 0.19178669 0.69715035 -0.30355257 0.2806851 -0.048106924 -0.8681104 -1.1761754 0.41522446 1.4313082 -0.23722015 1.2966027 -1.0241343 -0.4581706 -0.21756834 -0.03333163
expensive -0.7409113 -0.7307285 -0.28581148 0.515678 -0.8734773 -0.12203145 -0.20686133 0.17783138 1.2224175 0.5182065 0.80481094 0.5036628 0.3105074 0.69230056 0.18784732 0.086624235 0.7459566 0.046432216 0.9580856 -0.55183285 1.2941469 0.024339367 0.064496346 1.1628966 -0.2853166 2.1357305 -0.9835582 -0.9426253 0.98479104 -0.30345827 -0.6541277 0.24452356
poor -0.28552833 -0.7705311 0.39496002 0.46013993 0.0019418932 0.59578097 1.1088716 0.32123333 0.68395185 0.58085394 -0.5614607 -0.26816133 -0.31694046 0.066293895 0.8853865 -0.57843816 0.47190684 0.14074239 0.058846824 -0.39016452 0.05312335 -0.8624228 -1.2874337 -0.40065923 -0.9776108 0.59832436 0.11784012 0.45906308 0.058377992 0.60991096 0.5519721 0.73841655
cheap -1.8078325 0.46485415 0.36649662 0.23402803 -1.3225007 -0.13847551 0.36720416 -0.04983873 1.6085322 -0.5959017 0.95525116 0.34640336 0.021458214 0.4252935 1.0697625 -0.54715 0.06310745 -0.47068277 0.65242004 -0.76615113 -0.13127683 -0.19489099 -1.3967373 -0.5995946 -0.68414605 0.72736365 0.68945026 -0.21244548 -0.25041416 0.1111936 -0.6368296 0.2559963
front -0.6328749 -0.082239725 0.635716 0.4729222 -0.20156555 0.33943477 0.123476595 -0.3765825 -0.75532335 0.014774904 -0.7405068 -0.9601597 0.118939824 1.0886852 0.44587883 0.74898124 -0.76193255 0.6381353 0.65769184 0.053978376 -0.8378159 -0.3192231 0.82546586 0.34320876 -1.9147003 0.74574184 0.32409167 1.2364106 0.20061874 0.6026534 -0.84383315 -1.4569738
average -0.4682423 -0.6303189 -0.5598807 -1.2838899 -1.5095898 -0.43135142 -0.7556394 1.3184419 0.076647386 -0.075223535 0.1277518 0.21467009 -0.666371 -0.07868791 0.6857371 -0.060668387 0.41070327 1.0203022 -0.29000044 0.18256956 0.36315373 -0.78959244 -0.66081136 -0.5051706 0.25428042 -0.3608872 -0.48597336 0.35158196 0.18261278 -0.10700638 -0.41025755 -0.39082518
real -0.9665387 -0.10873951 -1.1538138 0.8241761 0.122657485 1.0615731 0.12065188 1.211296 -0.15426674 0.54462945 0.36968186 0.15025833 -0.1760088 0.8870907 -0.38976213 -0.34371367 0.66026646 0.13073198 0.14337501 -0.089309365 0.23746929 -0.87454194 0.82890826 -0.34211916 0.1046678 -0.49807104 0.980781 1.5574864 -0.4628657 -0.36258778 -1.1661924 0.26507375
empty -0.4207085 -0.10246536 -0.46083584 0.10520972 -0.2938241 0.30904242 -0.5394309 -0.48001 0.5340877 0.70430976 -0.012973391 -0.07214764 -1.5017349 0.31913188 0.6097179 0.226341 0.16846104 0.915341 0.07376621 -0.9317745 -0.71427155 -0.30216157 -0.5921215 0.78506523 0.6507623 0.9705642 0.48052993 -0.55107343 -0.38366103 -0.6535808 -0.045929383 0.22355483
overall -0.6569481 0.017660886 0.3994254 0.2360175 -0.86895126 0.00032736547 0.4769267 -0.4077153 0.49366552 -0.1007921 0.32726905 -0.39285502 0.28173107 0.9324252 0.5159048 -0.46963435 -0.49492326 0.20104717 0.22644188 -0.1319025 -0.020750418 -0.110265866 -0.09964545 -1.534601 0.48970073 0.09808484 -0.0724021 -0.16914405 1.0718553 -0.211535 -0.51739883 0.70931447
available -1.0733689 0.5578663 -0.011239477 0.31513998 -0.25405967 -0.9465822 -0.5198393 1.1806945 -1.1988451 -0.27034307 0.5146351 -0.45148882 0.11038381 -0.5054687 0.68014026 -0.9535303 0.5882099 0.27198833 1.2074153 -0.030653529 -0.8591878 -0.6232113 -0.2069057 0.51984227 -1.1865927 0.94828135 0.11720342 -0.94810575 -0.24985911 -0.7366633 -0.122826464 -0.89502317
main -0.13344477 -0.8957283 -0.43579853 -0.07304746 -0.03766439 0.080472 -0.18794526 0.46770763 0.71269643 0.7297694 0.41019797 -0.63560784 0.206069 0.66429883 -1.4856232 -0.21882139 0.8294237 0.33039308 0.60728145 0.3589067 0.48198453 0.15768261 -0.9550011 -1.2841783 -0.93135214 0.27923837 1.0948027 -0.16585663 -0.7377436 -0.24983734 -0.5229996 -0.5172832
white -0.5712935 -1.5380582 -0.39532286 0.9267534 -0.13258106 -1.2226281 0.4116973 1.0208814 0.65208405 -0.3903309 -0.030667042 1.6250206 0.34478134 -0.28432745 0.21324901 -0.6030049 0.7045852 1.0478024 0.076826945 0.54948 -1.7289935 -0.9896566 0.7412943 0.10574591 -0.25320405 -0.038418848 0.24702947 -0.07371979 0.90130544 0.7358536 -0.7841185 0.7091576
beautiful -0.277648 -0.47661495 -0.49693885 -0.05124191 -0.81237113 -0.34560677 0.38655573 0.67651576 -0.29321617 0.8390838 -0.034748737 0.38090706 0.250904 0.1532154 0.8629496 -0.80113834 1.4041822 0.21360815 -0.012198469 0.029774325 -0.025114879 -1.0263865 0.14615738 -0.40270862 0.63871366 0.60642326 1.5522354 -1.3938226 0.4172651 -0.8712865 -0.44755995 -0.64496833
short -0.7871652 0.65150934 -0.16408576 -0.38059565 -1.2911973 0.72386926 1.1688336 0.82048905 -0.10313327 0.60339546 -1.3210106 1.6706116 -1.0206503 -0.09047799 0.24422854 0.9702025 0.38512275 0.71960294 -0.2883819 -0.90245086 -0.5469416 -0.38660276 0.36213803 -0.61840785 -0.5416247 0.9418982 0.41291076 -1.2426038 -0.2191376 -0.4644679 0.044055164 -0.19163942
dirty -0.3989847 -0.1673855 -0.12039763 2.681172 -0.8843125 -0.017227262 0.15265441 0.9512357 1.116704 -0.020461172 0.17690389 0.9427319 -0.12346648 -0.69812125 0.74780345 -0.15595408 -1.238723 0.41995314 0.38367456 -0.14822608 -0.82583755 -2.0910816 1.0384629 0.089650854 0.054015122 0.26003373 -0.7397212 0.9047842 0.10863195 -0.25137687 -0.28125685 -1.0956271
easy -0.30455545 0.038472265 -0.75067544 0.98572946 0.29542443 0.022505023 -0.12766673 -0.7395773 -0.19734587 1.0643126 -1.0134338 0.6012148 0.7068314 -0.07733212 1.349418 0.69341904 -0.34727782 0.75856036 0.09618911 -0.71574855 -0.57782555 -0.8285602 0.30140615 1.1545367 -0.15760602 -0.10546125 0.96822876 0.7731749 -0.65681976 -0.0009323836 0.71484125 -0.15271364
fantastic -0.060324475 -0.070282005 -1.5384257 1.0844316 0.2572135 0.01735471 -0.6349045 -0.46282524 -0.59472644 0.62592703 1.1591661 0.6490371 0.3997212 1.0405142 0.17082933 -0.15817653 -0.98553497 1.2116206 1.6208452 0.41364542 0.1164401 -0.7559932 -0.32400525 -0.44425946 -0.42341882 -0.6379333 0.488113 0.48908454 0.45014682 -0.9545772 -0.8647476 -1.116927
entire -0.58583015 -0.08707613 -0.16839838 1.6479461 -0.92379975 0.29169223 -0.39463964 0.759224 0.34660447 0.098608956 -0.6486731 -0.3528977 0.9541726 1.0503756 1.5786208 0.9350851 -0.45940834 1.115562 -0.7365783 -0.0948008 -0.5326051 -0.90247726 0.32736054 -0.52530277 0.31935063 0.604645 0.021295147 1.4366266 0.9066255 -1.1192306 0.47449017 -0.087646455
reasonable 0.08387164 -0.83636826 -0.22407863 0.797491 0.09304836 0.049396377 -0.007953297 -0.48671815 -0.39406052 -0.6907669 0.76843333 -0.25304842 1.2684946 -0.1378115 -0.7292816 -0.53602785 0.61128867 0.65842783 -0.34069657 -0.3651051 0.5184926 -1.6806563 0.975863 -0.36992463 -1.3731527 0.5296957 -0.093647234 -1.0095878 0.08656988 -0.060273584 -0.18470818 0.16598961
bland -1.342382 -0.77646315 -1.5814358 1.671345 -1.1069285 -1.9841067 -0.6225993 0.48370296 0.26789805 -0.6665613 0.17222123 0.5728262 1.1052139 0.8786357 -0.7344174 -0.5023587 1.0051383 -0.1459927 -0.09692885 0.45437327 0.10659382 0.51236886 0.5238484 -1.4627451 -0.50553405 0.16438003 -0.89956075 0.9970178 0.12481592 -0.12867178 0.016540354 -0.7900605
las -0.5403605 -0.81818414 0.36089495 0.71815616 0.38900062 0.6920943 -0.88901293 0.4219554 1.0811111 0.28067657 0.4505991 0.611734 -0.5324298 0.24165691 0.07020264 0.41215003 0.090170816 -0.047239795 -0.13808236 -1.2013499 0.36372465 -1.4120737 0.9827976 -0.13537325 -0.5083404 0.7333132 0.21972834 -0.27285078 -0.30348125 -1.6511871 1.0310516 0.14219786
wonderful 0.41893098 -0.41048813 -1.1546668 0.16208315 -0.09812506 -0.13944611 0.105972126 0.07401686 0.47004256 0.31150028 -0.21725544 0.8347539 -0.5674742 -1.1012 1.074874 -1.0105371 0.27376077 0.5416255 -0.043029614 -0.8728583 0.43849355 -0.8164704 -0.08434862 0.00056986324 -0.10765356 0.16448288 2.1828473 0.7753398 -0.91712576 -1.2390497 0.22007005 0.6563373
warm -0.9744716 -1.3787173 0.27749458 -0.2618962 -1.2173998 0.115885496 0.46694043 -0.65226245 0.809188 0.53447545 -0.22385578 0.009481337 -0.38956508 -0.7452879 0.075571805 0.58505267 0.21152332 1.404734 -0.5014541 0.83053917 -0.8154353 0.72189313 0.35927558 -1.2530266 -0.5066408 -0.03165455 0.096134186 -0.05294579 0.2000077 -1.4002774 -1.5743883 -0.2264824
simple -0.29249027 -0.19298655 -0.61930066 0.6306023 0.06821167 -0.8189986 0.7691877 1.5103698 -0.061889 1.0581008 -0.2583525 0.07735633 0.8428484 0.8451398 1.5413388 -0.4321699 -0.46967694 1.1534377 -0.30056268 -0.6138952 -0.6869814 -0.7010416 0.9950706 -0.38358715 -0.48481962 -0.8643652 -0.870776 -0.74929523 -1.4290719 -0.036761437 0.26611876 -0.24110925
green -0.4603938 -0.9420626 -0.64030886 0.38262957 -0.83604926 -0.8743944 -0.6670176 0.34192833 0.88664174 -0.20535251 0.36334598 0.84104276 -0.44034716 -0.47878712 0.3436358 1.3727022 0.92024076 0.18919618 0.15168804 -0.7310916 0.22034797 -0.2517987 0.51611465 -0.59932876 -0.085000925 -0.7555353 -0.40281847 1.5210525 -0.6685663 0.071031615 -0.72672796 -0.5490518
professional 0.26660907 -1.0665717 -0.06606666 -0.09195964 -1.6641774 0.9842453 0.08543956 -0.9736544 -0.09209416 -0.6919653 -1.1803123 -0.2951146 1.603994 -0.43782026 0.445862 -0.9831694 0.5535272 1.2060901 0.1368056 -0.82851833 -0.44382808 -0.81229305 0.8333733 -0.10448045 -0.60420346 1.2606684 0.106311955 0.29718512 -0.43296707 -0.739008 -0.77009475 -1.4481958
fast -0.4573294 -0.5671045 -0.4374772 0.40163192 -0.060427886 -0.47523513 -0.17699227 0.87623143 1.1651721 -1.1060363 -0.95965666 0.115874305 0.851508 0.037176214 0.27985325 0.4171217 0.24142219 0.9122433 0.9140992 -0.69858646 0.46904552 -0.63611233 -0.17534114 0.1253315 0.83819914 -0.25299713 -0.60681134 0.11244648 -0.9302356 -1.4256641 -2.3739233 -0.17973322
black -0.13194458 -0.13391715 -0.4274459 0.5182101 -0.29527077 -0.6416369 -0.603835 1.2238183 0.5092576 0.62663597 0.35822013 1.4498717 -0.03807624 -0.65513486 -0.8154518 0.32957062 -0.4208959 1.4161344 0.8584354 0.53932226 -0.90882915 -0.82142735 -0.13091147 -0.5412829 -0.28691623 0.30638158 0.13375604 0.6031271 -0.074636616 -0.39560306 0.6742206 -0.8158398
okay -0.24883196 0.6700819 -0.64710176 0.11887327 -0.9801603 -0.5772094 0.097686 1.5507354 1.4656057 -0.020420838 0.5357025 0.2797386 -0.9340169 -0.22111663 -0.5070277 0.49825525 1.0336919 1.0811204 0.9783967 -0.08107827 -0.9964589 -0.62288016 -0.13124332 -0.106630266 -0.26115787 -0.39688814 0.7295406 0.63323504 0.33597013 -0.1778731 0.20640224 -0.31284156
french -0.5173977 -0.12413386 -0.82866704 0.84640384 -1.4282116 -0.67091876 -0.41311482 -1.057057 -0.88994026 0.9454216 0.44951528 -0.29769212 0.7008362 -0.7356845 0.8562466 0.17465857 0.49161637 0.7974361 0.98992693 0.23543376 0.5423344 -0.44971198 -0.39897525 -1.5627764 -0.2295848 0.010322585 -0.9577274 -1.3957673 0.1874804 0.4568045 -0.6997324 -0.13458301
late 0.4901174 0.29474652 -0.8737199 0.56519973 -0.6718743 0.4436081 0.783223 -0.3409848 -0.3077945 -0.42881086 -0.1473622 0.004260078 -1.8398706 0.69963074 -0.16248564 -0.56988204 0.99943703 0.61163205 1.0208751 0.0958326 0.13863026 -0.69452816 0.100879036 0.036995217 -0.5267638 0.52011853 0.4796742 0.43509233 -0.64264154 0.06064703 -0.25326565 -0.24452536
close -1.0970091 -0.009012388 -0.2719363 0.89186114 0.74336314 0.64431804 0.28881925 -0.4501684 0.28045052 0.21394306 0.53982323 0.18330215 -0.059087217 -0.78393537 0.42825764 -0.60865784 1.6320825 0.79961395 1.3655607 -0.08539353 -0.5462703 0.66660964 0.53192794 0.15231523 -0.26552975 0.66781396 0.266895 0.33234194 -0.010156777 -0.6409679 -0.26648107 -0.5213239
chinese 0.1920412 0.8068741 -0.9882662 -0.5327221 0.34032336 -1.2815775 -1.1540517 0.268419 0.7747526 0.8337117 -0.6431852 0.9328658 0.24801779 0.37338978 0.85060775 -0.25994647 1.8975848 1.2152219 0.48229647 1.5119942 -0.7266796 -0.87552917 -0.012781017 -0.28119215 -0.8380958 -0.35161954 -0.27632892 -0.4202679 0.11187927 -0.6006201 -0.05324777 0.056279223
attentive -0.3242011 -1.1957532 -1.1912317 1.6611483 -1.2560444 0.8848702 -1.4197965 -0.26916397 -0.74319273 -0.43039277 0.43934333 0.9956946 1.6064475 -0.5301448 0.18079703 -1.4506687 0.17160416 0.50219035 -0.065660894 -0.68217754 -0.26864022 -0.55515176 -0.2087305 0.4132438 0.71188563 0.24117365 0.8840899 0.77203435 -1.556548 -0.67708856 -1.1760359 0.13909206
ok -0.19914488 0.12318425 -0.49142447 0.9074693 -0.67544776 -0.26873025 0.68711823 0.4015253 -0.59097624 0.37900898 0.44945347 -0.036445588 0.04161002 0.8996624 0.98577356 -1.2761029 -0.87059474 1.5678952 -0.29123035 -0.4076058 -1.1259215 -0.36681172 -0.37527293 -0.88119286 0.3380572 0.9780252 -0.885525 0.69749707 1.0651201 1.0437888 -0.25732788 0.43577302
top -0.5662873 -0.33190122 0.025080467 0.71916676 -1.0598245 0.77020794 -0.9948596 -0.4091102 0.7996642 1.2034372 -1.2818301 0.43265808 -0.09422562 -0.8195804 0.3541862 -1.0567898 0.69623566 0.3542645 0.6213155 -0.33259353 -0.1457148 -0.35885376 -0.13208611 0.17729278 0.30845737 -1.0496743 -0.55434805 0.9610941 0.19495302 -0.7856818 -1.1003039 0.071887664
pricey -0.5779692 -1.0571849 -0.75072235 0.49012625 0.21657582 -0.1500086 -0.20902768 -0.20095548 0.90761465 0.4189745 -0.2822192 0.17112173 -0.51466864 0.0450352 -0.4641121 -0.6193151 -0.5488319 0.25894144 0.8709175 -0.5589849 -0.3007721 0.15059035 -0.24075475 -0.90390164 0.24958856 1.4692999 0.6634936 -0.72771823 -0.12723756 0.223294 0.82627034 0.07567381
pleasant 0.5417388 -0.4982228 -0.24273153 1.1194814 -0.613953 -0.27701178 -1.2531693 -0.7010091 0.21268106 -0.47250694 -0.76716334 0.58196294 0.28823593 -0.028891731 -0.046659485 0.12497215 -0.35049024 0.59125143 -0.25912336 -0.17088416 -0.041366275 -0.5800132 -0.39172393 0.38576132 -0.003981326 1.1751515 1.8088224 0.18464592 -0.49496076 0.33723578 -0.88330024 -0.64571863
comfortable 0.052897085 -0.4162882 1.0251701 1.6472784 -1.5462053 -0.6409183 0.568411 -0.016538305 0.2262095 0.18544039 1.0520059 0.2540977 -0.12537673 0.25054553 0.23675105 0.12688096 -0.50687987 0.41335484 -0.58243406 0.2115645 -0.18337134 -1.3426687 -0.22675766 0.21347646 -0.11061519 0.777354 0.6145029 0.0024872934 -0.96860117 -1.2995785 -0.018099366 0.21753615
glad -0.92300427 -0.2963824 -0.8427824 0.67045426 0.9794803 0.182737 -0.26945397 -0.013034195 -0.70646703 0.27695638 -0.81874543 -0.1735647 0.5389905 0.4453596 -0.059205167 0.35990968 1.2485003 0.9074185 -0.85723394 -0.17310716 0.14231718 -0.44084555 0.87234837 -1.0429083 -0.12170872 -0.1206612 1.2589395 0.184808 0.9926629 -0.08170029 -0.50396794 0.13843086
mexican -1.1575001 0.26925474 0.05724727 -0.008821991 -0.9222035 -0.25494722 -1.5417624 1.0311258 -0.32093862 -0.49423417 0.12532614 -0.5487397 1.2460784 1.3055972 -0.2805502 0.7368242 0.39649507 -0.28724942 1.1389053 -0.519494 -0.073562875 -0.60031307 -0.10546406 -0.80949163 -0.73627377 -0.6803864 -1.7351114 0.9426061 -0.3837641 -0.29711244 0.2680014 0.16286562
loud 0.6647854 -0.17252246 -0.17469937 -0.5269032 -0.109198354 -0.10784499 -0.08127396 0.373312 1.265258 -0.4357309 -0.7815888 0.033810586 0.564163 0.66529095 0.27904233 -0.4332778 0.46090454 0.8392861 0.6300026 -0.046028405 -1.9505135 0.02957671 -0.37227786 -0.4044583 -0.8836775 1.2412244 1.1920276 1.0986544 0.18509427 -2.1733828 0.1731751 0.549936
low -2.0915487 -0.7571507 -0.7781679 1.0149868 -0.6186481 1.3508596 -0.52624065 -0.04403159 1.1810906 -0.07765533 -0.2599085 0.44134575 -0.81410176 -0.66080225 -0.31766587 -0.30606446 0.47249296 -0.2515877 0.66268307 -0.07322525 0.29733062 0.3397005 -0.39619285 -1.0423996 -0.5523735 0.9894205 0.5705363 0.18752374 -1.146194 1.1130826 -0.47002646 0.2031509
impressed -0.62972146 0.047489803 -0.2683546 0.46743006 0.17418244 0.31643873 -0.13382901 0.08377714 -0.45396915 0.09938096 0.14182699 0.47483388 0.50333756 -0.44782996 -0.5112145 0.07552094 0.31101957 0.19797336 0.90155363 -0.33403632 0.016123287 -0.16542667 -1.0922568 -0.29962456 0.773185 1.1110163 1.1660066 -0.8526507 0.28296053 -0.5574048 -0.29143274 -0.10619451
awful 0.7388329 -0.24808358 -1.3916544 1.1387423 -0.14364745 -0.3223605 0.6386263 -0.25411746 0.5974912 0.52529377 -0.5993931 -0.39357978 -0.4778047 1.2116861 -0.08919536 0.44830778 -0.60116327 1.1311972 0.4503217 1.8215587 -0.7903689 -0.9903822 -0.14938672 -0.7141328 -0.07443848 0.10508198 0.66075456 1.6773566 -0.49769935 0.31441712 -1.4294572 -1.089141
surprised -0.44772527 0.5134356 0.025192508 0.19729209 -0.2748654 -0.6132086 -0.1600335 -0.5508809 0.57491326 0.53941315 -0.4087868 1.0951192 -1.2522397 -0.44976148 0.4680252 -0.8596592 0.5982337 0.6509219 0.1536669 -0.22359452 -0.18786946 0.025881855 -2.1621284 -0.25385922 0.66704506 -0.38904876 -0.63780457 1.0412357 0.2673561 -0.14891213 0.1609304 -0.85145646
disappointing -0.37762803 -0.71937966 -0.57393265 -0.62005687 -1.1870441 -0.89042044 0.18707944 0.39910817 0.4408302 -0.1411155 -0.2294122 -0.0002440433 -1.1961135 -0.34957665 0.9577449 -0.0898872 0.43390155 0.48887765 0.9623254 0.28174824 0.32890308 -0.83292323 0.02467393 0.93645227 -0.8243093 -0.6969729 -0.019579876 0.6728314 0.98526466 0.2243072 -0.4175708 -0.31826922
such -0.7810653 -0.8377 -0.047511686 0.27811396 -0.84199005 0.19906583 -0.6980317 0.6583156 -0.45467702 0.19135134 -1.0528843 -0.30541137 0.5845235 -0.4179933 -0.5647716 0.50149935 0.6728243 0.68505114 0.35939986 -0.5209918 0.41304547 -1.284394 0.8729099 -0.90741545 0.32087725 0.70837426 0.39243907 0.6554607 0.04069311 0.84303933 0.060400233 1.1611977
sorry -0.96578825 -1.1749606 -0.0030246389 0.654783 0.4199191 0.9330782 0.5006052 1.1410013 0.09110371 0.7717889 0.049942248 -0.93258095 -0.8865178 1.0139154 0.1456914 -0.5052722 0.2809195 1.7564383 -0.10409029 -0.2167395 -0.27672762 0.8458516 1.4055912 -0.7704479 0.41364366 -0.17961337 0.010488146 0.49223846 -0.8179631 0.27644417 -0.057297405 -0.361106
flavorful -0.46850404 -2.0407681 -0.5252392 0.3652969 0.11866449 -1.4313655 -0.4045607 -1.2867763 -0.092457056 0.97176504 -0.38355005 0.47214112 -0.43715253 -0.32938582 -0.17388153 -0.6216026 -0.38354796 -0.7624237 1.3500494 -0.039661624 -1.2139804 -0.37589955 1.0969505 -0.95549005 0.093696475 0.5992879 -0.040577997 0.68018514 -0.9524687 -0.9180306 -0.84478223 0.37334213
italian -0.40271807 0.7474803 0.45651153 -0.39707628 -1.4418153 -0.620651 0.12663715 0.15486078 -1.484431 0.9649444 0.6052754 0.1706024 0.438111 1.0248629 -0.16735415 0.23596345 0.83412725 -0.051557995 0.4895518 0.30486348 0.85130304 -0.5376309 0.5113225 0.056570932 -1.0324876 -0.18428941 0.29154554 0.24122871 -0.5381252 -0.759584 -0.31544626 0.22126459
excited -0.42092478 -0.77470237 -0.5584737 -0.09548783 -0.28307968 0.19098698 1.0058521 -1.3540807 0.7602357 -0.07007452 -0.73924774 0.95652074 -0.87793714 0.8446711 1.1376983 -0.60324496 0.2826842 -0.90938604 -1.2862569 0.049486555 0.5002466 -0.8364289 0.63158965 -0.28789082 -0.58620375 0.104225636 -0.107171535 0.96836483 0.054505516 -1.1167305 0.09136528 -1.2442594
cute 0.4258875 -0.7831043 -0.4525986 -0.2049665 -0.33640876 -0.25320774 0.61047405 0.07771517 0.34360555 -0.18203071 -0.2946922 0.3464619 0.7944889 1.01691 -0.58959866 -0.41232473 0.22512516 0.87171733 -0.6620744 -0.47389397 -0.15887837 -0.7679402 -1.1681594 -1.588671 0.39691293 0.09753363 -0.7003104 0.12972006 0.37672114 -0.6096653 0.699592 -0.97608453
salty -0.14745174 -1.221459 -1.1906385 1.5055315 -0.43969208 0.22707106 0.05742133 0.77695113 0.37963742 0.9117146 0.038836844 0.774481 -0.82798296 0.9219963 0.76299345 -0.6180813 0.15144101 -0.035867076 0.27791944 0.4057397 -0.15185615 1.4037313 0.04519756 -0.68098694 -0.85832137 -0.35377544 0.17111269 -0.24427727 -0.38117903 1.0149667 -1.0678554 0.37785336
mediocre -0.13562386 -1.6770283 0.085900575 0.339082 0.02177244 0.29470634 -1.3742119 1.0880414 -0.57595026 0.80484146 -0.48793757 0.62557304 0.092633925 0.22571707 0.23357202 -1.0575504 0.84501636 1.2487879 0.19267306 1.1605 -0.17060705 -0.38392654 0.43995944 0.048380658 0.8750431 0.44476148 -0.25251862 0.06849077 0.93068755 0.026208341 0.79934675 -0.72150606
fun 0.36309382 0.39524138 -0.6358085 0.13535933 -1.3385607 0.37931988 0.68532723 -0.23829474 0.49540663 -0.94837964 0.4857431 0.35991007 0.5070695 0.4544361 -0.7151157 0.0075067 0.5263043 1.0934607 -0.20583546 -0.85582465 -0.8514811 -0.055500563 -0.81925637 -0.9630086 0.11171968 0.26567867 -0.37456214 0.20348512 0.37908733 -0.8811536 -0.24857616 -0.2469357
soft -0.623753 -0.78831345 0.40413103 0.37999454 0.2998312 -1.9414839 -0.35840532 1.0232551 0.96815026 1.032805 0.71194404 0.19868131 0.9404504 0.6854787 0.7676188 0.35311487 0.49017623 0.55597 -0.031953566 -1.121715 0.7870787 -0.18532841 1.0719836 -0.93838465 -0.15410787 0.44495597 -0.2422126 -0.23786399 0.11075222 0.051128864 -0.86618793 -0.00017009687
tiny -0.62559104 -0.50787777 0.23288462 1.0484115 0.05415951 -1.5761778 0.6253738 0.2990972 0.48212594 -0.84488356 -0.09553049 1.0504259 -0.5548038 0.77667725 -0.9083409 -0.04549331 1.0251256 -0.45496988 1.1974272 -0.6483944 0.0016312894 -0.7521667 -0.27168912 -0.55102915 -1.1519438 1.1646475 -0.82438606 -0.658002 -0.34045205 -0.90529096 -0.64081156 0.15505883
weird -1.136704 -0.778589 -0.57912725 0.0166509 -0.88052845 -0.6839848 -0.4566868 0.1056772 -0.47690165 1.6041781 -0.076107554 -0.17659624 0.18734795 -0.9438802 -0.028592333 -1.0160811 0.55677724 0.1663045 0.34472346 0.40856597 -0.62601006 0.46103087 -0.111372426 0.39761814 -0.7124187 0.20687881 -0.37814078 1.8512355 -0.11385871 0.04384014 0.63215375 -0.9807439
interesting -0.10190542 -0.98719925 -1.052201 0.024006356 -0.97765124 -0.29505336 0.2735111 -0.26422307 0.77997434 -0.71857864 -1.2539902 -0.028531142 0.76536775 0.1703429 0.17337424 -0.65856516 -0.43078014 -0.23193419 -0.25047368 -0.23918425 -0.17592189 -0.08643107 -0.26350585 -1.3671887 -0.44223872 0.24953929 -1.0042852 0.738377 0.2542384 -0.20817345 0.5468046 0.40541005
sad -1.3541102 -0.6591462 0.20110479 1.2201954 0.2525699 0.33264282 1.228734 -0.842603 0.27387595 -0.15461962 -0.05062882 0.81330144 -0.37612846 1.4759722 0.33191457 0.58845884 0.9444219 0.8746236 0.17801142 0.34614733 0.90416723 -0.27191684 0.082187615 -1.1677281 0.45060885 -0.15561968 0.13664095 -0.01052937 -0.67592466 -0.07150609 0.6381145 -0.51705736
hungry -0.33927935 -0.41446707 0.35304505 1.004123 -0.7010699 -0.5664806 1.7191579 -0.41130298 0.89117014 0.85332674 -0.26559013 0.77421635 -0.7383306 0.9580422 0.38738233 -0.3068069 0.640101 0.3396313 1.008996 0.19907118 -0.57169896 0.25188765 0.85259545 -0.015479632 0.73317903 0.32039976 0.41719314 0.063977875 -0.14652222 0.036700446 0.279929 -0.306331
worse -0.10096318 -0.36785075 0.21401319 1.7882252 -0.34776852 0.74614096 0.08966078 -0.842821 1.1712048 -0.00075712864 -0.3094603 0.3007291 -0.58264995 0.7158192 0.2897578 -1.1270387 -0.030968158 1.1300865 -0.26657465 0.87079835 -0.4398158 0.08116961 0.15824978 0.2636022 -1.1689682 -0.2522987 0.9371258 0.31898192 -0.24762547 0.05156362 0.11423805 -1.5412763
single -0.9616644 -0.60373425 -0.79850125 0.37193954 0.003692157 -0.43983307 0.86733496 -0.09428203 -0.61247617 -0.62675804 0.1711998 0.16085705 -0.06875065 1.344506 -0.39726868 -0.57573223 -0.17794025 1.1364421 -0.26491004 -0.44405046 -0.028413454 -0.10097075 0.16582172 0.22107115 -0.59578085 1.0181282 1.591599 0.4296554 0.0057359636 -0.88898945 0.84558463 -0.35632128
thai -0.5330619 -0.1568414 -0.15601134 1.2989364 0.73033005 -1.3161539 -0.45382512 -0.48220673 1.1249228 -0.33175048 0.7400064 1.0274965 -0.28944927 1.0439847 0.51711947 -1.0800608 1.3375466 0.41971284 -0.23400687 0.6995458 -0.047204334 -0.49117073 0.95771515 -0.48048827 -0.007813262 -0.28689146 0.3093763 0.5229345 -0.5144441 -0.3408183 -0.21196935 -0.14958377
solid 0.18919462 0.6452355 0.7011555 -0.6411285 -1.0516015 0.8374927 0.5086182 0.24906124 0.34139273 -0.16379935 0.6303936 0.7750983 -0.381306 0.06422551 0.24587633 -0.2878316 0.43115714 0.76617795 0.20074269 -1.2120049 0.5699851 -0.7122355 0.30561537 -0.626378 -0.70526975 -0.49974778 -0.5515389 1.5151263 -1.0469007 -0.53908354 -0.7886778 0.14952198
unique -0.11124543 -0.9528662 0.1417089 0.24611557 -1.0299925 0.56932765 0.22588408 -0.15688996 -0.34457952 0.67224133 0.79068685 -0.6599224 -0.43025112 0.40018812 -0.59022987 -0.5084706 0.57149935 -0.005546747 0.41044724 -1.7940003 -0.8085041 0.46193856 0.8663555 -0.9510933 -0.7950471 0.48575708 0.15208866 -0.3689666 0.8480987 -0.5223811 0.9066812 -0.12644853
fried 0.38608816 -0.9108386 0.07490258 -0.57041836 -0.7449653 -1.1197525 -1.4895321 0.20237114 0.42823955 1.3801533 0.3824766 0.7282944 0.10544453 0.466887 -0.039967548 -0.033462893 1.2824446 0.7258944 -0.63918704 -1.3978937 -0.3791487 -0.9558596 -0.3826893 -1.3071214 -1.294935 -0.4622559 -0.6205455 0.8982917 -0.27963427 -0.2785927 -1.1945597 -0.14429805
garlic -0.011451522 -1.5677015 -0.30054882 1.2917256 -0.947786 -1.5827817 0.6825711 -0.07835056 -0.0066342717 0.7758364 -0.0610928 -0.07331125 -0.41094884 0.7555016 -0.67368555 -0.44461608 0.9003134 -0.5168795 -0.13650206 -0.08091254 -0.2494259 -1.8056695 0.6747073 -1.0488505 -0.12376409 -0.93546915 -0.5635207 0.105280146 0.6571274 -1.2950338 -1.6469096 0.2607177
past -1.7417897 0.53336185 0.022050157 0.41672644 -0.69638157 0.15621623 0.7287085 -0.47368926 0.9582761 0.08066598 -0.35745656 0.50623435 0.90848035 0.6169836 0.66680616 0.0060171564 -0.13453226 1.4202594 0.43313676 -0.11652286 0.33015624 -1.2437642 -0.693748 0.9204009 -0.150828 0.66027594 -0.75406784 -0.70126736 0.13630782 0.5234237 0.29855058 -0.42592254
half -0.1307544 -0.12091871 0.36579865 -0.45345342 -0.21872368 -0.58702916 0.406582 0.72915554 0.087172605 0.36324593 0.18399048 -0.62074023 -1.095008 0.0532808 0.9950897 -0.8584961 -0.5361476 0.98062474 0.009708583 -0.68691754 -0.55983335 -0.17999472 0.70051366 0.96210784 -0.71183985 -0.016662415 0.25943342 1.2109293 0.24303584 0.23234294 -0.8078812 -0.059000313
negative -2.005213 -0.30920476 -0.8606962 0.70049715 0.4333861 0.40204793 -1.129141 -0.504295 -0.40634724 -0.10751312 -0.40396675 0.06945664 -0.35002354 0.26461694 0.2972825 -0.15936902 0.5631547 1.1240141 0.8997538 0.25576493 0.8796976 -0.2578944 -0.15915449 0.18498926 1.0451776 0.56484723 0.09021862 0.91712075 1.421145 -0.21359238 -0.56571877 -0.53109205
usual -1.25017 0.19718626 -1.7255273 0.29924008 0.10475117 -0.10107669 0.39949352 1.1152993 0.75761324 0.24791433 -0.32641315 0.15171686 1.2197772 0.644307 -0.25022545 -0.19101179 0.34373236 0.520631 -0.051355846 -1.3033131 -0.3557937 -0.2406007 -0.3414253 0.5083693 0.27101302 -0.24778105 -0.41113332 0.46209833 0.037366875 -0.0092466045 0.30898422 0.23066698
possible -0.29644758 0.38484177 0.053260956 0.8132056 0.2669397 0.33010417 -1.641744 -0.7645639 1.0887375 0.27107134 0.65857893 0.5367064 -0.4982082 -0.8125784 1.0358527 -0.3799893 0.6960711 0.8107796 0.10094766 0.5481744 0.32014912 -1.2652026 0.26974478 0.7237802 -0.26241842 2.0651646 0.47878033 0.5424424 -0.42610782 -0.34256968 -0.03539506 0.28065288
young -0.0966293 0.5690857 0.6022664 1.2862473 0.2701609 0.26977858 -0.4990459 0.5056868 0.23545614 0.3730737 -0.6396265 -0.31526124 0.6795176 0.23696679 0.57278025 0.8990332 -0.20570734 1.0169672 0.4709756 -0.76287 -0.7813149 -1.1814008 0.28967047 -0.026147444 -0.77615064 0.41574526 0.017320482 0.30688363 0.7880935 -1.0148137 -1.1782845 0.7200416
yummy -0.6875567 -0.361486 0.5926045 0.7673631 -0.021766366 -0.674425 0.09715821 0.4065962 -1.3108559 1.1118137 1.1060532 0.85152525 -0.4474501 0.34918538 -0.21699971 -1.225905 -0.6121961 -0.9234545 0.30021846 -0.28727528 -0.58770376 -0.33803836 0.86130583 -0.24150433 -0.5752948 -0.113391876 0.73836523 -0.37327516 1.0007735 -0.7701743 -0.17685366 0.28484622
sour -1.6342981 -2.045016 -0.833113 0.9294126 -0.062401354 -1.1427709 -0.27794033 1.7187812 0.41896877 1.0950612 -1.055185 1.2060329 -0.0730376 -0.9322365 0.52792853 -0.87576985 0.63002855 -0.065104924 -1.304529 0.16862799 -0.74644977 0.35618457 0.21819653 -1.0614576 -1.1117715 0.8948839 0.04502095 -0.6456215 -0.74218744 0.31971648 0.3268768 0.62595826
similar -2.6760838 -0.062469687 0.9978188 -0.6879179 0.23395705 0.32619238 0.25602502 0.17389692 0.6048813 0.5047256 0.27719527 1.1954422 -0.16396856 0.41630197 1.0361658 -0.5728619 -0.8769292 0.7296748 0.7521228 -0.06232673 -0.40105572 -0.6367401 0.20921418 -0.27692398 -0.11224356 -0.011658806 -0.18300043 0.42040902 0.47367465 0.283529 0.1515061 0.73303765
indian 0.86744505 -0.77019215 -1.2239232 0.39799696 -0.5690524 -0.19323242 -0.04133425 -0.79102445 1.0495677 0.44015324 0.31744978 0.8233307 -0.34750587 -0.26568952 0.583624 -0.4699693 0.6403756 -0.16463247 0.53274316 0.20689207 0.19583182 -0.61722755 0.22807984 0.26892096 -0.28068307 -0.49628407 -0.61835366 -0.71379536 -1.1405236 -0.4018953 -1.1451933 -0.4378141
fair -0.24703188 -0.33707812 -0.38494945 0.55104846 0.0071021165 0.74066156 -0.5420657 -0.16652279 0.49774736 0.74539185 0.57818514 0.18515374 -0.438424 -0.2975162 -0.8025473 0.024212968 -0.12285054 0.04068232 0.053192433 -0.8527701 -0.14817677 -0.0012380611 -0.88263124 -1.0074531 -0.11003148 0.2441316 -0.43484092 0.7314266 -0.017937718 -1.4429454 1.1017785 -0.18629892
clear -0.51003283 -0.7318152 -0.36901873 1.543962 0.17409259 0.6297229 -0.09403207 0.24653597 0.44067606 -0.08275991 -0.892163 0.0063634403 -0.380456 -0.51654655 -0.0004455815 -1.3764622 -0.74187213 1.0032779 1.4188073 0.59122026 -0.6167255 0.75393474 0.013284594 -0.7416312 -1.3044034 -0.5312449 -0.15009816 0.20432307 2.05518 -0.8321212 -0.21101417 0.1643065
asian 0.63533807 -0.5040219 -0.11419579 0.5037405 -0.3202042 0.23451898 0.7536683 0.34709203 0.507554 -0.17072922 -1.5699791 0.84189343 0.4227617 0.4158914 -0.7528203 -1.1959335 1.4324054 0.8126098 0.7429338 0.90601534 0.07868425 0.06395811 1.090719 0.9565411 -0.2367068 0.2721584 -1.4529004 -0.27339286 -0.4823959 -1.4753596 -0.68807656 -0.12526432
basic -0.3355202 0.070048295 0.2855142 1.2078049 -0.020318566 -0.92903984 0.44686624 -0.42823145 1.0785702 -0.30804884 -0.07180169 -0.15465857 -0.41565058 -0.17195089 -0.44290408 -0.12854101 0.83647066 0.5608373 0.0013083704 -0.4700433 0.3203947 -1.4530014 -0.21336809 -1.0136262 -0.09580821 -0.030571183 -0.97467065 0.19374739 -0.35249755 -0.3845361 -0.44932696 1.098903
standard -0.28504193 -0.47191617 -1.2130195 0.57440394 -0.7223333 0.48627198 0.690325 -0.2929506 1.2430003 0.53985685 0.6598244 0.42379028 1.3163229 0.36636895 -0.010417354 -0.9255908 0.22687237 0.4834647 -0.19575682 0.518178 -0.3387325 -0.5286328 1.1369855 0.4902017 -0.14105561 0.6573211 0.2885899 -0.51133287 0.33359185 0.015286459 0.3376435 -0.12325043
authentic -0.17705883 -0.61517507 -0.6149416 0.39051202 -0.3578188 -0.52798223 -0.572985 0.28374106 -0.32807043 0.17571908 -1.3170987 0.32690257 0.64893156 0.4271468 1.2033563 1.1558635 1.844902 1.4145694 1.0218812 0.4670659 -0.5651114 -1.6556538 0.9955123 0.4615678 -0.68602556 -0.7716225 -0.7435093 0.19719173 -1.0668639 -1.3447231 -0.36629397 0.70745337
light 0.20386441 -0.18937138 -0.70298725 0.4967614 -1.0091442 -1.0297023 0.67829907 -0.98307735 -0.45974725 0.34263086 -1.3964974 0.34167808 -0.54072106 -0.35880107 0.032419004 -0.7534365 -0.030949665 2.2083097 0.5956307 0.11500556 -1.1368026 -0.3153473 0.03412503 -1.0770854 -1.4518315 0.48859808 1.0876949 0.75438714 -0.9208361 -0.41894 0.30495414 0.9241199
korean -0.02066198 0.29429018 -1.0815189 0.91577303 -1.1871172 -0.6295766 -0.996008 -0.34828794 -0.19055758 -0.63475376 0.878407 0.7952494 -0.49982533 0.69883233 0.4190192 -0.44404978 1.5731982 0.84465003 -0.05773664 0.8653023 -0.69237167 -0.091408394 1.3888022 0.028924044 -1.023504 1.0918599 -0.56762743 -1.3529204 0.33139375 -1.1231188 -0.39182633 -0.6511991
personal -0.26264644 0.06757962 0.4032545 0.3087933 -1.924421 0.9025782 0.9632659 -0.019405205 0.8888788 0.6082674 -0.48993745 0.2617682 0.31452358 -0.8993211 -0.31436023 -0.22823907 0.3417349 0.7285246 1.2196437 0.27808157 0.6083176 0.32734 0.40014938 -0.48466247 -1.3014673 -0.46191823 0.8655753 -0.038170513 -0.021621168 -0.17357951 -0.5282442 0.55909544
ridiculous -0.7134334 -1.0195785 -0.18953496 -0.05382023 -0.37345356 -0.35843456 0.32387272 -1.3803319 -0.7537703 -0.15023482 0.024042953 0.5297165 -0.36773735 0.8069642 0.32152766 -0.17799325 0.712171 0.02580432 0.15872638 -0.9610242 -0.5530213 -0.054898582 -0.31567928 -1.06006 -0.9523819 0.29869404 -0.9849806 -0.011114622 0.9057014 0.93023735 -0.097613186 -0.49348947
original -0.7263396 0.040293828 -0.68639874 0.42129892 -0.20242143 -0.44922638 -1.0766971 -0.5907083 0.15598081 0.79259795 -0.3825366 0.57451737 0.12273265 -0.3602172 -0.119086735 0.36712295 -0.0016563497 -0.35506365 -0.6200655 -0.67094094 1.2989924 -0.19911641 0.88934296 0.5929147 -1.6405809 0.310229 0.6890758 0.31856748 0.17501721 -0.8232992 -0.0868821 -0.52326775
frozen -1.2869229 -0.1959967 0.5586582 0.032124914 -1.1177227 -0.54897124 -0.43798593 0.7964027 -0.17381279 0.15079023 -1.813025 0.8527648 0.59880817 -0.25666195 0.15983471 -0.17351764 0.8847217 -0.6134945 0.48151964 -0.6127931 0.66325957 0.1137141 -0.07458069 -0.8653556 -0.6552135 0.45941803 -0.5890846 0.8267972 -0.2636263 -0.407833 -0.7732764 0.13904649
general 0.04986084 -0.18730885 -0.53112245 -0.41277525 0.7821916 -0.5579624 -0.9130811 1.2706797 0.33904538 1.0786046 -0.47476822 0.55983865 1.2808325 0.8357962 0.28858942 -0.43254644 0.6783945 1.828602 -0.74601805 0.4101342 -0.15791474 0.030541774 -0.40538132 -1.3573303 -1.9098191 -0.03950864 0.39311597 0.09855727 -0.9567343 0.614259 -0.91902816 -0.9054289
dark 0.078210086 -1.5003697 1.299794 0.65597814 -0.2149301 -0.5378453 0.0386637 0.32369262 -0.649628 1.5061414 0.7296608 0.10788351 -0.14116499 -0.06438382 -0.59660095 0.5855111 1.2906802 2.7110772 -0.29838458 0.93076897 -2.1677282 0.44054767 0.43130934 -0.2608131 -1.2565986 0.13985276 0.7659437 0.28475207 0.44482777 0.45140046 0.74967164 -0.020077497
thick -0.18123642 -0.15487011 -1.118785 1.6411607 -1.0228164 -0.7176718 0.04023078 -0.15206565 -0.20764759 1.2139381 -0.4037165 -0.13587646 -0.3291428 -0.8014767 0.5069583 0.07688678 -0.7054997 -0.3400706 -0.17581172 0.24344862 -0.5589712 -0.5482395 -0.39912927 -1.4573821 -0.5343998 1.022493 -0.3086562 -0.03245035 -0.03411049 0.38452858 -1.0142535 0.96785957
fancy -0.08210114 -0.02591064 -0.55794704 0.69342655 0.5109699 0.7413736 1.2992598 -0.39254513 2.2730184 0.873165 1.0364408 -0.15994413 0.06504297 1.001889 -0.25768313 -1.1474997 0.061222672 1.3158926 -0.19491465 0.077019535 -0.85718954 0.3219789 -0.39287102 -0.8604773 -0.25064033 0.30459732 -0.7118913 -0.0105447145 -0.56386256 -1.3310143 -1.1065947 -0.25374997
bigger 0.5768847 -1.1683052 0.40858832 0.6302955 -0.45773754 -0.8863132 -0.042202413 0.17254426 1.0393867 0.68759567 0.58162653 0.083912425 0.5755648 0.07464548 -0.8911996 0.01621149 -0.20866913 0.57239425 0.7410022 -1.2602596 -0.13538867 0.6281715 0.18693666 -0.5596217 -1.0703155 0.7883967 -0.9982726 0.9809548 -0.07018858 0.077380404 0.631743 -0.13328853
convenient 0.118152454 -0.7245567 1.130928 0.77073514 -1.618977 0.5562536 -0.2958611 -0.57552457 0.20403062 0.264579 1.4717278 -0.61179763 -0.027181653 0.5543717 0.2892611 -1.084951 0.6559853 0.4238252 1.0973206 0.17552198 0.49920383 -0.3586481 0.20872612 0.513381 0.02358341 -0.8063342 0.18050843 -0.70437557 0.021606114 -0.012356618 0.56869805 -1.2499651
non 0.08691273 0.45842388 -0.113004476 0.9641439 -0.6303719 -0.18827961 0.07511551 0.22312333 -1.0871773 0.17949454 -0.20297498 0.2993532 0.44010034 0.40913436 -1.1746938 -1.1900387 0.4119855 0.47801688 0.69394445 1.2030911 -0.15711214 -1.4939197 -0.17772654 -0.001251931 -0.6665346 1.0824132 -0.47942585 1.0699047 -0.40248355 0.37362194 -1.7136297 -1.1635095
knowledgeable -0.21795167 -0.6122406 0.7829318 0.49023724 -1.8070966 0.87840337 0.5063293 0.41510528 -0.72258353 0.75484395 0.12260146 0.66024095 0.9195383 -0.39171055 0.43112284 -1.088792 0.49311173 0.26502898 -0.6172512 0.0722687 -1.0086833 -0.36471874 -0.4354601 0.32468122 0.51819104 -0.7786767 0.93442255 0.14333947 -1.0456588 -0.7289352 -0.5354152 -0.8732329
crazy -0.17723453 -0.15191069 -0.4243875 0.71528584 -0.9415599 0.41265514 0.13309425 0.33871984 1.0688403 -1.0793138 0.035317674 -0.043869108 0.3397165 -0.58085763 0.6778752 -0.3178945 -0.18288325 0.56606966 1.1852363 0.052389156 -0.41122028 -0.34570852 0.70193005 -0.94392425 -1.141517 1.5136528 0.51074797 0.38464132 -1.0773344 -0.28546977 0.46748808 -0.23220178
juicy -0.64856696 -0.89784855 0.83188 1.3821497 -0.73440784 -0.7594006 -1.4241254 0.2711028 0.3976853 0.08966773 -0.062271852 -0.454783 -0.26434386 0.7109959 0.4518974 -1.2663131 0.41532528 0.71911865 -0.523227 0.41146997 -0.40407097 0.3926208 0.3547374 -0.48729753 0.2263818 0.30814368 0.25711825 0.0042485846 -0.07698749 -1.1314211 -1.2311145 0.5127852
traditional -0.6938836 -0.16040982 0.36796975 0.38564017 0.17679267 -1.3101994 -0.5819608 -0.30897543 -0.860212 -0.2898464 -1.1210474 -0.2520179 0.5260606 -0.09285341 -0.08029163 -0.52955616 1.1397953 0.33322877 -0.44756758 -0.68964624 -0.041663673 -0.24396122 0.38004512 -0.26919013 -0.6969809 0.5371216 -0.8579658 -0.14978701 -0.99101174 -0.6575843 0.87168866 -0.4304103
total -0.30046037 -1.4379878 -1.2783514 1.0048901 -1.0760121 0.73410577 0.5647727 0.62727356 0.097109415 -0.32904387 0.27300704 0.053601354 -0.052876648 -0.38461828 0.53094727 -0.78397363 0.8807956 0.40230274 1.0242716 0.3945248 -0.6077809 0.12384193 0.8409915 0.29951173 -0.92097884 0.46828118 0.64971834 0.25779197 0.20508495 0.24225375 0.1111187 0.16032119
certain -0.48586664 -0.18423967 -0.9544797 0.7589833 -0.75788707 0.48007417 -0.15278569 0.9567009 -0.57753634 -0.28516442 -0.41581511 -0.392918 -0.24632007 -0.019119376 0.51125836 -0.42310688 0.014570322 -0.076032616 -0.13927497 -0.19149056 1.2667265 -0.4028464 0.46900472 -0.26123384 -0.6896583 0.9104473 0.33291423 0.37731385 0.73418367 0.56341493 0.8782039 -1.233388
true -0.6334895 0.1887011 0.58071285 0.688685 0.20999824 0.7685234 -0.20091341 0.6793792 0.54828537 0.6788483 -0.617854 0.70562375 1.4446177 -0.21798606 0.3415701 -0.38429433 1.1164042 0.37149438 0.29643732 -0.11180565 0.09766562 -0.315871 -0.8662659 -0.95166206 -0.7686256 0.21177022 -0.22471495 0.63341886 0.7115399 -0.8601899 0.25853616 -0.8628933
normal -1.1326483 -1.2546313 0.27346414 0.602098 1.1370316 -0.76193327 -0.07132019 -0.36936784 -0.7827807 0.9421129 -0.34066665 1.2574081 -0.8116149 0.3207732 0.06636319 0.65826505 0.209828 0.43678653 -0.41543266 0.112649366 -0.62695277 -0.59525347 -0.7955718 -1.785526 -0.7924163 0.99167424 -1.078737 0.66016847 -0.06310628 -1.1253421 -0.38192135 -0.94069916
polite -0.3248873 -1.4062945 0.21724707 0.6381116 -1.7137222 0.5462577 0.4485268 0.13220687 0.5823904 0.47593865 -0.026883826 -0.28874853 0.3269736 0.5342654 -0.40810958 0.4382431 0.16295598 0.49295276 -0.31561708 0.05533363 -0.251055 -0.25570282 -0.6895078 1.093183 -0.26969948 0.71361303 1.588937 0.60918033 -0.5666247 -1.0145674 -1.2369725 -0.5780133
honest -1.8587427 -0.07631466 -0.5505578 0.8216478 0.8574671 -0.06707844 -0.45997375 0.8001827 1.6326448 -0.98904455 0.32085207 0.58869135 0.18871683 0.03916882 0.8797444 -0.43479407 0.051779862 1.0313566 1.0271354 -0.8645601 -0.4757676 0.40777376 -0.36855102 -0.8573965 0.4659122 0.3703029 0.8525526 -0.38891274 -0.31338778 -0.101544924 0.14768311 0.14961156
particular 0.42065442 0.13557225 -0.19991523 1.168647 0.14536802 -0.68192595 1.0776173 0.7188619 0.73188543 1.675658 -0.8600729 -0.008874323 -0.3105903 0.6345269 -0.10207941 -0.17695247 0.43145052 0.52840555 -0.019679274 0.27034432 -0.15818779 -1.32097 -1.2434115 0.7305491 -0.30309808 -0.21075565 0.02906843 -0.4756329 -0.88538665 -0.29307768 0.55220246 -0.18689187
super 0.30569616 -0.85609156 0.43767634 -0.9254746 -0.5310316 -1.9930176 0.027021226 -0.40367052 1.7020499 -0.126992 0.33062354 1.2289399 -1.0709946 -0.29615238 -0.9465761 0.14059626 1.3324019 0.36330813 1.2284911 -2.3736458 0.36348525 -0.5990977 -0.06905319 -1.779505 -0.62478787 1.0554394 -0.060786247 0.9042236 -0.7603911 0.901652 -0.5368076 -0.20363589
satisfied -0.98255366 0.036678676 0.021293346 -0.39897576 -0.73948675 0.4410801 -0.85016656 0.41882324 0.20910998 -0.21007226 -0.2620324 -0.5481231 0.894933 -0.6641609 -0.035487887 0.30957568 0.59553355 0.43326136 0.60095537 -0.49959284 -0.0024217032 -0.8652991 1.2126449 -0.9580732 -0.5134978 -0.23111357 0.7056436 -0.6224908 0.32903498 0.029422874 -0.24624357 0.23387592
vegetarian -0.95510006 -0.3138152 -0.07659195 0.49618152 -0.45739827 -1.2439309 0.5289432 -0.56339633 -0.52924716 0.46081683 0.11623477 0.30418286 -1.5730695 1.3833258 0.0679491 -1.2423942 1.1587223 0.7312314 0.49378842 0.3130694 0.8354982 -0.84949684 -0.32421327 -0.13267174 0.32275787 -0.31822586 0.46746355 0.7321364 -0.38905802 -0.27368906 -0.80907214 -0.2607257
willing -1.2734203 -1.0486001 0.00912934 0.18602376 -0.23755604 -0.33976603 1.3753698 2.1048121 0.46883872 0.24954095 -0.5148186 0.5621663 -0.45287728 1.5166835 0.77534974 -0.76050985 0.6334149 -0.060312692 0.86987215 -0.8561541 -0.27870256 -0.16884913 -0.2600404 0.36685553 -0.8596747 -0.59829015 -0.2817606 -0.24641418 0.8477139 0.42986435 -0.43467462 -1.0330348
soggy -1.2272283 -0.33343393 -0.19497038 0.4832316 -1.1818718 -0.98324955 -0.29888695 -0.18132056 0.51406157 0.021065062 0.418108 0.52842385 -0.8413143 1.1772015 0.97934484 0.21602044 0.2774428 -0.48955005 0.41786724 0.1954907 1.2035218 0.21342976 0.09773251 -0.10970685 -1.6761274 0.3134975 -0.44809774 1.0428525 0.62447953 -0.27232632 -0.9676398 -0.22863218
rich -0.6219647 -0.38337708 -0.41495806 1.1882898 0.64548844 -1.0247616 -0.36000168 0.1362969 -0.010988396 1.320754 0.33794078 1.4420911 0.24083702 2.265623 -0.4618794 -0.3894232 0.1769109 1.4797217 -0.13679159 -0.47393727 -0.53559774 -0.040194165 -0.4012094 -0.5243262 0.78931546 -0.25391078 0.882177 -0.90840113 0.4901447 -0.08617659 -1.8884956 0.3352634
rare -1.128809 -1.1365043 -1.1024067 -0.61546856 0.095097125 -0.8897251 0.5934955 0.2317301 0.45815873 1.8004287 0.80440736 -0.6798793 0.70948964 0.029137112 -0.3117263 -0.2781193 0.28389007 0.59965026 1.1268952 0.36527032 0.17547452 0.27319598 1.4908534 -0.055981383 -1.7895919 1.6665183 -0.38683578 1.4548888 -1.1239308 0.1010377 -1.3753595 0.039417017
unprofessional -0.27025115 0.14695781 1.2339823 0.5090456 -0.28193066 0.7352486 1.2047825 1.6514537 0.3203793 0.61119014 -1.5103331 0.09018256 -0.4440385 0.56639344 0.6475857 0.47890475 0.5092788 -0.5948476 0.8139218 -0.6784887 -0.19771597 0.09710395 -0.17180493 0.7861592 -0.6344838 1.5976883 -0.4278252 1.100291 -0.77497977 0.7179406 -1.4591094 -0.42389786
additional -0.31166998 -0.9929765 -0.5970009 0.6506181 -0.12742372 0.5086732 0.5895317 -0.47331738 -0.078088105 0.27695942 0.594787 0.47930825 -0.9915329 -0.13871491 -0.13571043 -0.3103119 -0.38043743 0.7519722 -0.7909863 -0.7786669 -0.5506817 -0.40741408 0.02043584 1.0534981 -0.9997672 0.7401721 0.79455537 0.304042 1.0237427 -0.02421965 0.5648622 -0.15836024
higher -1.1616638 -0.92912114 -0.20460115 0.09666515 -0.40812775 -0.7755953 -0.6519623 -0.43047726 -0.35928813 0.7982764 -0.30377534 0.22283447 0.32771745 0.088760115 0.66233444 0.49373588 0.1806976 -0.13987729 0.8176327 0.8359195 -0.35037577 -1.0663823 -1.3627048 0.9345282 -0.5129594 1.9726509 0.1596808 0.1334203 -0.2921318 0.30150503 -0.9279897 -0.6048549
creamy -1.9633968 0.60757947 -0.43257582 0.03557621 0.6738457 -0.29277888 0.4211799 -0.2203306 0.9829135 0.20225221 -0.5747209 2.7712655 0.41339934 0.13385361 0.1887887 -0.653334 -1.0351323 0.44640568 0.2113869 0.64970356 -0.19093095 -0.36426514 0.7682011 -1.0182776 -0.72522664 -0.68686527 0.92739785 -0.29399556 -0.65369475 -1.0889055 -0.20276026 0.61472887
multiple 0.619347 -0.60420644 -0.4399871 0.9478706 -0.521447 0.054658044 -0.4232257 -0.042515926 -0.75900024 -0.5015918 -0.43615878 0.5365955 1.2117242 -0.6811472 0.29127172 0.1491957 -0.27095157 0.54835993 -0.53298473 -0.7615553 0.6223685 0.66670865 0.60583156 -0.21781106 -0.17810626 0.1846325 0.021381423 0.5991728 0.32942632 0.28242207 -0.36469328 -0.8310499
smaller -0.537046 -0.9625972 -0.40986368 0.21823427 -0.19096197 -0.6008067 0.44359702 0.4768871 0.4026541 0.47361892 0.01248564 -0.12877445 -1.3150827 0.5804275 0.07612223 -0.8808776 -0.30397612 0.18400696 -1.0584408 -0.7140683 0.18613495 -0.53550696 -0.60742515 -0.11231936 -0.25406057 0.7389768 -0.14614329 -0.79132384 0.71857244 0.06595239 0.5280877 0.8239562
positive -0.20970285 0.391189 -0.9618157 0.45817292 0.19236702 -0.26513618 0.035671145 -0.6273605 -1.1173933 0.12891293 -0.56290436 -0.19071212 1.2476611 0.20211358 0.75744766 0.019515565 0.4055076 0.016649013 -0.30200154 0.24454653 -0.27588737 -1.3071728 1.0543692 -0.6509884 0.79054195 0.94345915 1.0352868 -0.37255153 0.6149881 -0.6985643 0.8513523 -1.2703257
deep -0.6561357 -0.4615324 -0.9804365 0.5657022 0.32204816 -0.30234817 -0.80111694 -0.2442355 0.8704265 0.86617625 0.59641194 1.0957087 1.2522514 0.22119826 -0.006026091 -0.098589316 0.5848497 0.4303272 -1.2431653 0.55181795 0.28990164 -0.53806776 -0.69173974 -0.59409136 -0.6460682 -0.4044095 0.31633812 0.87106097 0.07693953 -0.99286026 -1.1999316 -0.22929873
difficult -0.5727785 -0.42899 -0.25917652 0.74680907 -0.6845929 -0.2811905 -0.18312474 -0.8479062 -0.6643011 1.1512332 -1.4511447 0.40772933 0.42681435 1.2174622 1.2439203 -0.496378 -0.06372374 1.013973 -0.21284223 -0.6337459 -0.0056751454 0.073220745 -0.84297514 0.18633577 -0.039150838 0.8813899 -0.7756133 -0.19065067 -0.52281535 0.05725329 -1.2099992 -0.18021771
limited -1.3261687 -0.5857213 0.59481925 -0.34235603 -0.18221773 0.4390972 0.50680697 0.910955 -0.1499305 0.42855442 -0.15588549 -0.9462541 -0.35919517 0.7012942 1.0812565 0.005996868 0.09954646 0.5943871 0.92239225 -0.7066631 -0.06411666 0.47729212 -0.07275034 -0.72754467 -0.35654262 1.0479388 0.023720875 0.3885888 -0.0402813 -0.2868862 0.6146687 0.500804
pleased -0.55173075 0.3435743 -0.8768339 0.22935936 -0.057217315 -0.38065398 0.8245585 -0.6689215 1.2636155 0.21909721 -0.33750966 0.7223146 -0.28331727 0.3070999 1.1419302 -1.7174646 0.41869172 1.0454988 0.404932 -0.32196245 -0.15736875 -0.6537272 0.28726763 -0.3096335 0.40845114 -0.02125696 0.07637624 -0.03970603 0.26500496 -0.54266804 0.33579594 -0.06059573
actual 0.25104287 0.21288596 -0.4691808 0.02377329 -1.2197698 0.3683551 -0.17316093 0.88113683 0.16503453 1.3569056 -0.38888824 0.06256425 0.5880406 0.8453178 0.19160128 -1.0588486 -0.29202005 -0.2740087 0.9527063 0.22895947 -0.26009533 -0.848912 0.16320063 0.74121875 -0.5156671 0.18668859 1.2115042 1.7517368 -0.7547411 0.7682762 -0.10487725 0.006835235
flat -1.4836617 0.15408978 -0.7147501 0.7634805 -0.9621294 0.47839102 0.024657812 0.467678 0.4001176 0.20601238 1.1441234 -0.5238621 -0.8237086 -0.8706109 0.55270445 -0.27298352 0.41575614 1.5365913 -0.82433957 -0.018503057 -0.41656965 -0.123894565 0.2917982 0.84396327 -0.78953755 -0.27967587 -0.21298736 -0.4937319 -0.3051816 -1.3610699 -1.364048 0.3387799
odd -0.67936105 -0.08351187 1.6130494 1.7264264 0.11711483 -0.60236806 -0.42341903 -0.21923824 0.08275454 0.0051955543 0.2095516 0.8912153 -0.030547224 0.1313204 0.69819903 -0.8661367 -0.17609212 1.2219856 0.5431187 0.14324147 0.012103811 -0.18870568 -1.33417 -0.25935113 -1.3227872 -0.4743538 -0.4056999 0.06617071 -0.41580188 0.9935208 -1.0853045 0.1055793
thin -0.15748636 -0.115422584 -1.0632434 1.2302637 -0.54386413 -0.29547644 0.031634904 0.7885628 0.06974918 1.6474965 -1.3899511 0.39367494 -0.63715166 0.6133695 -0.46806592 0.28040466 0.1199057 1.2968104 0.53344285 -0.51491416 0.9604036 -0.35605288 -0.26750734 -1.1033217 -0.06528078 -0.38913843 0.016139805 0.036185104 -0.38909003 -0.6789565 -0.21037942 -0.3838969
sick -0.38507783 -0.7310363 -0.25056437 0.6786688 0.37443188 -0.16141 -0.22798383 0.0047407355 0.8151089 -0.44933966 0.35168618 0.60888517 -1.2300055 -0.09768064 0.65715253 -1.1122854 -0.076692715 0.4261523 -0.15142474 0.018342093 -0.6523018 -0.66636145 0.25915748 -0.5121683 -0.23052004 0.06432669 0.119956076 -0.11303362 -0.13569513 0.7070373 -0.95051473 -1.6168237
double -1.1518862 0.4522108 -0.004753936 1.4172148 0.19893055 0.35821393 -0.6857712 -0.85979986 0.34653902 1.094057 -0.27714965 1.1566333 0.6820152 -0.65335447 -0.021706678 -0.19620347 0.94393754 0.015813649 -0.60951835 -0.049117293 -0.18970948 0.054723643 0.87781024 0.37235633 -0.9361388 0.5095289 -0.4689383 1.0942847 -0.82990855 0.12483613 -0.6326173 0.55755967
medium -0.9735136 0.77054316 -0.71949106 0.43768188 -1.056831 -0.57690907 -0.40700135 -0.7852478 0.65614027 0.64649236 0.91373146 -0.7305647 0.5466751 0.3851259 -0.4575067 -0.979916 0.017570341 1.2003572 -0.3127612 0.5132064 -1.081318 0.2865581 1.693816 0.15491219 -0.10329121 0.14750125 -0.56273377 1.5550297 -0.49509624 -0.6743149 -0.624995 0.0006620269
modern 0.34126326 -0.75646293 -0.6923919 0.313362 -0.3958872 -0.11976009 0.7168804 -0.35273626 0.6303812 0.015249677 0.86107177 -0.8278101 1.4058486 -0.48341382 0.7689483 -0.46243474 0.5468762 1.3362998 -0.37602267 0.13958935 0.11351639 -1.6738032 -1.2029245 0.2209802 -0.65819454 0.29649195 -0.32210273 0.8830053 0.3813089 -0.56110835 0.2126937 -0.6245832
previous 0.07184691 -0.46747643 0.103590235 0.64349806 0.8155541 0.415318 0.18919736 0.086221434 0.38132706 -0.17332081 -0.5816115 0.044124357 -1.3275024 0.8365007 0.9143558 0.17114538 0.43557203 0.6074008 -0.10958659 -1.1591852 -0.8351447 -1.0935178 0.46129328 -0.90594596 -0.77367294 0.4879007 0.01142687 -1.2214489 -0.19930606 -0.58649623 -0.30591664 0.59132653
complete -1.3214879 0.38990852 -0.11695748 0.042244315 0.3308048 0.56092894 0.054158717 2.0839088 0.43810824 0.21231116 0.255266 1.0764976 0.5593028 1.0838764 0.5476546 0.9078248 0.29333425 1.6253897 0.20063792 0.008297433 0.6699946 0.13116491 -0.16880701 0.29948545 -1.145968 0.7107845 0.1006881 0.32782567 -0.5801764 -0.8646442 -0.48579535 -0.5885647
typical -0.01575573 -0.80631083 0.57184994 0.89925975 -1.5722688 -0.12097294 0.18791264 -0.61999893 -0.41942275 0.5909791 1.0199513 0.78707767 0.32206595 0.36679506 -0.016023755 -0.21588409 1.6581748 0.14826322 -0.375839 1.0996516 -0.2033343 -1.2817822 0.007212075 0.5523362 -0.50030684 0.68345195 -0.92929506 0.29038668 0.5216948 -0.31534377 -0.7743095 -0.11397974
generous -0.8897322 -0.6830097 -0.4008338 -0.36324432 -0.4269194 -0.82919353 -0.64727694 0.4244933 0.48813605 -0.7594048 -0.04285262 -0.11560273 -0.7565996 1.1458118 -0.47855085 0.10139881 0.07099481 1.1427577 -0.3347723 -0.5574227 -0.38219655 -1.0661376 0.78281265 0.081828006 -0.23128048 -0.5041923 -0.6057308 -0.107326806 -0.4505488 -0.3094364 -0.831386 0.4616884
tough -0.58518296 -1.1502181 -1.0837053 1.6718819 -0.67877144 -0.81524676 -0.90139526 0.43523836 0.63033307 1.9528363 -0.22632271 -1.7118741 0.049328666 -1.1623365 0.6324285 -0.45299342 0.8069712 0.7731087 0.35520992 0.43710026 -0.5509602 -0.0817495 -0.48555183 -0.44106725 -0.11621471 -0.2648384 0.15041228 0.91675687 0.5169956 -0.84708846 0.49455994 0.032767184
back 0.2778109 -0.6727753 0.73170036 1.5357441 -1.7443413 -0.43210846 0.3078425 0.23228589 -0.23592915 0.99063426 -1.5213082 -0.09987486 0.07466306 0.37596017 -1.0687373 -0.37550777 0.7130951 0.7697523 -0.024901703 -0.34886009 0.6567771 -0.19746144 0.027935809 -0.37736893 -0.20745437 -0.33024293 1.0731016 0.15444745 1.6066258 -1.0666821 0.6703686 -1.030854
healthy -0.65683603 -0.86558706 0.30618623 -0.47951046 0.36669168 -0.2610343 -0.61641973 0.75242406 -0.26392898 0.35583043 0.029685762 0.84512496 1.4624928 0.8744268 -0.25405183 -0.18033919 0.9228237 0.1677759 0.43589792 0.51161873 -0.22039469 0.35705075 -0.078112826 0.076212086 -0.16512956 -0.43177775 0.70383054 1.4579406 -0.7922272 -0.8022472 -0.03696601 -0.34066376
gross -0.93530285 0.33208025 0.53599083 0.23538731 -0.6624161 -0.6604145 -1.22366 1.3887763 1.7567754 -1.1054499 0.40306768 -0.3203505 0.61655986 0.11914147 0.29683396 -0.83916473 0.24300854 1.0168043 0.5220538 0.29293475 0.11699064 -0.7914675 -0.42593443 -0.42356607 -0.6582254 0.53606236 -0.21492288 1.7210444 0.4958067 0.82990545 -0.1297575 0.0007895932
classic -0.7401924 -0.44558835 0.90505755 -0.2021153 -1.0866867 -0.03229995 0.49768227 -0.38401198 1.0605143 -0.18536417 1.2213569 1.7371548 0.6758868 0.72198963 -0.7448499 0.56488925 0.046502896 0.2657379 0.04698609 -0.7414971 -0.8138406 -0.49071854 0.24208924 0.15517126 -1.160751 -0.298968 0.09593 0.5634494 -0.3163344 -0.5716298 -0.7857486 0.26138636
casual 1.7375748 -0.48402736 -0.3488954 1.4553436 -1.1949476 0.93696815 0.35226578 1.1096183 0.56685644 1.3679621 -0.09282854 1.7126328 0.3374867 -0.33674696 0.22055697 -0.5664148 1.0421761 0.8245383 0.12671822 -0.2704529 0.5810529 0.08433999 -0.21551989 0.3566391 -0.94135773 -0.5050828 -0.120792605 -0.29134256 -0.10841223 -0.055815212 0.68966264 -0.78323203
prime -0.9026079 -0.8261978 -0.34779584 0.274485 1.0099193 -0.4939328 -0.04864964 -0.42350495 -0.6858048 1.1486082 0.6049515 0.058331683 0.910431 0.11292184 0.37300226 -0.34789842 -0.014302373 1.525157 0.8967421 0.8297889 -0.7291311 -0.76857567 0.1773687 0.10894261 -0.33756855 0.56486434 -0.23732018 0.17721865 -0.087254316 -0.3490374 0.7862271 0.23677664
cheaper -0.9195105 -0.7165951 -0.97390133 1.0091912 0.32756284 0.4514866 -0.7859701 -0.1886689 -0.54569167 -0.6339555 0.06872419 0.67279464 -0.7990922 -0.796792 -0.16062817 0.57081556 0.8373958 1.0221797 0.64404196 -0.2946508 0.69163936 0.655269 0.99636465 0.54018694 -0.20799972 1.24162 0.84167886 0.57391185 -0.6757934 0.8864931 0.5830434 0.08161199
older 0.8169838 -1.0619113 -0.20576979 0.12717421 -0.5000905 0.022683235 -0.51155967 0.83665586 -0.07457498 -0.4856175 0.28644213 0.78292274 0.18329656 -0.96160346 1.0821887 -0.032673642 0.2851947 0.41386038 0.9354497 -0.27172315 -0.6837607 -0.6006015 -0.01150162 0.37142158 -0.46993276 -0.28521502 0.4299025 0.22180127 -0.062162023 -0.14678463 0.53318095 -0.4182268
roasted -0.014909164 0.4212893 -1.0476785 0.5042602 -0.76917017 -1.0988773 0.5824515 0.14140823 -0.09131172 -0.76404285 0.04185211 -0.25623545 0.9272124 -0.28818893 0.85800517 -0.06082837 1.3033774 0.9550509 0.28306258 0.41529188 -0.7032794 -1.9267684 0.6369151 -1.6526687 -0.7493004 0.0637126 0.13490558 0.20796686 -1.1410898 -0.36810702 -0.63119173 1.0837853
larger -0.4306647 -1.1990709 -0.63980967 1.3117056 0.009083734 0.43012896 1.5096041 -1.4361029 -0.119223855 0.1481415 0.41351497 0.19532192 0.56415987 0.70746183 -0.12754257 -1.4643145 1.3374623 1.6143333 0.108767964 -0.3208735 0.22394593 0.10000188 -1.1384641 0.49651715 -0.3547781 0.41304383 -0.121783845 0.017768001 0.1774938 0.24715553 -0.49541414 -0.032227002
cooked -0.66234744 -0.47282648 0.5078227 1.0922823 -0.5400692 -1.2520925 1.2041775 0.37134853 1.1400783 1.279238 0.11515299 0.60276616 0.35121247 0.15055229 -0.16036014 0.4144958 0.812421 -0.09142411 0.5928279 0.57477945 -0.349542 -0.20165245 0.25462645 -2.0312994 0.84294766 -0.21503492 1.2382199 0.7719986 1.1632878 0.35513675 1.132755 0.029791972
heavy -0.6047672 0.031570565 -0.11524106 1.1838155 -1.4220552 -0.21613954 0.4334847 0.29102215 -0.13128704 0.3953181 -0.4246538 -0.66356933 -0.9585721 0.38045982 -1.4457735 -0.30486917 1.4233053 0.9693436 -0.12639497 -0.44287485 -0.808987 0.5060009 0.8583966 -1.5676181 -0.22662607 -0.29082352 0.34797585 0.47713047 -0.5581523 -0.48279446 -0.6778753 1.1859331
mini -0.68206203 -0.6505815 -0.21388367 1.0886966 0.19924934 0.2873012 0.80594033 1.3393008 -0.0954362 -0.77099806 1.613415 0.93784547 -0.45170787 -0.03893727 -0.09312145 -0.5798071 0.41103742 0.6200788 0.8817728 -0.16967528 -0.7790925 -0.6457127 -0.3918417 -1.7464516 -1.2987106 -0.06408905 0.86080986 1.0071758 -0.076107375 0.29728356 0.19557926 -0.11820107
tender -0.37350693 0.27226964 -0.17167619 1.5667081 0.27409112 -1.1539613 -0.19549073 -0.0968762 0.96025264 0.522884 -0.41988835 0.029352749 0.3574165 0.007950677 -0.66010845 -1.1357406 -0.40206465 1.1156557 -0.099870495 0.31764987 -0.18649372 0.30637962 1.1249267 -1.125614 -1.5174713 0.07905629 -1.0922554 0.66182256 -0.42608097 -0.89098465 -1.2575834 -0.16384667
raw -0.44829705 -1.20695 -0.40568495 0.76488155 -1.01401 -1.6581465 1.0535126 0.72323024 0.23398863 0.08041597 0.3778012 0.6143689 -0.61046165 -0.66692686 0.68815815 -0.080867924 0.15701033 0.2082422 -0.15820438 0.5968786 -0.5505281 -0.659168 0.16782184 -0.33820957 -1.0895633 1.0346996 0.63790244 -1.4353662 1.1805781 -0.5042161 -0.05564816 -1.1175066
crowded 0.5758386 -0.9529695 0.006170684 0.45239818 -0.25928622 -0.4783754 -0.62183726 0.0769543 0.15848875 -0.55879825 -0.040080752 -1.6129436 0.29433638 0.98824805 0.31940478 -0.09718263 0.799641 1.5006082 1.1134622 -0.8086276 -0.9710522 -1.0582054 -0.36440915 -0.35288188 -1.1464005 -0.256828 -1.5792437 0.76519686 0.53834397 -0.055426687 -0.07788995 0.5306058
affordable 0.49491268 -0.44129202 -0.33924752 -0.65327096 -0.477783 0.08519892 -0.59573156 -0.7312243 0.077860475 0.29269177 0.024441814 0.6444406 0.473335 0.68773836 0.27818993 -0.54677564 1.0957214 0.3105254 0.09227158 -0.6336239 -0.029429415 -0.6427765 0.19323304 -0.36599016 -0.8278707 0.022006614 0.088795476 -0.38380393 0.9617538 -0.4066983 -0.23717022 0.78389245
efficient -0.17036371 -0.16324975 -0.7747374 0.67834294 -1.4108732 -0.061231423 -0.49091336 -0.037972752 0.6475516 -0.75997126 -0.52145815 -0.31012315 0.58875394 -0.98727924 0.24779655 -0.59620404 -0.6969129 0.92561764 0.11782987 -0.21247236 -0.7541096 0.2305863 -0.11029322 0.021058917 -0.18573985 -0.52653915 0.20182674 -0.009664656 -1.4421928 1.077079 -1.135563 -1.0394214
baked -0.36560783 -0.72435045 0.4787096 0.41175625 -1.6741167 -0.061740212 -0.07759112 -0.82859755 -0.204347 0.7109805 0.10884666 0.3810175 -0.43407422 0.033860475 -1.0416377 -0.0844048 0.017937306 0.2646916 0.48583624 -0.14287747 0.4840676 0.048129566 0.30205396 -0.24864018 -0.40846473 -0.6861615 -0.41886646 0.2371717 0.3622516 -0.47024515 -1.7049361 0.077081315
american 0.89010906 -0.054674283 -0.019573497 0.8574766 -0.37836704 0.37255105 -1.1985552 -0.5023013 0.03921427 -0.96818835 0.20478782 0.7266971 -0.3240493 2.2532563 1.4736722 -0.37183416 1.4465934 1.0784035 0.93508756 -0.61961323 -0.023023723 0.56300336 0.36522448 0.2650934 -0.81411004 -0.7341812 -0.17078522 0.57895434 -0.88416344 0.14354357 -0.4938566 0.29496536
popular 0.2825502 0.17366642 0.74696493 0.86763126 -0.7528028 0.36995926 0.40168384 -0.025357522 1.5870618 -0.62048334 1.0162842 0.6600961 0.2090823 0.15423724 -0.029170467 -0.55352265 -0.85728896 0.02604823 -0.29709858 -0.91302806 -0.028596584 -0.30099392 0.90701735 -0.7017232 -0.646661 0.1608463 -0.36040038 0.040730447 0.19847374 -0.53416306 -0.51153576 0.567282
annoying 0.23018302 0.024507197 -0.8346096 -0.0483142 0.17056109 -0.85463756 0.7957937 -0.41885644 0.6394797 1.0452838 0.20090598 -0.81411123 0.3233616 0.50445926 0.23632248 -1.5163188 -0.5863766 1.6410531 0.39967054 -1.0079939 -0.4641929 -0.3593721 0.04409766 -0.20021565 -1.6318763 1.1433479 -0.5221337 0.342442 0.6304571 0.07801445 0.39240032 0.19790593
uncomfortable -0.3483252 0.2681004 0.09089286 0.34063154 -0.3632167 -0.4884779 0.49178588 0.6314821 -0.4128818 -0.45772582 -0.17538539 -0.13309416 -0.33124605 0.429773 1.1691569 0.046219617 1.0757484 0.09901084 -0.42355594 -0.61691064 0.5160362 -1.0117311 -0.9674104 0.17325284 -0.92565775 1.554834 0.24231978 0.17500265 0.9802605 0.43411115 -0.09971953 -1.012672
incredible -1.047471 -0.15419707 -1.2888073 0.13948613 0.600592 -0.5496872 -1.0757914 -2.1760905 0.6182431 -0.012724817 0.091284916 0.054644242 0.509411 -0.6957439 0.2069059 -0.22563316 0.38914502 -0.92462605 0.14240234 -0.15143594 0.2176754 -1.7748892 0.94102865 -0.19405101 -0.4101056 1.0952088 -0.09753639 -0.35483742 0.026654292 -0.22141972 -0.9692427 -0.50531745
saturday -1.1630138 -0.21581058 0.15391803 0.79093385 -1.1176894 0.98163897 0.6582542 0.34504795 0.6172659 -1.1491209 -0.11042383 -0.103762485 -1.1959429 0.79019845 0.1763839 -1.0446509 0.65211564 0.2693707 0.3769686 0.20307244 0.10800136 -1.5444739 0.09088612 -0.6282531 0.739416 0.83938605 -0.4541113 1.4078902 -0.28392076 -0.063435055 0.01609137 0.61622316
blue -0.21000363 -1.3233637 -1.4501243 1.1599423 -0.47508007 -1.3758748 0.3416598 0.28599596 0.43359074 -0.26422784 1.1344371 0.56256306 -0.02020913 -0.17127149 0.19223174 0.8198483 -0.07231694 -0.0074514737 1.3987362 0.42009968 0.23915198 0.3626772 -0.4948192 -0.6303068 -0.19241863 0.39916635 0.23959665 -0.13990963 0.785387 -1.751846 0.37635195 -1.1939039
mixed -0.9908523 0.39479187 -1.3145671 0.3130276 -0.51766527 -0.48054188 -0.061223652 0.4070458 0.21350957 0.071717 0.24991539 0.2496945 0.76496804 0.76845205 -0.082527325 -0.37379894 0.29305872 0.2458663 0.14792316 0.015474675 0.24944775 -0.7138629 -0.38463315 -0.4863668 0.4415472 0.07617931 0.7842668 0.35552138 -0.4599799 -0.070093155 -0.58156776 0.4255364
separate -1.074126 -0.7971343 0.44963956 0.64413065 -0.1204663 0.4814506 -0.38738266 0.64947134 -0.50303096 0.77224004 -0.59637 0.3348421 -0.067409456 0.42290282 1.0718278 -0.022140969 -0.38497117 0.4473814 -0.025573034 0.52065516 -0.4926784 0.34917527 0.29998264 0.8220845 -0.29093072 0.39676037 -0.25208184 -0.30844373 0.102918275 -0.3809006 0.13211033 -0.23692648
outstanding -0.9377548 0.41772008 -0.26412952 0.38005853 0.30330852 -0.46125853 -0.26262173 0.44058758 -0.152676 -1.2715937 -0.34606838 0.32072657 0.10517433 -0.12215167 -0.12012229 -1.3151314 -0.4854884 0.60136384 1.2374628 -0.4898207 0.4854172 0.1632914 0.25638923 -0.98338175 -0.0032314472 -0.87417865 2.4132187 0.67981493 0.7195705 0.17184997 -0.33196884 -0.53490835
lovely -0.37913233 0.41924956 -0.31830034 -0.07880515 -0.38860482 -1.3382342 -0.5100513 0.018963164 -0.42323035 0.2936052 -0.30298147 1.2009937 -0.57458407 0.032739203 0.52025014 0.09238986 1.1068801 1.2673244 -0.1416499 -0.60152364 1.0195966 -0.5833388 0.101276666 0.1251063 0.8233031 0.16720569 0.41096953 -0.51743686 0.15407482 -1.9560369 -0.75127065 -0.41402462
strong -0.55160815 -1.5651205 -0.4184857 -0.9623626 -0.6877836 -0.8988649 0.2052199 -0.8125442 0.4372604 0.83468574 0.34525543 0.8554004 0.49633038 0.7932475 0.83438313 -0.44185746 -0.43429476 0.2406959 0.053664383 0.066123955 -1.6049036 0.5168368 0.010923404 -0.117538586 0.33858174 0.5246213 0.82994914 0.5932669 0.1670006 -1.5438266 1.0909219 0.6974537
disgusting -0.6938519 0.113814026 -0.43443996 -0.08647115 0.22345918 -0.1800332 -1.722242 0.90322745 0.5817979 -0.6344513 -0.6604991 0.83568496 -0.4546878 -0.4893099 0.78268 0.044260994 2.5677786 -0.9064022 0.36907086 -0.18358763 0.32355702 0.48587334 -1.6887258 -1.6960993 1.1603177 0.70063615 0.51626664 1.0967911 0.7546064 -0.41693076 -0.5810573 -0.6691993
serious 0.07801212 0.15287672 -0.80766976 -0.16432944 0.19330105 -0.68617386 0.43926308 -0.32222122 -0.01846343 0.78127664 -0.41653028 0.81264734 -0.603495 -0.49975428 0.49645507 0.1545234 0.45248836 0.5848404 -0.30508304 -0.8792866 -0.2035992 -0.835533 0.42446205 -0.74998695 -0.06345075 -0.00040485698 -0.26284254 0.008879061 -0.619375 0.706458 0.6114827 -1.1673613
major 0.28251877 -0.46066898 0.6547681 0.6719817 -1.8190312 0.75151694 0.26572493 -0.06894901 -0.32625228 0.5021713 -0.79583573 -0.5675207 0.27873877 -0.6542816 0.5069903 -0.6034055 0.6440014 -0.4417775 -0.254394 -0.8242905 0.27317366 0.015785914 0.4120568 0.45332402 -0.5959448 -0.17132288 0.4180553 0.82115555 -0.09848017 -1.2453659 -0.22032191 -0.9660169
neutral -0.54195 0.92498994 -0.12510276 1.0252191 0.07448363 -0.26925388 -0.033391222 -0.6900036 -0.1001279 -0.061646923 0.6955615 0.0043638004 -0.35774177 -0.3552514 -0.17878844 0.12462734 -0.046816774 0.84957033 0.4441214 0.7184286 0.16307533 0.30019182 -0.32540116 -0.787708 -0.1955813 1.2454554 0.42052332 0.29645103 -0.5016725 -0.31091043 0.5756686 0.21243696
early -1.6101758 -0.017436111 -0.4144315 1.173664 0.8254046 -0.17823893 1.0669754 -0.12998438 0.20399106 0.18917862 0.76936364 0.043878272 0.5733231 -0.16885206 0.12702072 0.90038335 0.13638264 0.99403125 -0.7311472 -1.3063548 0.57989454 -1.3698019 -0.6287842 0.18149084 -0.019692957 0.5976773 0.3814373 0.20243716 0.22590141 -0.6629222 -0.34852296 -0.8362644
biggest 0.25745732 -0.48245507 -0.038381573 0.036972184 -1.0577589 -0.6472086 -0.37948382 -0.20673147 -0.11345616 -1.0723978 -0.75130427 0.5617683 0.6309774 0.3747959 0.9267186 -0.41083747 0.4037421 0.17210588 -0.23382217 -0.029415468 -1.0506037 -0.47180754 -0.5264846 -0.06761399 -1.2659516 1.1900626 0.68245995 0.7749471 2.0521863 -0.5410723 -0.15835306 -0.21401186
important -1.1332631 -0.35879716 0.27722278 -0.1079574 0.45467517 -0.2986392 -1.1442341 -0.054009534 0.028408643 0.8243213 -0.19929792 -0.30458462 0.39191464 -0.7075775 1.248801 -0.112472415 -0.23733291 0.44577137 -0.45753497 0.27272815 0.98354125 -1.1526644 0.39206967 -0.6594016 0.75412047 -0.029433658 0.1089727 0.66332376 0.07006213 0.548686 -0.45244247 -0.98371583
sized -0.42817262 -0.22093877 0.44933942 0.017801767 -0.6946807 -0.9104684 0.037527036 0.04004521 -0.47161838 0.5299391 1.4988998 0.6817644 0.44890767 0.42404753 0.12444815 0.63663375 0.49251616 1.1358535 0.17705314 -0.8654341 0.092877515 -0.07275438 0.43812752 0.06893531 -0.5405214 -0.9469806 -0.33386213 0.8189229 0.00025328575 -0.17164014 -0.9884166 0.33234483
quiet -0.12974678 0.08781394 -1.3979423 0.21360959 -0.19526199 0.41789645 -0.10228115 0.29577455 -0.5797697 -0.22366929 -0.21408813 0.33271432 0.24663988 0.26232594 -0.16272293 -1.0288 -0.78358716 0.85278517 0.37559965 0.015414348 -0.42129788 -0.14651811 -0.8807723 -0.92713845 -0.801512 0.88688546 0.37540385 -0.65187055 -0.03617231 0.058112927 -1.3077117 0.023364708
due -1.5992354 -1.1997147 0.8761305 0.9917899 0.07591407 0.79991585 -1.794024 0.14497297 -0.34101838 0.28050196 0.10878271 0.08721678 -0.7338333 -0.101994686 2.051734 -0.44730353 0.59717566 0.08570932 0.4121816 0.07683302 0.4000972 -0.7002253 -0.028350472 0.063037865 -1.7613685 -0.2634175 0.2046598 0.6176843 0.47224137 -0.67676467 0.099960394 0.79525745
fabulous -0.71518964 -0.5380082 0.34483397 1.0823778 0.51442176 0.582361 0.3629776 -0.13924232 -0.5074828 0.5171902 0.77292436 0.97805876 0.2084848 0.19913101 0.03026088 -1.2555962 -0.8608091 0.08201954 0.95217097 -0.20607252 0.10139905 0.117802136 -0.33754188 -1.1745379 -0.85098773 0.08570899 0.87171453 0.63071525 0.4007785 -0.6787718 -0.58583945 0.7231414
bright 0.42160347 -0.14592682 -0.5463712 0.9560663 -1.1900822 0.081349604 0.005895368 -0.37287363 -0.78242844 -0.70547915 0.6924776 0.40821365 0.35049382 0.43610147 0.10345853 0.5569884 0.061855346 1.3673953 -0.16545844 0.4889548 0.5048125 -1.4059163 -0.6844759 -0.41976196 0.14556378 0.5524661 0.6802995 -0.6676409 -1.1074021 -0.8285071 0.3155966 -0.19703816
upset -0.2959233 -0.8885627 -1.5395186 1.2816747 -1.171305 1.598874 0.4524326 -0.6681496 0.3654608 0.8056836 -0.1321831 -0.06744476 -0.38488576 0.4509159 0.21860978 0.09130122 -0.058593377 -0.0015292317 0.27533013 -0.26282144 -0.33696544 1.1814641 -0.31197077 -0.02627177 0.118805334 1.2423292 -0.25805452 1.1739886 0.39261502 -0.5644433 0.25608796 -0.20921811
enjoyable -0.08202187 0.15902321 0.2281556 0.30073518 -1.0302503 -0.6881602 -0.058057964 -0.4409917 -0.576576 0.5646185 0.7815535 0.34316188 0.29971036 -0.89874536 -0.03629492 -0.026194593 1.0927544 0.995606 -0.3003096 -0.45597354 -0.20240533 -0.50587046 0.25792623 -0.51383656 0.48436758 0.31213617 0.09963886 -0.8339772 0.48924538 0.014955627 -0.5371155 -0.5174521
outdoor 0.49048805 -0.7155233 -0.3637779 0.28374803 -0.35547405 -0.5997132 0.05364266 0.296053 0.8725199 0.3785489 0.33579367 -0.3442795 0.8073157 0.20537587 0.2700781 -0.19175176 0.88926953 0.3601905 0.05504485 -0.6082727 -0.1542975 -0.46728712 0.45648256 -0.31640455 -0.9724793 0.08532965 0.28923702 0.82041144 -0.9618022 -0.31094003 -0.27603808 0.6114071
impressive -0.81525326 -0.5194975 -0.5875653 -0.4859075 -0.1977426 -0.2096587 1.7989169 -0.212845 -0.062048923 0.06401046 0.19204377 1.070563 1.802191 -0.22504666 0.58426195 0.21944217 0.40281892 0.25258934 0.5459215 -0.5382977 -0.5887957 0.4414643 -0.66011405 -0.3786041 -0.4810651 1.5049148 -0.85361594 1.0266035 0.41427797 -0.47705892 -0.5951026 -0.91568595
interested -1.185917 0.71445817 -1.7034782 0.7238986 0.20840274 0.13533312 0.21941093 0.22102644 0.8566655 0.82234377 -0.71271986 0.09082575 -0.17254338 -1.310137 0.29488182 0.47325602 0.020098122 0.18925123 -0.49382252 -1.1553092 0.062329214 -0.5317494 0.19353572 0.21674462 -1.7553023 0.081041574 -0.63058746 0.38053122 -0.62520236 0.061374813 -1.1425333 -1.1145873
needless -0.010096978 0.12361093 -1.0485342 0.17276827 -0.40199503 0.32629633 -1.0043646 -0.29442236 0.12845021 0.3561812 -1.1296184 0.020582188 -0.016431253 0.48492503 -0.3143915 -0.23266941 0.28922263 0.95086604 0.5191567 0.48781887 -0.55756795 0.016485538 1.3013026 0.5914135 -0.23665959 1.3093271 -0.2943525 -0.18765551 0.030644232 0.6670929 0.7839163 -0.33365765
funny -0.4379922 -1.2503645 0.7448141 -0.20695417 -0.3095692 0.50050634 -0.3795538 1.2336197 0.4786801 0.30148125 -1.9675462 -0.39139748 0.8581072 -0.4356461 0.007120302 -0.86207074 0.2416047 1.0009884 -0.081048936 -0.35441688 0.34414387 -0.11523062 -0.21997926 -0.4030936 -1.5380926 -0.04253525 -0.04085962 0.70409256 -0.5010047 0.37032717 -0.48609447 -0.28777784
japanese -0.23232198 -0.5849075 -0.59529257 0.61697483 -0.39140216 -0.66709596 0.631531 -0.9491828 -0.40530688 0.6615647 -0.81718147 0.5101157 -0.5717485 0.7973428 0.29202685 -0.8601807 1.2032028 -0.18406945 0.28820682 0.7891962 -0.04280229 -1.427743 -0.746065 -0.43196306 -1.7321181 -0.26697 -1.0304418 -1.3964847 0.07174517 -1.2180867 0.12789428 -0.8478033
stale -0.95550996 -0.26356545 -0.3023542 1.4077716 -0.71668905 -1.7899163 -0.3011322 -0.084840626 1.3578638 1.0245082 0.45700845 -0.25822163 0.07074343 -0.54906535 0.31727856 0.2936538 1.1934563 -0.5899131 0.89028186 0.20962574 -0.124910764 0.33502927 0.52937216 0.2972082 -0.45095977 0.11092519 0.06432215 -0.1385856 0.022494977 0.7245442 -0.63199836 -0.99113804
overpriced -1.3063334 0.5578345 -0.57595253 0.0664325 -1.3645495 1.053173 -0.25641793 0.72399896 0.07996058 0.97602564 0.43584237 0.45411366 0.35482597 -0.9563378 -0.3406732 0.21974719 -0.62348574 1.488286 0.97021866 0.20737861 0.24988444 0.10061063 -0.030598566 -1.7206186 -0.2995412 1.4553357 -1.267037 0.72564363 1.8190988 0.13622908 -1.3878607 -0.2614737
cozy -0.27296805 -0.2585967 1.463135 1.4538767 0.21607703 -0.68897885 0.42405453 -0.5837414 0.08006655 -0.27431577 0.59443206 0.7878762 0.66637754 0.38261643 0.8667834 -0.21274698 0.1244407 1.1083461 -0.3075579 0.4880553 -0.76461816 -0.36521888 0.39701882 0.12960525 0.20670314 0.13706231 0.47910738 0.045056604 0.110371366 -0.24384417 -0.2819126 0.056799274
third -0.43975773 -0.0058459793 -0.12631853 0.38996336 0.29635715 0.6200422 -0.38009015 0.44240487 0.5237179 1.2093585 0.3108905 -0.88496864 -0.3928385 -0.01186458 0.38717175 -1.6867888 0.69018185 -0.39529732 0.10495667 -0.28048596 0.00822868 -0.047654092 0.64418083 0.09601575 -0.67689043 0.53494465 -0.5005221 0.23590209 0.5837419 -0.58406067 -0.28264305 -0.5986666
exceptional 0.28968427 0.36849266 -0.64057 0.79093874 0.29005966 1.0450224 -0.29355907 -0.8713812 0.25858703 0.6362705 0.5591069 -0.14421275 0.1336057 0.18520026 0.28155154 -1.4661745 -0.07000885 -0.42440355 -0.39854798 0.41645557 -0.22807646 0.07267262 0.65459466 -0.55496573 -0.24481465 0.534334 -0.54112405 -0.31125036 0.44457346 -0.44491702 -1.1295193 -0.34653372
patient -0.5386436 -1.3693231 0.32069054 0.16978982 0.25313997 0.83352697 -0.32685173 -0.3077201 0.60343933 0.4145176 -0.73075706 -0.33287108 0.53640854 0.2696889 0.3748201 -0.4066839 -0.15038024 0.2602008 -0.5959642 -0.91159964 -0.24190167 -0.35483605 0.7721465 -0.30552366 0.39780724 0.7651449 0.6266273 0.116116986 -0.16508342 -0.12008535 -0.5882497 -0.8833322
complimentary -0.80263054 -0.2520437 1.9626105 1.4119283 -0.32114276 0.14426433 -0.6812062 -0.41412938 0.8577775 0.73669994 1.0754454 0.18062262 -0.7365444 -0.050356966 -0.7405778 -0.08881099 -0.09494949 0.7533979 -0.47782543 -1.1973816 -0.16315596 -0.24523658 1.1112362 -0.02252337 -0.019259231 1.2713917 0.24368504 1.4333354 -0.18330054 -0.3438342 -0.13708027 -0.32725906
truffle -2.2998497 -0.98553 -0.37293288 0.3106284 -0.92759174 -1.3279014 -0.42761523 -1.2015811 0.64648396 1.2320824 -1.3470901 1.5945666 0.6150504 -0.2904676 0.14701518 -0.75677985 -0.6891722 -0.3741273 0.7072988 -0.43526265 -0.21416041 1.4758865 0.35224187 -1.1839911 0.25303745 -0.5005867 -0.24274668 0.6240097 -0.6850227 -1.605953 -0.23336469 0.19082113
